affiliation 0.1208 0.06233333 0.0435 -0.021766668 -0.007266666 0.011466667 0.08183333 -0.06573333 -0.004333332 -0.07833333 -0.06283333 -0.06526667 -0.0477 0.031600006 -0.026266668 -0.049366664 -0.04976667 0.0886 -0.0595 0.06136667 -0.083 0.0010666674 0.019000001 0.040933333 0.13596667 -0.15053335 -0.10893333 -0.042733334 0.0090666665 -0.02506667 -0.06273334 0.057966672 -0.0018333321 -0.039800003 -0.08776667 -0.010166667 0.051266667 -0.1428 -0.043300003 0.016733333 -0.13386667 -0.019333333 -0.051200002 0.04763333 0.035933338 -0.015933333 -0.028533336 0.034466665 0.060766667 0.06253334 0.03466667 0.042100005 -0.67836666 0.0021666687 0.11323333 0.0853 -0.08293334 0.03296667 0.09723334 0.019966668 0.0229 0.04913333 0.0891 -0.0252 -0.014166666 0.022066666 0.08346667 -0.022366669 0.099366665 -0.059266668 -0.038633335 0.026466668 0.010533333 0.04466667 0.0066000014 0.10036667 0.0627 -0.057000004 0.007933333 -0.009533331 -0.030766666 -0.019700002 -0.0056000007 -0.21646667 -0.06896667 0.15096666 0.042333335 -0.0049666665 0.005499999 -0.08026667 0.0039666668 -0.14003333 -0.0299 -0.08343333 0.08576667 0.108200006 0.032400005 0.03386667 -0.07543333 0.10693334 -0.21303335 -0.014833334 0.018066667 -0.10586667 -0.09446667 -0.022666669 -0.049766667 -0.019966668 0.035633333 0.03633333 0.10233334 -0.055533335 0.04456667 -0.0046333326 -0.006066668 -0.029033333 0.045133334 0.0568 0.002333333 -0.2550667 0.043666672 -0.04966667 -0.03896667 0.032700002 -0.04296667 0.21096668 -0.012333333 -0.037133336 0.07136667 0.043633334 0.06413333 0.1153 0.016866667 0.12606667 0.08663334 0.1349 -0.04743334 -0.0288 0.04246667 -0.08916666 -0.043900006 -0.026033334 -0.039866667 0.20970002 0.083566666 0.093666665 0.035233334 -0.15003334 0.070300005 0.0163 -0.08360001 0.14053333 0.059 -0.044766672 0.0247 0.06786667 0.030033333 0.16070001 5.3332996E-4 -0.06516667 -0.18213335 0.0472 0.110366665 0.036533333 -0.10813334 0.0039333357 0.0033 0.058099996 0.11323334 0.13926667 0.14606667 -0.1094 -0.007199998 -0.10666667 0.028433334 0.06063333 0.2773667 -0.06286667 -0.018766668 0.09930001 0.071033336 0.1328 -0.075833336 -0.042933337 -0.0194 -0.21546666 0.027233336 0.038366668 0.16773334 -0.028133333 -0.060499996 -0.03496667 -0.035 -0.074200004 -0.032066666 -0.08183333 0.045133334 0.07383333 0.13956666 -0.053133335 -0.1294 0.04546667 0.1033 -0.017499998 -0.026600003 0.06273334 0.038666666 0.06633334 0.0047999984 -0.0055666678 -0.012033335 0.11566667 0.13123333 -0.025833335 -0.029433332 -0.08526667 0.09896667 0.033666667 -0.019066669 0.011066666 -0.0173 0.039166667 0.057733335 0.065400004 -0.015366666 -0.039133333 -0.03996667 0.098266676 0.073233336 -0.034900002 -0.23269999 0.0145333335 0.28353333 0.015700001 -0.06513333 -0.15613334 -0.092866674 0.13866666 -0.24343333 0.073633336 0.027266666 -0.034833334 0.14590001 -0.041333333 0.04696667 0.0572 -0.05533333 -0.0589 -0.0954 0.3746333 0.040433332 0.110466674 -0.16883335 0.17826667 0.14856666 -0.014333334 0.1392 -0.014433335 0.03466667 0.008266668 -0.13086668 -0.024533335 -0.024766667 -0.08016667 -0.08023333 0.037833333 0.018733334 0.010533333 -0.13476667 0.020966668 -0.0296 -0.011566667 0.03796667 0.12673335 0.004833334 0.0502 -4.3333322E-4 -0.07963334 0.028833333 0.045100003 0.049633335 0.071033336 0.010900001 0.08050001 -0.045500003 0.012100003 -0.07073334 -0.11076667 -0.058266666 0.13126665 0.0038333344 0.058366667 -0.017533334 0.016166668 0.08703335 -0.101666674 -0.050166667 0.0884 -0.032 0.015999999
almaMater -0.10072 0.0789 0.07316001 -0.09614 0.04102 0.093899995 -0.067760006 0.045519996 0.036260005 0.1005 -0.09432 0.062400002 -0.09884 -0.123999976 -0.05302 0.038760003 0.024619998 -0.12984 0.050300002 0.03802 -0.28896 -0.00854 -0.090320006 0.102460004 0.062039997 -0.14726 -0.06368 0.20994 -0.05746 -0.09744 0.019 -0.029400004 -0.045740005 -0.023039998 0.030040005 -0.03246 -0.020600002 -0.001040002 -0.027759999 -0.024580002 -0.033079997 -0.10197999 -0.10276001 -0.072699994 0.08376 0.0093399985 0.017680002 -0.0016600018 -0.03644 0.02142 0.14096001 0.026640002 -0.68738 0.13862 0.11184 0.07668 -0.03894 0.13266002 0.15252 -0.00918 -0.009020001 -0.01216 -0.07136 -0.13614 -0.15746 0.052180003 -0.088 0.038 0.099520005 0.085080005 0.0136400005 -0.02726 0.05322 0.1289 0.080579996 0.10974 0.041920003 0.17418002 -0.04246 -0.03556 -0.005939999 -0.17996 0.010520002 -0.22922002 -0.11188 -0.07564 -0.02488 -0.030040001 0.08964 0.0746 0.0070799994 0.109500006 -0.18252002 -0.02164 0.11742001 0.12572001 -0.0914 0.084120005 0.039540004 0.13742 -0.17068002 0.13421999 -0.0658 0.053719997 -0.13610001 -0.0132599985 -0.078660004 -0.05086 -0.01624 0.09564001 0.03272 0.10948 -0.027120007 0.02416 -0.08838 -0.04264 -0.07808 -0.036199998 0.014720002 -0.29123998 0.013119998 0.04828 0.0661 -0.042519994 -0.1341 0.17138 -0.03664 -0.08862 0.053579997 -0.20380001 0.22414 0.24910001 0.028039997 -0.1316 -0.06866 0.08312 0.062379997 -0.148 -0.0674 0.0051400005 0.11788 0.007820005 -0.110319994 0.15247999 0.05998 0.06124 0.095340006 -0.1087 -0.07338001 -0.12668 -0.06478 0.05582 0.13522 -0.06838 0.07050001 0.02922 -0.013839999 0.0408 0.13424 0.111659996 0.09414 -0.13826 -0.09004 0.120639995 0.059899997 -9.1999845E-4 0.0592 0.03178 0.03328 0.08522 0.07028 0.02774 -0.03528 -0.16592 0.04808 -0.029140001 0.22642 -0.12524 -0.21738 0.0621 0.06634 -0.08890001 0.061619997 0.06788 0.08608001 0.00994 0.15522002 0.091359995 -0.086160004 -0.13162002 0.0146 -0.058720004 -0.16818002 -0.023360003 -0.12358 0.0416 0.00658 -0.013679999 0.009500002 0.041220006 0.1481 -0.08650001 0.18776 -0.04792 0.12226 0.00106 0.0032599994 -0.083179995 0.015299997 -0.0015599936 0.061860003 0.060399998 -4.9999956E-4 -0.07844 -0.006300001 -0.17332001 0.10328 -0.14141999 0.099319994 0.08998 -0.05466 0.085420005 -0.07244 -0.011319998 -0.05182 0.065060005 -0.015259999 -0.02116 -0.1446 -0.064160004 -0.17748 0.035979997 0.26880002 0.023860002 -0.15498002 -0.06594 0.09156 0.09282 -0.20080002 -0.044280004 -0.07326 -0.058739997 0.08806 -0.0028599997 -0.004599999 0.08992 -0.0020199984 0.14962001 -0.04568 0.28076002 0.06048 0.063540004 -0.2524 0.0061199996 0.20304 -0.033500005 0.12136 0.043360002 -0.07716 0.120400004 -0.01952 0.11630001 -0.04784 -0.10288 -0.44829997 0.005 0.069620006 -0.056759994 -0.03384 0.0242 0.010240002 0.11188 0.011160003 -0.033140004 -0.058600005 -0.024099998 0.015560004 -0.08448001 -0.07438 -0.0028399974 0.078779995 0.118659995 -0.08680001 0.032980002 0.06528 -0.15156 -0.18634 -0.0868 -5.6000083E-4 0.13538001 -0.075880006 -0.03042 -0.13164 0.15190001 -0.0015800014 -0.061860003 0.07286 0.0547 -0.10964 0.10453999
bandMember 0.078379996 0.073400006 0.0308 -0.0688 -0.06298 0.0881 -0.0908 0.022920003 0.0072400006 0.0775 0.07348 0.0016000003 -0.12427999 -0.08146 -0.1316 -0.045240004 0.00382 0.026139999 -0.044840004 -0.04752 -0.25970003 0.005980001 0.07610001 -0.039359998 0.12962 -0.02906 -0.014020001 0.04036 0.01252 -0.09268 0.07448 -0.03404 0.023980001 -0.014620001 0.14052 0.0971 -0.011360002 -0.053139996 -0.0026400003 0.07422 -0.105799995 -0.04568 0.05046 0.0056000003 0.01278 0.021440001 0.07622 0.026920004 0.061459996 -0.08318 0.051740002 0.04052 -0.66668004 -0.05656 0.043380003 0.03804 -0.0407 0.102979995 0.03166 -0.12040001 0.070879996 -0.0383 0.0045800004 0.0067200037 0.020019999 0.05288 -0.0551 -0.07316001 -0.076120004 -0.10118001 0.088800006 0.04712 -0.03746 0.004000002 0.0539 0.02538 -0.05272 0.076239996 -0.02706 -0.00486 0.04148 0.0449 -0.102720015 -0.1751 -0.104779996 -0.08814 -0.0026200004 -0.0704 0.20646 0.0744 0.0794 0.09424 -0.055160005 -0.0036 0.08784 0.18722 0.022020001 0.018480001 0.07754 -0.00674 -0.06954 -0.05912 0.11145999 -0.12692 -0.10045999 0.10345999 -0.0148599995 -0.093219995 -0.05770001 -0.04342 -0.03468 0.10784 0.15718001 -0.10394 -0.07554 -0.01954 0.006440001 -0.10936 -0.01214 -0.24028002 0.0391 -0.003539998 0.084819995 -0.092700005 0.04416 0.10332 0.01706 -0.06542 0.15641999 -0.075940005 0.07300001 0.11668 -0.05578 -0.053000003 0.061120003 0.08306 -0.04668 -0.07630001 -0.09032 0.0012199999 0.019 -0.015300001 -0.041860003 0.12848 0.09927999 0.0040200013 0.025280003 -0.09438 -0.048839998 0.04348 -0.078600004 -0.03846 0.024259998 -0.006339998 0.010240001 0.0051400005 0.09268001 0.0042600003 -0.04442 0.0342 -0.02384 -0.09154 0.011500001 0.0878 0.03692 -0.06156 0.04556 0.04646 -0.101600006 0.05276 -0.008940002 -0.065460004 -0.009600001 -0.03951999 0.08178001 0.052840002 0.24822 -0.13584 0.15036 -0.012120001 0.082559995 0.004880001 -0.07884 0.0556 -0.0187 -0.00458 0.013340001 0.00992 -0.1018 0.03702 -0.010900001 -0.010999998 -0.008100001 0.042600002 0.02624 0.0021000013 -0.029340003 -0.08336001 0.05014 -0.1171 -0.04478 -0.057339996 -0.05444 -0.105799995 0.24412 0.03308 -0.047340002 -0.062200006 -0.039820004 0.016979998 0.10364 0.18126 0.00534 0.08756 -0.021879999 -0.054980006 -0.027239999 0.0353 0.062300004 -0.01936 -0.097440004 -0.041120004 0.0155799985 0.12144001 -0.0208 -0.06634 0.021379998 0.005320001 -0.050120004 -0.0103 -0.13494001 0.031799998 0.29264 0.08008 -0.09966 -0.027740002 -0.04018 0.073319994 -0.23870002 -0.06474 -0.054759998 -0.05122 0.02534 8.999989E-4 -0.0454 0.039680004 -0.041959997 0.08682 -0.033660002 0.32136002 -0.048860002 0.11448001 -0.09358 0.07151999 0.084640004 0.021960003 0.05242 0.03686 0.02944 0.04852 0.0010399999 0.03516 -0.035880003 -0.104100004 -0.5049 0.11528001 0.028039997 0.13088 -0.089940004 0.051779997 -0.1312 0.02774 -0.03998 -0.023520002 0.03118 -0.10622 -0.03186 0.030720001 0.02824 0.064279996 0.03348 -0.039180007 0.016579999 0.0204 0.0066599995 -0.0016000003 -0.114080004 -0.13976 0.13340001 0.03398 -0.01134 0.15502 -0.007599998 0.051260002 -7.400006E-4 -0.083960004 0.0011799991 -0.009580001 -0.096080005 0.092920005
birthPlace 0.119533345 -0.07073334 0.013533334 0.06993334 -0.0040333336 0.09021667 0.009833334 0.00875 0.0459 -0.02306667 -0.03198333 0.0140333325 0.023333332 -0.092350006 0.046016674 0.11335 0.03423334 -0.01105 -0.0024999976 -0.055816673 -0.11813333 0.016599998 0.048383333 0.15536666 0.0010666649 -0.055066667 -0.055183336 -0.023966666 0.06615 0.068566665 -0.043500002 0.052466672 0.038383335 -0.066933334 0.0107833315 0.009116666 0.04091667 -0.048649997 0.08913334 -0.010116668 -0.021866668 -0.012483335 0.0031333342 0.017233334 0.050883334 0.023016667 0.03576667 -0.05523334 0.036650002 -0.07023334 -0.018433332 0.14358334 -0.7079834 0.077016674 0.05003333 0.0020999997 -0.038500004 -0.006150001 0.050916668 0.016850002 -0.0071500046 0.017216668 -0.047033336 -0.0071666664 -0.0029333322 0.02711667 0.0197 -0.076233335 0.014216664 0.028350001 0.0695 -0.06688333 0.06586667 -0.14403334 0.03511667 0.004316668 -0.01895 -0.047500007 -0.067433335 0.07661667 0.011783334 -0.075 0.012000001 -0.21006666 0.08663334 -0.06163334 0.16320002 -0.02886667 0.054916672 -0.052250005 0.08821668 -0.015316668 -0.012533335 -0.0764 0.10559999 -0.07678334 0.103766665 -0.07795 0.043899998 -0.025150007 -0.14718334 -0.009400008 -0.08271667 -0.027883332 -0.019866666 0.11951667 0.015766669 0.015583332 0.0030666653 0.0046833334 0.021083333 -0.012983335 -6.333329E-4 -3.0000135E-4 0.0014666654 0.020850003 0.13896668 -0.011533335 -0.07045001 -0.29818335 -0.0737 0.033150002 -0.018333333 0.03891667 -0.006949998 0.17215 -0.08105 -0.0079666665 -0.07005 -0.047833335 -0.08443333 0.019666668 0.0149666695 -0.063583344 -0.008033334 0.02655 0.03825 -0.05911666 0.013633336 0.040983334 -0.01915 -0.021916669 -0.07656667 0.17725001 0.040283334 -0.04071667 0.045900002 -0.035933334 0.018866666 0.039216667 0.019300003 0.04283334 0.0952 -0.052016668 -0.03911667 -0.023950001 0.09686667 -0.13948333 0.029316667 -0.09376666 -0.094783336 0.0016833327 -0.033966668 -0.0079 -0.0061999983 -0.026733335 0.08241667 -0.08036667 -0.035550002 0.032899998 0.12785 -0.0216 -0.0188 -0.047466666 0.2289 -0.024283335 0.19805 0.00941667 -0.031299997 0.020683335 0.031433336 0.060683336 0.071716666 -0.02665 -0.08420001 -0.101950005 -0.0025166671 0.036566667 0.05005 0.025950003 0.08256667 0.040200002 0.019066667 0.1287 -0.06813333 6.3333416E-4 -0.046883337 0.050916668 0.098850004 0.026449997 0.013766667 0.091816664 0.15956669 0.02611667 -0.17986667 0.037766665 -0.05166667 0.035233334 -0.017583337 -0.057966664 -0.071600005 0.041216668 0.07656667 -0.10851668 -0.06808333 -0.025783334 -0.013966667 0.04191667 -0.18541667 -0.07676667 0.011800001 -0.11748334 -0.10475 -0.0469 -0.008766668 -0.022766665 -0.033283338 -0.046833336 -0.13173334 -0.07756667 -0.21465 0.033749998 0.26195002 -0.085433334 0.0183 -0.09715 0.05916667 0.011899999 -0.19538334 0.08911668 0.012 0.1175 0.12866667 0.013283333 -0.056700002 0.13435002 -0.062033337 0.024433335 -0.10048333 0.27655002 -0.05606667 0.076850004 0.033850003 0.011066668 0.004666667 -0.03685 0.047900002 -0.07891667 -0.062266663 0.012116666 -0.0112333335 -0.027766665 -0.021216666 0.025783334 -0.27068335 0.03486667 0.04435 -0.013316664 -0.14789999 -0.063666664 -0.094500005 -0.018416665 2.3333418E-4 0.008583335 0.0663 0.05846667 -0.0048 0.08321667 -0.050466668 0.048533343 -0.058866672 -0.12098333 0.013933333 0.080583334 0.015366666 0.056450006 -0.0072833328 -0.027866667 -0.06958334 0.031850003 -0.0020499993 0.067250006 -0.016516663 -0.019066669 -0.15045 0.14166667 -0.069016665 0.12635 -0.04841667 -0.08051667
ceo 0.075125 0.028349997 -0.015774999 0.007887501 -0.014699999 0.0692 0.0294375 0.024150003 0.0836875 -0.096862495 -0.0134 0.0184625 -0.0205625 0.011462498 0.0549625 -0.058662497 -0.0528375 0.102512494 0.0320125 0.0029250002 -0.22657502 -0.007375 0.010887498 -0.039587498 0.035475 -0.0416625 -0.08598749 -0.027425 -0.0467875 -0.186425 0.10303751 -0.062225 -0.0586375 -0.0029375004 -0.032675005 0.0499 0.025112499 0.0394125 0.027424999 -0.0219375 0.049149998 -0.0063999984 -0.036875002 -0.025675002 0.123174995 -0.0569125 -0.015237501 0.036675 -0.021375 -0.0032250015 0.03395 0.023224998 -0.67975 -0.0611 0.13616249 0.008125 0.110599995 -0.0012875013 -0.0029624999 0.020275002 -0.025462503 0.082725 0.0463625 -0.084750004 0.028450001 0.07959999 0.0619625 0.056512497 0.017624993 -0.008974999 0.014087498 -0.049987502 -0.0542375 0.0158875 -0.015687503 0.06875 -0.0022124997 -0.030000001 -0.057325 0.026 -0.0064000003 0.0371125 -0.017012501 -0.2446 -0.0505625 0.0779875 -0.05167499 0.0497 0.1772625 0.0027874988 0.072375 0.0668125 0.010525001 -0.0374875 0.028225001 0.0808 -0.032575004 -0.0020124996 -0.045137502 0.046575002 -0.12836249 -0.0321875 0.0629625 -0.1490875 -0.116425 0.03695 -0.064175 0.036475 -0.100287504 0.0540625 -0.037062496 0.1651625 0.0349875 -0.020549998 -0.114887506 -0.147125 -0.008112501 0.0153 0.0256125 -0.29268748 0.0794 0.079475 -0.029712502 -0.07114999 0.045975 0.16227499 -0.016187502 0.029037502 0.1902125 0.0012625003 0.028125 0.099425 -0.08297501 0.009287501 -0.065 0.032950003 0.066325 0.0788125 -0.1479375 -0.0506375 -0.047487497 -0.048837498 0.015962498 0.10402501 0.00895 0.0302375 0.079799995 0.025299996 0.1072875 0.041249998 0.0040874993 -0.044487502 0.0732625 0.0911875 -0.0493 -0.015875 0.039187502 -0.0041124998 0.0989625 0.045687504 0.0300875 0.0263125 -0.0016499981 0.040437505 0.053825 -0.0112375 -7.000002E-4 0.051200002 -0.0012875013 0.101449996 0.0439125 0.0033999989 -0.009774999 0.032149997 0.029550001 0.0405375 0.24245 -0.061724998 -0.0801 0.076037504 -0.0016125003 0.1110125 -0.016762497 -0.071624994 0.050887495 -0.0233875 0.0083625 0.04085 -0.107225 -0.0470625 -0.013725001 -0.0978625 0.039325 -0.083987504 -0.0396875 0.029249998 0.0377375 0.0745125 0.111337505 -0.0960875 -0.06285 0.056275003 -0.04595 -0.0756875 0.065974995 0.049624998 0.073075 -0.08068749 0.021787504 -0.0844875 -0.0198125 0.043212503 0.01025 -0.028225 0.0459375 -0.0908125 0.019499999 0.05235 -0.06475 -0.0434 0.120387495 0.075075 -0.012412501 0.020037496 -0.022612503 -0.12856251 0.081425 -0.006537499 -0.135425 -0.022925 -0.1698875 0.051462498 0.28820002 -0.0065375012 -0.0752875 -0.1517875 -0.12565 0.096599996 -0.24022499 0.044712503 -0.0159125 0.032687496 -0.032325 0.0156875 0.0025124988 -0.061012503 0.0566125 -0.0044250004 0.028050002 0.2805 0.010125 -0.1228375 -0.1611 -0.0287875 0.15333751 0.019250002 0.0217 0.074675 0.0236125 -0.0825 -0.0838875 0.10645 -0.0363375 -0.094825 -0.4537375 0.051574998 -0.03745 -0.0017124997 -0.2350125 0.057575002 -0.101575 0.0994875 -0.0036624987 -0.07765 0.068325 0.018199999 0.0016999999 -0.11089999 0.058675002 0.0521 -0.064525 0.0435125 0.02335 0.007874999 0.1468625 -0.037700005 -0.09105 -0.028574998 -0.009787501 -0.089975 -0.03295 7.500015E-4 0.036474995 -0.119275 0.022074997 0.09835 0.0033750003 -0.0096375 0.016175 -0.03385
child -0.022049999 -0.029616667 0.0092750015 -0.11213334 -0.009241668 0.020125 0.023466667 -0.022291666 0.09415 0.06835833 -0.08641666 -0.016 -0.075316675 -0.04315 -0.04084167 0.0060916664 6.333329E-4 0.015175002 0.041533332 -0.098691665 -0.145225 0.026500002 -0.024466664 0.045450002 -0.038775 -0.0045000007 0.010658335 0.12778334 0.028925 0.01756667 0.100308344 0.02581667 0.010741666 -0.061758336 0.126575 0.0066333334 0.093416676 -0.018716665 -0.0039416673 0.020624999 0.023825003 0.009616665 -0.021075001 0.004583334 -0.026008334 -0.03165 -0.011649999 -0.10254167 -0.04653333 -0.04314167 -0.065958336 -0.06888333 -0.69715834 0.055225 0.032508336 -0.011416668 0.003366664 0.15019166 0.039166667 0.015125002 -0.009141667 -0.00795 -0.05864167 -0.0017083327 0.044833332 -0.014558334 -0.036825 -0.0016416659 0.013124998 -0.04754167 -0.0023500007 -0.03844167 0.024575 0.084358335 -0.056383334 0.09575834 -0.084575 -0.05539167 -0.09214167 0.057633337 0.017566666 0.008066667 0.10340833 -0.14652501 -0.001083333 0.09325 0.029891668 -0.0045249998 0.045733333 -0.025350003 -0.028241668 -0.036066666 -0.022891669 -0.09166666 -0.040466666 0.0058583333 0.050316673 0.04009167 0.010625 -0.10434167 -0.10890834 3.8333487E-4 -0.0492 -0.05660833 -0.047633335 0.07260834 0.099358335 -0.003899999 -0.13158333 0.042058334 0.08164167 0.074191675 0.042108335 0.0030666678 -0.030516667 -0.028366666 0.05749167 -0.0028416677 -0.17200002 -0.26118335 -0.0011250002 0.034175 0.09925 -0.038658336 0.10951667 0.11354166 -0.059949994 -8.500001E-4 0.025483333 0.034725003 -0.009608334 -0.042116664 0.047758333 -0.022983331 -0.012766667 0.065408334 -0.035075 -0.012391666 -0.099083334 -0.039300002 -0.035125002 -0.009824999 -5.3333247E-4 0.08971667 0.07325 -0.018133335 0.029241666 0.008008335 -0.056083333 0.009941665 -0.068125 -0.018400002 0.026633335 0.048816666 -0.044524997 0.022358334 0.002574999 0.04275834 -0.006616667 -0.047566667 -0.04075 -0.05775833 -0.036791667 0.08686667 0.06775 0.03593333 0.034141667 0.056950003 0.014408333 -0.016525 0.0109250005 -0.013133332 -0.05793333 0.010449998 0.13338333 -0.053850003 0.17599165 0.014716668 -0.047141667 -0.064225 0.009116667 0.07294167 -0.0026666685 0.003316667 0.101900004 -0.094208345 -0.004175001 -0.08515833 -0.109125 0.014108336 -0.021325 0.048641667 0.025899999 -0.010791667 -0.0029583327 0.050975002 0.06125833 0.022516668 0.07946667 0.05973334 -0.03366667 -0.05090834 0.028583337 -0.027483335 -0.006350001 0.10189167 -0.019425001 -0.073125005 0.05161667 -0.034416668 0.019975001 0.0062916684 -0.049141668 -0.0034333344 -0.035175003 0.043916665 -0.021441665 0.017191669 -0.019174999 -0.016908333 -0.027633335 -0.05921667 -0.03971667 -0.010825001 -0.009366667 -0.08457501 -6.5833284E-4 -0.031783335 0.0087583335 -0.054141667 -0.07785 0.054116666 0.25080836 -0.078041665 -0.045733333 -0.031925 -0.072116666 -0.042208336 -0.153525 -0.104141675 -0.012833336 -0.021358334 0.021041667 -0.050775003 -0.036574997 0.017058335 -0.052433334 0.0076083317 -0.103591666 0.30850834 0.018966667 0.07640834 0.048383337 -0.07876667 0.009333333 -0.010083334 -0.040416665 0.08230834 0.010425001 0.025891667 0.025283333 0.003225 0.03734167 0.03779167 -0.37355003 -0.015024997 0.030875001 0.04105834 -0.058533337 -0.07620834 0.030925002 0.017041668 -0.09047501 0.059358336 -0.021983331 0.021308333 0.09593334 -0.027825002 0.04434167 0.06578334 -0.047625 -0.061366662 0.029875001 -0.0026083342 -0.033216666 0.0018999999 -0.078258336 -0.124516666 -0.068625 -0.012716668 0.063425004 0.043441664 -0.062625006 -0.020466667 0.10558333 0.09576666 0.025975 0.047250003 0.084825 -0.04303334
club -0.021866668 0.09346667 0.089200005 0.013366668 -0.062633336 0.09206667 -0.0368 0.12716667 0.060066666 0.0563 -0.1196 0.048333332 0.03466667 0.0776 -0.100033335 0.043633334 0.040733334 -0.025366668 -0.006899999 -0.0598 -0.25413334 0.0045999996 -0.09193333 0.13966668 0.13893333 -0.058266666 -0.018466666 0.09373333 -0.07153334 -0.028900001 -0.14720002 -0.12100001 -0.0027666665 -0.080066666 0.027233332 0.038066667 -0.051433336 0.095 0.044600002 0.07676667 0.0589 0.065733336 -0.001266667 -0.070533335 -0.026533334 -0.05576667 -0.02596667 0.048133336 -0.045500003 -0.09613334 -0.013966668 0.0051666666 -0.6383 0.049099997 -0.0038666676 0.14553332 0.05906667 0.08393334 0.0627 -0.052466672 0.092133336 0.12953334 -0.04743333 0.0462 0.08343333 -0.007066667 -0.053833332 -0.039133336 -0.0139 -0.003133332 -0.025833335 -0.07506667 0.1331 -0.005099997 -0.15673333 0.118499994 -0.14046666 0.0317 -0.0992 0.15046667 -9.3333365E-4 0.058333334 -0.038966667 -0.20993334 0.08533333 -0.10363334 -0.088 0.08083334 0.24123335 0.0187 0.024966668 -0.011033334 -0.017999995 -0.044933334 -0.017233333 0.081133336 -0.021233333 0.10723333 -0.044466667 0.019966668 -0.16763334 0.043966673 0.045666665 -0.11763334 -0.008066664 -0.036 -0.12640001 -0.0061666667 -0.033666667 0.053666666 -0.042766668 0.12956667 0.056466665 0.07396667 0.039100002 -0.032800004 -0.0369 -0.032633334 -0.13710001 -0.32203335 0.0952 -0.012566663 -0.051999997 0.032766666 -0.017233334 0.1473 0.033933334 -0.07286667 -0.002066667 0.07466667 0.021133333 0.09616667 0.0363 0.019233333 -0.023466667 0.14576668 -0.11836667 0.029133333 0.044700004 9.666669E-4 -0.04663334 -0.019266669 -0.12030001 0.18706667 -0.12966667 0.0131 -0.031233333 -0.06853333 -9.999983E-5 -0.025499998 -0.0364 0.006333334 0.0159 -0.06796667 -0.12296667 0.038766667 0.048733335 0.022633336 -0.0177 0.06753334 0.0064999997 -0.051700003 -0.043933332 0.055133335 0.03136667 -0.054100003 0.063266665 0.054933336 0.053933334 0.0457 -0.0875 -0.064166665 -0.049366668 -0.009533334 0.0902 0.027933333 0.29063332 -0.15096667 0.11366667 0.008400001 -0.1359 0.147 0.13686667 -0.02506667 0.058166668 -0.0037999996 -0.0034999973 0.07620001 -0.2615 0.037833337 0.008033333 -0.07946667 -0.12670001 7.000007E-4 -0.0607 -0.0028666668 0.0039333343 -0.26676667 0.14386666 0.19903335 -0.17146668 4.333334E-4 0.019866668 0.03493333 0.17386667 0.11236667 0.0021666675 -0.18286668 0.019933335 -0.0020333356 0.0496 0.032166667 -0.014400002 0.008166667 -0.0134333335 0.0076333336 0.018800002 0.055733334 -0.13036668 0.033533335 0.1087 0.059066664 0.06173333 -0.022433337 0.1552 -0.1536 0.014133334 0.031333335 -0.071100004 -0.054533333 -0.035233334 -0.05496667 0.36226666 -0.058433335 -0.16176668 -0.12866667 -0.1555 0.09886667 -0.26560003 0.06423333 0.04286667 0.035800003 0.06820001 0.0037000028 -0.1411 -0.008766667 0.0034000005 0.18936667 -0.017566666 0.3793667 -0.005799999 0.12556666 -0.098133326 -0.044099998 0.02153333 -0.0498 -0.03576667 0.100366674 -0.033433333 0.044866666 0.041366667 0.14086667 0.0653 -0.0426 -0.52646667 0.09676667 -0.036466666 -0.057166666 -0.19950001 0.044 -3.0000013E-4 -0.026766669 -0.06906667 -0.15730001 -0.048299998 -0.027166668 0.015 -0.0724 -0.0663 0.10713333 0.055033337 0.08536667 -0.08516666 0.12326668 0.0698 -0.2143 -0.07516667 -0.0424 0.006633334 -0.063433334 0.12343334 -0.008066666 0.010666668 0.09 0.0844 0.06713334 -0.070700005 -0.082666665 0.009966668 0.09233334
deathPlace 0.13916667 -0.06987778 -0.1012 -0.103933334 -0.06863333 0.099766664 0.03422222 -0.11922222 -0.06293333 0.012822223 -0.024766667 0.05341111 -0.008122223 -0.13081111 -0.036133334 0.013244444 -6.11114E-4 -0.017222222 0.17807777 0.05541111 -0.08666667 -0.013400004 0.09035555 0.034744445 -0.04666667 -0.036222223 0.025077777 0.052644446 0.06701111 0.017311113 -0.031444445 0.029988892 0.0314 0.0081 0.073077776 0.06434444 0.013233333 -0.1315 -0.018977778 -0.022622222 0.025144447 0.11304445 -0.084577784 0.035944443 -0.11888889 -0.029344447 -0.0022888891 -0.09284446 0.052477777 -0.015355555 -0.1068 0.01711111 -0.7035555 -0.04851111 -0.0074333334 -0.051688895 -0.02708889 -0.098622225 -0.053288892 -0.067077786 -0.07278889 0.029288888 -0.007255556 -0.05148889 -0.017499998 -0.053122226 -0.03078889 -0.04924445 -0.04627778 0.0259 -0.045011118 0.010811112 0.0057666665 0.008577776 -0.06435556 -0.04504444 -0.024466667 0.052922223 -0.102400005 0.022533335 -0.0017666672 -0.02973333 -0.013488889 -0.15652223 -0.006111111 -0.034566663 -0.0105777765 -0.06977778 -0.017644444 0.023877779 0.059544444 0.019600002 -0.0018999999 -0.06556667 0.024466667 0.046744443 -0.057133332 -0.034022227 -0.027688889 -0.03855555 -0.132 4.3333406E-4 -0.024944445 -0.071266666 -0.10742223 0.022411112 0.07476667 -0.11156668 -0.09575556 -0.033522222 0.08181111 0.02632222 0.043222222 -0.03733333 -0.015155558 0.060544446 -0.06745556 0.0391 0.07614444 -0.29262224 0.07710001 -1.5555488E-4 -0.09571111 0.10707778 0.005366668 0.16184445 -0.10775555 0.027133334 -0.014411111 -0.084533334 0.0473 0.05705555 0.054811113 -0.01568889 -0.0011666684 0.06147778 0.026622223 -0.015311112 -0.05316667 0.012444445 0.053055555 0.05938889 0.012244445 0.20392223 0.08688889 -0.024899999 0.06753334 0.037722223 -8.66666E-4 6.666666E-4 0.055811115 -0.03248889 -0.0010222229 -0.009077777 0.0119222235 0.08211112 0.012788889 0.10085556 0.015844444 0.09798889 -0.04095555 -0.056188896 -0.042466667 -0.04797778 -0.022100002 0.029599998 0.09638889 0.03477778 0.029211111 -0.0017888881 0.19334443 0.009522224 -0.12388889 -0.0044555515 0.028866665 -0.025877777 0.26263332 -0.08136667 -0.0073 -0.059711114 0.016777778 0.105111115 -0.024166668 -0.0045333346 -0.05335556 -0.31724444 0.012055557 -0.13742222 0.10792222 0.07541111 0.015744444 0.055122223 0.08613333 -0.035244446 0.06723333 -0.007166668 0.06967778 -0.043677777 0.11967778 0.021388892 0.038277775 0.066 0.040633336 -0.04095556 0.03226667 -0.07868889 0.018211111 0.044100005 0.030600002 0.07466667 0.059866667 -0.05086666 -0.047055557 0.052466664 0.0256 0.019655555 0.04072222 0.0016777777 -0.004811112 0.051855553 0.0019999982 0.0058333324 0.007955556 0.10260001 -0.051077776 -0.065733336 0.07401111 0.06575556 0.009744445 -0.012100002 -0.15902221 -0.0071888897 0.29862222 -0.11571112 -0.010055554 -0.005511112 -0.07608888 -0.022199998 -0.196 -0.022422224 6.444438E-4 0.03962222 0.02027778 -0.012755555 0.019988889 0.052044444 -0.07547778 -0.030688886 0.050522223 0.33650002 -0.005200001 0.026922222 0.07327778 -0.07768889 -0.011477777 -0.013000002 0.045188893 0.09345555 0.078877784 -0.055633333 -0.017266665 -0.023699999 -0.037188888 -0.053011112 -0.09205556 0.036433335 -0.09593334 -0.03621111 -0.08448889 0.078766674 0.08217778 0.0018444442 -0.061755553 -0.10648889 -0.004099998 0.15104444 -0.1134 -0.09440001 0.06943333 0.09120001 0.006122222 -0.03043333 0.08921111 -0.07502222 -0.060433336 0.085988894 0.07224444 -0.05562222 -0.0743 0.014122223 -0.036988888 -0.040077776 0.08355556 -0.0023222219 -0.024455555 0.08073334 -0.0122333355 0.11987778 0.014444445 0.013833334
debutTeam -0.027933333 0.0026833345 0.028966665 0.046383332 -0.032233335 0.08461666 0.01495 0.03215 -7.1666576E-4 -0.020366669 -0.009783334 -0.050616667 0.024683338 -0.012983332 0.031416666 -0.04411667 -0.020783333 -0.04338333 0.07028334 0.015633333 -0.13313334 0.0015500014 -0.04535 0.058133334 0.03641667 -0.11516668 0.0145166665 0.024249997 -0.042550005 0.020866668 -0.019233335 -0.041583337 0.04631667 -0.019283336 0.044916667 -0.027683333 -0.0224 -0.046766665 0.0053166663 0.0523 -0.0067166663 -0.0235 0.05055 0.11603334 -0.05846667 -0.032933336 0.009483335 0.022433333 0.053316664 0.0495 0.013033333 0.06845 -0.6163667 0.025233334 -0.026433334 -4.6666735E-4 0.009366668 0.051533334 -0.075266674 0.018016666 -0.009916667 -0.03451667 0.027866667 0.039666668 0.021983331 0.049433332 -0.023400001 0.02006667 0.04018333 0.0019666671 0.0316 0.056599997 0.105749995 0.041050002 -0.019583333 0.045966666 0.011466666 0.07288333 -0.039533332 -0.04275 -0.0021 -0.028833333 0.038283333 -0.25165004 0.05623334 -0.059916668 -0.04601667 0.009233333 0.08208334 -0.030633334 -0.058683336 -0.06436667 -0.021883337 -0.019333337 -0.020316666 -0.0012833308 0.025466666 0.061783336 -0.033316668 0.035500005 -0.19311666 0.034483336 0.0192 -0.03481667 -0.015133338 0.057600003 -0.017733332 -0.0646 0.04661667 0.026983334 -0.010066668 0.0060166656 0.028083332 0.012416668 -0.025866665 0.021416668 -0.04258333 -0.0101666665 0.023500001 -0.34503335 0.0108 -0.048916664 -0.04241667 0.093316674 -0.04346667 0.19276667 -0.00805 0.036233332 -0.0011666691 -0.0027500007 0.0045666685 -0.058533337 -0.09781667 -0.0548 0.01105 -0.003200002 -0.02636667 -0.014133332 -0.03643333 0.028616665 0.010916668 -0.010416667 -0.07486667 0.24901667 -0.039566666 -0.07713333 0.04556667 -0.018233335 0.056933336 0.08396667 0.0022833354 -0.03511667 -0.05156667 -0.045666665 0.024533335 0.030316666 -0.10326667 -0.024516668 -0.031500004 0.05675 0.012683335 0.005533333 0.021633333 0.0039666668 -0.076683335 0.0045500025 0.041783333 -0.04463334 0.005566669 0.02901667 0.16984999 0.081233345 -0.046400003 0.052050002 -1.0000029E-4 -0.031833336 0.24293333 -0.18015 0.023333332 -0.013216666 -0.024033334 -0.016600002 -0.00385 -0.0047166664 0.047650002 -0.14581667 0.05725 0.0030000021 0.058416665 -0.021716667 -3.5000267E-4 -0.07383333 0.065500006 0.06445001 -0.039016668 -0.0022666666 0.006133333 -0.018183332 0.09031667 0.088199995 -0.09743334 -0.026766669 -0.046616666 -0.026733335 -0.006466669 0.048666667 -0.024483334 -0.044249997 0.10068335 0.029099997 0.096416675 0.042099997 -0.0069166673 -0.0073333336 0.028933337 -0.10553335 0.019666668 0.0117 0.015233336 0.05585 -0.054083332 -0.004383336 -0.0074000014 0.032416668 -0.024766669 -0.09406667 0.03995 0.027 -0.041566666 -0.06768333 -0.18564999 -0.0073166667 0.35228336 0.041166667 -0.034983337 -0.15153334 -0.14445 0.14216667 -0.2676 -0.047933336 -0.0139833335 -0.01565 0.041550003 -0.018283334 -0.10093333 -0.03976667 -0.029816668 0.0793 -0.018199999 0.35586667 -0.022083338 0.048999995 -0.05505 -0.005233334 0.009966667 0.030883335 -0.08951667 0.039716665 0.017500002 0.08643334 0.06533334 0.055800002 0.011399999 -0.096433334 -0.2698 0.0185 -0.13291667 0.022283336 -0.18598334 -0.08746667 -0.039833333 -0.008716667 -0.047216665 0.009283333 -0.015433332 -0.019116666 0.010883331 -0.0023500014 0.009333335 0.09221666 0.040466666 0.004133334 0.014983333 -6.166672E-4 -0.013483333 -0.021883331 -0.107599996 0.08426666 -0.031766668 0.044316664 0.027683336 0.020283334 -0.09108333 0.034583338 0.044700008 0.027783338 -0.011866666 0.10106667 0.022716664 -0.025000006
department -0.0727 -0.117400005 0.001600001 -0.05085 -0.01495 0.04705 -0.0276 0.10165 0.07795 -0.0661 -0.0206 -0.01315 0.0487 -0.09 -0.00555 0.063599996 0.0808 -0.0122 -0.0391 -0.0014000004 -0.0585 -0.091 0.0827 0.13175 -0.029649995 -0.1669 -0.0028 -0.044850003 -0.04265 0.0189 -0.00485 0.03965 0.037699997 -0.0682 -0.078099996 -0.1074 -0.026250001 0.18125 0.112849995 0.0482 0.11665 -0.00835 0.0288 -0.0012499988 0.026250001 0.016150001 -0.022550002 -0.03205 0.0050999997 0.027599998 0.0107 0.0643 -0.59220004 -0.0438 0.02615 -0.0173 -0.0184 0.028649997 0.05405 -0.0392 0.08855 0.012399998 -0.008950001 -0.0134499995 -0.023599999 0.10795 0.077250004 0.07325 -0.053899996 -0.03855 0.010000002 -0.0298 0.0661 -0.15115 -0.013050001 0.04245 0.0306 0.01955 -0.0016000001 0.0667 0.00705 0.03865 -0.01765 -0.17504999 0.03935 -0.06395 0.10345 -0.02605 0.05685 -0.1001 0.1618 -0.0045000003 -0.017900001 -0.0304 -0.0094 -0.07965 -0.0033 -0.03875 0.036799997 0.0519 -0.18705 0.025650002 0.07025 -0.0701 0.0016000001 0.06925 -0.09315 0.106350005 0.07455 0.00615 0.0069999993 0.017699998 -0.0253 0.0721 -0.008000001 -0.03875 -0.0721 0.104600005 -0.026150001 -0.3979 -0.050449997 -0.07525 -0.016449999 0.01505 0.03815 0.2254 0.013050001 0.08575 -0.06235 0.04235 -0.00495 0.084199995 -0.035499997 0.043899998 -0.0597 0.0067500006 0.062800005 -0.016400002 -0.07115 0.0057 0.02975 0.02025 -0.04015 0.18645 0.023200002 -0.0181 -0.0231 -0.06205 0.0366 -0.0203 0.0441 0.0352 0.0022500008 0.04015 0.0467 -0.00885 0.023750002 -0.14365 -0.0577 0.05245 0.0046499968 0.03195 -0.0081 -0.062099997 -0.070199996 -0.0332 0.07085 -0.05755 -0.0286 0.08155 -0.04555 -0.10205001 -0.07575 0.0317 0.09715 -0.06755 0.1861 -0.0747 -0.038 0.08585 0.0831 0.0304 0.0629 -0.03415 0.03695 -0.16409999 -0.05245 -0.0466 -0.04405 -0.0495 0.02395 0.020400003 0.0889 -0.037 -0.15405 0.030000001 0.02255 0.11845 0.11455 -0.0703 -0.015099999 0.0073000006 -0.035000004 0.050899997 0.071 -0.023699999 0.071100004 -0.010450001 0.009300001 -0.059299998 -0.0456 0.097 -0.0361 -0.1489 -0.0058000004 -0.07715 0.016999999 0.0313 -0.020149998 0.090349995 -0.0028999988 -0.013599999 0.025599997 -0.03825 0.00415 -0.1343 0.02355 -0.06945 -0.144 -0.011849999 -0.04905 0.016149998 0.37865 -0.0245 -0.0331 -0.10335 -0.07675 0.106000006 -0.24759999 0.107999995 -0.027449999 -0.049200002 0.05915 -0.03325 -0.0347 -0.0655 -0.013900001 0.0028000001 -0.050350003 0.31800002 0.02465 -0.01035 -0.1135 -0.01845 0.058700003 0.0344 0.0391 0.0554 0.051400002 0.03075 0.030000001 -0.03135 -0.049850002 -0.0748 -0.28375 0.023699999 0.08475 0.016350001 -0.2031 -0.02555 -0.0068499995 -0.0168 1.9999966E-4 0.064849995 0.04885 -0.0037 -0.023899999 -0.0471 -0.078049995 -0.0109 -0.054449998 -0.0673 0.1044 0.0479 0.051799998 -0.041249998 -0.0691 0.04425 0.06605 0.06385 0.07795 -0.0686 -0.0412 -0.0218 -0.0156 0.05535 0.03125 0.095599994 -0.054800004 0.032500003
district 0.042925 0.014849998 0.045275 -0.059350003 0.005449999 0.036025 -0.020025002 -0.0563 -0.058450002 -0.13765 -0.0385 -0.057525 -0.018949999 0.034275003 0.08825 -0.013199999 0.0036500003 -0.038025 0.042075 -0.079025 -0.104075 -0.020125002 -0.06265 0.101475 -0.0032499991 0.01995 -0.130975 0.005725001 -0.0723 -0.053075 -0.035850003 -0.058925 -0.106875 0.0019 0.071025 0.0158 0.04295 0.042025 -0.043399997 -0.0769 -0.032899998 0.1416 -0.039674997 0.011000002 -0.020900002 0.06475 -0.120975 -0.020775 0.043075 -0.0054250006 -0.017275 0.01085 -0.646425 -0.05495 -0.022775002 0.024574999 -0.0013499996 0.003699999 -0.063250005 -0.0255 0.080275 0.01745 -0.044774998 0.045625 -0.047825 -0.048874997 -0.05395 -0.009950001 6.499998E-4 -0.0542 0.092 0.024275 -0.053900003 -0.0601 -0.041675 0.059750006 -0.004774999 -0.09215 -0.078724995 0.036399998 0.010025 -0.0042749997 0.014825001 -0.23695 -0.004450001 0.030575 -0.116675004 0.005449999 0.068425 0.06285 0.11845 0.0028000008 -0.071725 -0.102800004 -0.068825 -0.0032000009 0.07017501 -0.018324997 0.0071250014 0.071025 -0.21199998 0.100925 -0.003550001 -0.008199997 -0.0137749985 -0.03615 -0.10775 -0.02465 0.071375 0.009025 0.03715 0.0443 0.018 -0.014549997 0.034250002 -0.102725 0.063075006 0.0026999991 0.097150005 -0.369825 -0.029475 -0.078875005 -0.075525 0.028700002 -0.09425 0.229475 0.005550001 0.025900003 -0.122549996 0.01485 -0.102925 -0.045975 0.16212499 0.120400004 -0.020525001 0.033699997 0.1022 0.0592 0.034049995 0.00985 0.067200005 -0.051525 0.017600002 0.222075 -0.02575 -0.039525002 0.02395 0.053324997 0.036975 0.037699997 -0.009774999 -0.0712 0.038375 0.031125003 -0.013950001 0.06357501 -0.02055 4.5000063E-4 -0.09827499 0.065025 0.107824996 0.066325 0.09375 -0.028200004 -0.037249997 -0.048375 0.088775 8.2499906E-4 -0.0346 0.04925 0.0043750107 -0.0643 0.095149994 0.104674995 0.04935 -0.061874997 0.26075 -0.06185 0.011550002 -0.044974998 0.0915 -0.008475002 -0.089475006 0.063125 -0.034775 -0.137425 -0.064925 0.039849997 0.020799998 0.050575 -0.078825 -0.1433 0.05545 0.0874 -0.0051 0.007099999 -0.0174 -0.008675 0.16587499 0.080575 0.0665 0.075175 -0.051775 0.0152750015 -0.061025 0.0119 0.0496 -0.166825 -0.038875 -0.117275 -0.061350003 0.056224998 0.042575 0.015224997 -0.023500003 -0.14245 0.05675 0.014475001 -0.061025 -0.046850003 0.039625004 0.073575 0.023425 -0.00925 0.041550003 -0.064475 -0.070075005 -0.059674997 -0.025 0.068825 -0.16749999 -0.022 0.37559998 -0.043525 -0.021375 -0.077525 -0.00915 0.121425 -0.27255 0.15044999 0.010175001 -0.067674994 -0.0185 -0.017924998 0.025199998 -0.0343 0.023375 -0.099525 0.0030999985 0.36455 -0.088374995 0.081025 0.100600004 -0.03125 0.088975005 -0.01995 0.12917499 0.0738 0.019825 0.065575 0.030725 0.028524999 0.0406 -0.040300004 -0.290775 0.136575 -0.109025 0.0459 -0.167925 0.0131250005 -0.031625 -0.0185 0.041050002 -0.0545 0.020575 0.06125 0.036225 -0.072 0.077075 0.0762 0.0184 -0.013925 0.062025 0.108399995 0.0018249992 -0.0513 -0.077875 0.078675 -0.0057500005 0.019675002 0.004400001 0.038275003 -0.11202501 -0.08420001 0.062525004 0.0989 0.018274998 0.08235 -0.032300003 -0.0064499974
doctoralAdvisor -0.12758572 0.049371433 0.07954286 0.03178572 -0.034685716 0.071257144 -0.011271428 0.059428573 -0.008814285 0.024557147 0.00801429 0.054300003 0.037557144 -0.009657145 -0.12110001 0.0031857141 0.013942857 -0.013542857 -0.03547143 0.053714287 -0.118871436 0.0373 0.050499998 0.07112858 0.0048000007 -0.098385714 -0.046371434 -0.037128575 -0.06301429 -0.11411429 2.42857E-4 0.01817143 -0.037671432 -0.078857146 0.013414288 0.03985714 0.06264286 0.013942857 0.051657144 -0.036228567 0.0462 -0.061885722 -0.023714285 0.007171428 0.030914286 -0.020857144 -0.00707143 -0.06277143 -0.015171427 2.999957E-4 0.0398 0.11397144 -0.7317715 0.0656 0.064271435 -0.015485715 -0.07594286 0.03357143 0.11514286 -0.04651429 -0.013557144 0.03081429 -0.11377142 -0.07024286 -0.061800003 0.11692858 0.02197143 0.0022571418 -0.008 -0.0074428534 -0.109000005 -0.109500006 -0.026485717 0.0013714295 -0.02637143 0.05451429 0.082171425 0.021385713 -0.039100002 0.15021428 0.009100001 0.02317143 -0.04877143 -0.21067145 0.0082142865 -0.029728573 -0.037042864 -0.07497143 0.023342859 -0.016228575 -0.043100007 0.081700005 -0.0515 -0.0032142869 0.09652857 0.0040142867 0.030085716 -0.07728572 0.04885714 -0.05004286 -0.2027143 -0.0056285732 -0.16387145 0.015571431 -0.031914286 0.02654286 0.057771437 -0.065157145 0.011157141 0.029085716 0.033328574 0.034085717 -0.08422858 -0.026014287 -0.08278572 -0.0337 -0.08894286 0.045885716 -0.03634286 -0.35615715 -0.005828572 -0.010214287 0.0033000007 -0.0388 -0.02285714 0.19958572 0.07177143 0.0315 0.17582859 -0.0015999993 -7.1428716E-5 -0.045985717 -0.035657145 -0.04664286 0.01087143 0.09632859 -0.058257148 0.07821429 -0.06552857 0.05637143 0.06321429 0.0218 0.09247143 0.27755713 0.041342862 -0.0868143 0.12752858 0.010557143 0.013285715 0.055600006 -0.10021428 0.084885724 0.08484287 -0.022442857 -0.013942858 0.02502857 -0.029557144 -0.03472857 0.019614289 0.041957144 0.050257143 -0.018442852 0.0094428575 0.057171434 0.0011571444 -0.11648572 0.11161429 0.0812 0.10058572 -0.07751429 0.076585725 -0.13081428 0.0067000026 -0.039928574 0.054471433 0.026714288 0.2811714 -0.04237143 -0.063614294 0.034514286 0.029914286 -0.0344 -0.055914287 0.017014286 -0.022014283 -0.21474287 -0.0035000003 0.08671429 0.109785706 -0.026028575 0.03525714 0.010642859 0.022557143 -0.031114286 -0.053257145 0.024528572 0.0018285711 0.0069000013 0.11507144 0.011885714 -0.046857152 -0.07674286 0.068428576 -0.066300005 0.0048571443 -0.015771428 -0.11518572 -0.036157142 0.061085716 -0.0123000005 0.022742858 0.08912858 0.00877143 -0.0146285705 0.019528573 -0.07084286 -0.0034285733 -0.041100003 0.06264286 0.13102858 -0.036857143 0.010685716 0.09591429 -0.0379 -0.018657144 -0.053128578 0.051571425 -0.027028572 -0.13865715 -0.090085715 -0.19680001 0.0055857156 0.32430002 -0.09032858 0.05788572 -0.14448574 -0.098985724 0.16812856 -0.26677144 -0.013242857 0.004214286 -0.07680001 0.0047714296 -0.01591429 -0.038285717 0.1104 0.065414295 0.06521429 -0.05815714 0.36118576 0.016314287 -0.10557143 -0.15782857 0.1454143 0.21570003 -0.049614288 -0.0284 -0.018257145 -0.05614286 0.0103 -0.04584286 -0.059271432 0.051242862 -0.0064142807 -0.22835714 -0.012342857 0.06388572 -0.03327143 -0.112528585 5.4285786E-4 -0.0013 -0.07540001 0.016228573 0.011457143 0.078371435 0.03341429 0.050928578 -0.05544286 0.06441429 -0.002557143 0.026471429 0.07884286 0.03194286 -0.021000003 0.08091429 -0.014642859 -0.043642856 -0.066942856 0.01877143 0.0885 -0.0619 -0.15641427 0.105828576 0.0015142859 -0.10488573 -0.0027000008 -0.013714286 0.13317144 -0.080900006 -0.015685715
doctoralStudent -0.019450001 -0.0376 0.149 -0.053900003 -0.021000002 -0.0054750014 0.044275 0.113625 0.064525 0.006925001 -4.7499966E-4 -0.03535 -0.014574997 -0.0229 -0.17564999 0.017974999 0.056874998 -0.10985 -0.009199998 -0.0043749996 -0.15335 0.014549999 0.0901 0.094174996 0.042124998 -0.085250005 -0.022950001 0.007 0.006225001 -0.0807 -0.0046499968 0.0304 -0.019299999 -0.0955 -0.01805 0.094775 0.0349 -0.0733 -0.0727 -0.075275004 -0.019775001 0.038599998 0.004874999 -0.074525 -0.034675 0.0061999997 0.0612 -0.081225 0.025375001 0.095925 0.012474999 0.084400006 -0.75065005 -0.0302 -0.0069000013 0.001825003 -0.084125 0.09675 0.066825 0.04205 -0.019275 -0.07699999 -0.18794999 -0.031450003 -0.058 0.045824997 0.0502 -0.031400003 0.044175 0.03635 -0.17564999 0.02565 0.071025 0.100600004 -0.017475 0.0794 0.088825 0.01945 -0.016775 0.093125 0.012275 0.00925 0.0024249982 -0.206 -0.05565 -0.007775003 0.015225004 -0.10982499 0.13655001 -0.022550004 -0.043825 0.065075 0.025225 -0.05845 0.0543 -0.007975 -0.047074996 -0.10374999 0.00785 -0.01485 -0.172025 -0.026674999 -0.12435 0.056325 -0.1111 0.012025001 0.027125001 -0.117225006 -0.10415 -0.025449999 5.750023E-4 0.021075 -0.020225007 0.040175 0.058875002 -0.064825 0.0032999981 -0.0579 -0.082949996 -0.23247498 -0.053375006 -0.061900005 0.08735 0.064275004 0.049875 0.204125 0.076574996 -0.0016750023 0.097725004 0.030725002 -0.114549994 -0.113375 9.2499936E-4 -4.2499974E-4 0.075275004 0.07085 0.0023499997 0.120275 -0.0429 0.011375 0.031049998 -0.0471 0.050375 0.21772501 0.017275 0.058525003 0.004525 -0.008699998 -0.075500004 -0.0348 -0.101025 -0.015700001 0.064100005 -0.06435 0.010624999 0.021024998 0.0512 -0.03485 0.0044750012 0.029275 0.134925 0.037675 0.04835 0.0015749997 0.019725004 -0.098375 0.095800005 0.111099996 -0.011449999 -0.086725004 0.078975 -0.097550005 0.013000002 -0.039800003 0.068475 -0.1182 0.25205 -0.1378 -0.061574996 -0.089275 0.015575001 0.029424999 0.07525 -0.037725 -0.0301 -0.20945 -0.0053000003 0.087 0.012200002 -0.08027501 -0.028849998 -0.04665 -2.7500046E-4 -0.0774 -0.030000003 0.027925 0.028125001 0.033925 0.077700004 -0.007175002 0.030675001 -0.071100004 0.11995 -0.082325 -0.0063500013 0.021174999 -0.10855 -0.04605 0.103725 0.077825 0.035925 -0.016425002 0.0076749995 -0.0073499996 0.044075 0.018025 0.109375 -0.015024999 0.064425 0.100600004 -0.1003 -0.028525 0.030825006 0.006350003 0.015949998 -0.032575 -0.013100004 0.037924998 -0.1425 -0.07445 -0.14972499 -0.085975 0.24792498 -0.0586 -0.031099997 -0.115100004 -0.13440001 0.121875 -0.222675 0.0611 0.018699996 -0.08745 -0.025550002 -0.02285 0.0313 0.093724996 -0.040675 0.11005 -0.029025001 0.3689 -0.070575 0.0493 -0.17585 0.070775 0.108475 -0.083749995 0.018174997 -0.099149995 -0.023125 -0.0069000004 0.0023999987 0.0955 0.01175 0.053225 -0.232575 -0.032 0.0261 -0.054800004 -0.0592 -0.019350003 0.033524998 -0.109725 0.05475 -0.053324997 0.0089 0.02585 0.10795 -0.1013 0.02225 -0.022175 0.0021749996 0.054575 0.009500001 0.03965 0.055175 -0.0315 -0.07865 -0.014600001 0.045875 0.04675 -0.046575002 0.007649999 -0.015500002 0.0266 -0.0186 0.071625 0.050725 0.16555001 -0.057375 0.011675
employer 0.06376667 0.012233334 -0.07226667 -0.08626667 -0.048433334 0.023200002 0.013133334 -0.11320001 0.034966666 0.033133335 0.023333337 0.023833334 0.004166668 -0.043966666 -0.18180001 -0.074200004 -0.0807 -0.04206667 -0.17633334 0.019866668 -0.054399997 0.09573334 0.11153334 0.09550001 0.0575 0.05733333 0.0012333344 0.045933332 -0.124400005 -0.0222 0.06640001 -0.017633334 0.043833338 -0.028166667 -0.062033337 -0.005499999 0.0207 0.012466667 0.0111 -0.057166666 0.0064666644 -0.011733333 0.053233337 -0.039833333 -0.09176667 -0.077633336 0.036700003 -0.013700001 -0.043433335 0.07326667 -0.0986 -0.051500004 -0.6813333 0.019133335 -0.041533336 -0.0050333343 0.06843334 -0.06493333 0.08286667 0.0669 0.06 0.062133335 -0.0049666665 0.1386 -0.08696666 0.0334 -0.010300001 0.10836667 0.011066668 0.0657 0.021333335 -0.103700005 0.06836667 -0.04256667 0.09956666 0.036366668 0.15136668 -0.0828 -0.06953333 0.095466666 0.034166668 0.050300002 0.026166668 -0.2546 -0.0043333336 0.08580001 0.028833333 -1.0000014E-4 -0.19536667 -0.1033 0.022733334 0.015766667 -0.011933333 -0.0107 -0.06403334 -0.041033335 0.017700002 -0.0053999997 -0.031166669 0.024100002 -0.1612 0.045166668 0.17186669 0.079333335 -0.0287 0.06603333 0.11450001 -0.08953333 -0.052699998 0.07553334 0.017500004 -0.13453335 -0.18123333 -0.041666664 -0.0027666665 -0.048100006 0.028033335 0.017266667 0.0025000002 -0.4153 -0.012066666 -0.0135 0.026966669 0.10016667 0.08276667 0.18026666 -0.024166666 0.10613334 -0.0039666668 -0.012966668 -0.042766668 -0.043433335 -0.020733334 -0.034733336 -0.0101333335 0.30233335 0.049066663 -0.061633334 -0.010933332 -0.006033334 -0.077066675 -0.016600002 0.0196 0.2362 0.013066667 0.047900002 -0.014833334 -0.057166666 -0.059933335 -1.0000014E-4 -0.13956666 -0.04366667 0.007566667 -0.021266667 0.04076667 0.0775 0.12033334 -0.019133333 0.061400004 0.028433334 0.100999996 0.11346667 -0.017633334 0.0773 -0.13713335 -0.09006667 0.050066672 -0.1178 0.052600004 0.067033336 0.11433333 0.162 -0.06640001 -0.061000004 5.999996E-4 0.034033336 0.25383335 -0.15693334 -0.12026667 0.030466666 0.0339 -0.017266668 -0.0496 -0.043633338 0.0386 -0.24836665 -0.03926667 -0.2088 0.3899667 0.09263334 -0.027199998 0.04526667 -0.010066668 -0.0889 -0.04806667 -0.051166665 0.033966668 0.0344 0.14193335 -0.0189 0.028933335 -0.028133333 -0.06126667 -0.04823333 0.104033336 0.043133333 -0.0489 -0.024033334 0.09713334 0.025700001 0.011500001 0.038900003 0.10343333 0.07903334 -0.03226667 -0.06650001 0.039300002 -0.030133333 -0.096366666 0.10873334 -0.07413334 0.0484 0.050466668 0.030333333 -0.059433337 -0.07276667 -0.0495 0.10576667 -0.069000006 -0.09776667 -0.17656669 0.0062000006 0.3336 -0.10643333 0.038766667 -0.19396667 -0.16963333 0.06823333 -0.21803334 -0.0135 0.021533336 6.6667795E-5 0.031733334 0.05696667 0.047733333 -0.023966666 -0.0038333337 -0.025000002 0.0012333331 0.32233334 -0.038200002 -0.14490001 -0.21523333 0.06943333 0.106133334 -0.06396667 0.083966665 0.075733334 0.0274 -0.037366666 -0.008866667 0.040133335 -0.028333332 0.06476667 -0.055866666 -0.0062 0.0091 -0.043066666 -0.08776667 0.1658 -0.013033333 0.0025999993 0.008333331 0.052500002 0.0685 0.014599999 -0.14026667 -0.079966664 0.13153334 -0.0062666666 0.011299998 -0.011033333 0.06413334 -0.0067999996 0.0030000012 -0.06866667 -0.059600003 0.15546668 -0.08353334 -0.0758 -0.053633332 -0.07153334 -0.08720001 -0.0895 0.0573 0.054833334 -0.1329 0.14566667 -0.072333336 -0.07846667
formerBandMember 0.08098462 0.008930771 0.03825385 -0.051907692 -0.036884617 0.071200006 -0.027276922 0.008284617 -0.010530772 0.015476923 0.0067999996 0.026930772 -0.08406154 -0.0691077 -0.052146155 -0.058407694 0.012823078 0.039138466 0.027584616 -0.055784617 -0.10445384 0.058023073 -0.015776923 0.010369231 0.060638465 -0.0029153842 -0.013407694 0.067700006 -0.032769233 -0.097823076 0.056753844 -0.01959231 -0.011184615 0.013630769 0.11246154 0.037553847 0.058599997 -0.061653845 -0.019684616 0.04110769 -0.09446923 -0.01069231 -0.038830772 0.00753077 0.030884616 -0.0110461535 0.03955385 -4.999993E-4 0.05164615 -0.038523078 0.025815386 0.011276924 -0.6577923 -0.0022384622 0.026100004 -0.010838463 -0.0030769238 0.07411539 0.01942308 -0.097830765 0.013969231 0.0027846165 0.006384617 -0.046661545 0.0033999986 -0.026030768 0.015384616 -0.03873077 -0.018069234 -0.015261538 0.07507693 0.016761541 0.006399999 -0.047153845 0.0014846165 -0.0077307685 -0.0058615394 0.057384618 -0.008684616 -0.065623075 0.02126154 -0.023584614 -0.048392307 -0.21533075 -0.03506154 -0.044576928 -0.0037153857 -0.05234616 0.20012309 0.049192306 0.0473 0.13286923 -0.005707692 -0.004246154 0.06398462 0.05954615 0.007753846 -0.019015385 0.014200003 -0.017138463 -0.10827692 0.011738461 0.08426923 -0.048423078 -0.021407694 0.066084616 0.12071539 -0.026630769 -0.086246155 0.02499231 -0.012892309 0.0012153857 0.029361539 -0.028323079 -0.032715388 0.0036923068 0.0086230775 -0.06214616 0.008730768 -0.2521077 0.027638461 0.033838462 0.04753077 -0.026407694 -0.028900001 0.13572308 -0.037446152 -0.07578462 0.12519231 -0.06776154 0.036392312 0.09020769 0.003715385 -0.061907694 0.02349231 -0.18276924 0.0014153854 -0.053315386 -0.098100014 0.022638464 0.023815388 -0.015092308 -9.692306E-4 0.15737692 0.054353848 0.0020461548 0.068207696 -0.09008461 -0.0026384627 0.05416154 6.076923E-4 -0.020576928 0.015199998 -0.016746152 -0.016776923 -5.5384636E-4 0.053169228 0.035823077 -0.03596154 0.022515384 -0.008015385 -0.03879231 -0.021092309 0.09864616 -0.013261539 -0.05366154 0.060215384 0.037715387 -0.06 0.04089231 -0.008669232 -0.03894616 -0.0246 -0.07238462 0.032246154 0.026346155 0.22822307 -0.19385386 0.041946154 -6.692315E-4 0.054946158 0.012561539 -0.060492314 0.034615386 -0.018615386 -0.0047846157 0.029123079 -0.0060615377 0.10186924 -0.014046154 4.692307E-4 -0.056146156 0.023307694 -0.015084618 -0.013623078 0.044638462 0.0026461536 -0.06266923 0.09306923 -0.010715387 0.03398462 -0.0043923086 0.016576923 -0.068576925 0.12088463 0.0072153863 -0.06003077 -0.06844615 -0.012969234 0.003830769 0.05654616 0.102646165 0.0021615375 0.060907695 -0.008738463 -0.047392305 -0.013638461 0.010776922 0.022753848 -0.052676927 0.012284616 -0.03536923 -0.017346153 0.05562308 -0.049230773 -0.016892307 -0.025615387 -0.03603846 -0.028446157 -0.04283846 -0.028115386 -0.0034923074 0.26033077 0.041284617 -0.033746153 0.026938463 -0.0149384625 0.12278462 -0.1978846 -0.045476925 -0.018915385 -0.012646155 0.013123078 -0.020953849 -0.005946155 0.03053077 -0.03103077 -0.01213077 -0.036638465 0.33787695 -0.030353846 0.051376928 -0.05345385 0.04886154 0.16172309 0.0034384613 0.02652308 0.026007695 0.036046155 0.010638462 -0.03846923 -0.0071153846 -0.027876923 -0.048230775 -0.27456155 0.036300004 0.017261539 0.04375385 -0.19295387 -2.230767E-4 -0.11546924 -0.003761538 -0.0020615382 -0.03736154 -0.0047307704 -0.037238464 0.0017230769 0.0055230777 -0.047123075 0.06216154 -0.032076925 -0.024415387 0.040307697 7.9230877E-4 0.044246156 0.026938463 -0.084838465 -0.07785385 0.026315385 0.05605385 -0.0037461538 0.07812308 -0.040692307 0.012061538 0.041738465 -0.027784618 0.022569232 0.053130772 -0.0022000019 0.03446923
formerTeam 0.06493333 -0.007458334 0.0563 -0.012516666 -0.021341667 0.07511667 0.018283335 0.03851667 -0.0039249994 -0.013708334 -0.027866667 0.023666665 -0.032075003 -0.039533332 0.0066416664 -0.0256 0.022400003 0.014425002 0.051258337 -0.037466668 -0.061558336 0.055283334 -0.06516667 0.031408332 0.04516667 -0.021033332 -0.019041669 0.084358335 -0.062391665 -0.08676666 0.016325 -0.033141665 -0.023816667 0.016366668 0.082675 0.022583334 0.056316666 -0.032466665 -0.028216667 0.027716666 -0.053041667 0.005966667 -0.03648334 0.029833335 0.017633334 -0.041891664 0.0013499993 -0.013116665 0.04625 -0.016508332 0.023591667 -0.009383336 -0.64225835 0.019191667 0.005566669 -0.025083337 0.041483335 0.054233335 -0.011375001 -0.07001667 0.006666667 0.021933336 0.0172 -0.03525 0.024816668 -0.05191667 0.018558335 -0.015999999 0.014899999 0.019958336 0.031533338 -0.0057499995 0.052875005 -0.05419167 -0.018691666 0.007275003 -0.012608334 0.05200833 -0.015391666 -0.043158334 -0.0025000004 -0.014258334 -0.0020583335 -0.24301669 0.011775 -0.038833335 -0.023625001 -0.008125 0.19420001 -0.009083334 0.029475002 0.0783 0.031166669 -0.0036833338 0.0185 0.0034916662 0.0054749986 2.500005E-4 -0.05623334 -0.013025001 -0.14343333 0.053508334 0.050016668 -0.040750004 0.032250002 0.039741665 0.086766675 -0.016800001 -0.066633336 0.05646667 -0.016783334 -0.015299998 -0.031833336 0.023841668 0.0037583332 -0.0011416662 -8.833334E-4 -0.018258333 0.002925 -0.27620834 8.333474E-6 -0.0044416655 0.025041668 0.028366666 -0.05586667 0.16108334 -0.0604 -0.080625005 0.061925 -0.038208336 0.03294167 0.026758334 0.013716668 -0.041158333 -0.0023083338 -0.21696667 3.666673E-4 -0.044025004 -0.054008335 0.025875 0.02614167 -0.022200001 -0.008049998 0.17726669 -0.029008335 -0.027625 0.06515001 -0.07371667 0.039875 0.061600007 0.036775 0.005966666 -0.006941667 -0.037925 -0.019583333 -0.010775 0.015533335 0.03179167 -0.026275001 0.029108334 0.018258333 -0.018558335 -0.035733335 0.078725 -0.033033337 -0.032375 0.07564168 0.005833335 0.0020416672 0.048258334 -0.031266667 -0.013233334 -0.039691668 -0.060475003 0.017008333 0.012633333 0.23058331 -0.22035834 0.0106333345 0.015299998 -1.6666639E-4 0.004583334 -0.023116669 0.0010916665 -0.011658333 -0.0023083328 0.029225 -0.0039749993 0.08155833 -0.0203 -0.008758334 -0.07897501 0.033025 -0.0123 -0.016333334 0.0062833326 0.027166665 -0.045091666 0.12443334 0.06260833 0.02174167 0.006099999 0.023500001 -0.030866668 0.061100002 0.03054167 -0.06170833 -0.09555 0.029358333 -0.0023833343 0.0432 0.06536667 -4.8333345E-4 0.031133335 0.007808334 -0.05255 0.0025499999 5.499994E-4 -0.026941668 -0.048725 0.037575 -0.021941666 -0.037 -0.004950001 -0.012600005 -0.049008332 -0.030825 -0.020516668 -0.035175003 -0.0531 0.0068166675 -0.0302 0.2830417 0.012458334 -0.025633333 -0.0041166646 -0.06544167 0.15336667 -0.19905834 -0.03291667 0.010275002 0.019333335 0.024725001 -0.031375002 -0.01745 -0.0045999996 -0.019891666 -0.0103 -0.033575 0.35770833 0.0069416664 0.05415 -0.045500003 0.028416669 0.14594167 0.0062833335 -0.006983335 0.042383336 0.021808334 0.034541667 -0.0126749985 0.0023500014 0.0024249996 -0.058025002 -0.23824167 0.0036416666 -0.025625002 0.005983333 -0.23427501 -0.012775 -0.059608337 -0.024383334 0.011883333 -0.061358333 -0.030291667 -0.029975003 0.011116668 -0.046525 -0.07651667 0.07893334 -0.03129167 0.0029666661 0.04319167 0.037641667 0.039225 0.010983333 -0.06285 -0.0013750022 -0.0126 0.04446667 0.025391668 0.022441668 -0.0564 0.026383333 0.07116667 0.012733333 0.023216669 0.06294167 0.03779167 -0.0074083335
foundationPlace -0.0050928574 -0.019885715 0.028935712 0.0032642868 0.0117500005 -0.0022999996 0.030178573 -0.014671428 0.0070571443 -0.025464289 -0.011307144 -0.0057642846 0.03932857 -0.04211429 0.01209286 0.011992856 0.013621427 0.029435717 -0.06548571 0.016064286 -0.047371425 0.028457144 0.00422143 0.07515715 0.0090785725 -0.05075 0.021535717 -0.02377857 -0.0344 -0.03361429 -0.05152143 -0.0012000012 0.0146571435 0.020385716 0.025335718 -0.012292858 0.017864287 -0.020992858 0.001942859 -0.010792856 -0.036600005 0.041592855 -0.010635714 0.009557145 0.02253572 -0.018857144 0.03272143 0.003335715 0.0349 -0.0014428579 -0.020985715 0.13187858 -0.66465724 0.027142858 -0.0058714286 -0.004400001 -0.043242857 -0.070650004 0.0032714284 -0.0021857154 0.036328573 0.050471433 0.05654286 -0.05125 -0.05087857 0.023007141 0.024707144 -0.0036499992 0.053878576 0.0010571432 -0.062407147 -0.029757144 -0.002814286 -0.020914288 0.023350002 0.016471429 0.039978575 -0.04214286 0.02286429 0.05306429 0.021707145 0.07135 0.008535714 -0.19853573 0.0031214284 -0.023328574 0.028000003 0.04972858 -0.042485718 -0.019478573 0.045685716 0.024292858 -0.04310715 0.0227 0.023 -0.034735717 0.072264284 -0.026957145 0.01112143 -4.0714286E-4 -0.16105716 -0.01982143 -3.2857194E-4 0.06733572 -0.048221428 -0.015878571 0.019392857 0.049421426 -0.010207143 -0.04058571 0.05438572 -0.018378574 0.011049999 -0.0013285722 0.014035713 0.0123499995 0.05547144 -0.0063000005 0.014292859 -0.31745002 0.018100003 -0.02297143 -0.051907137 0.070435725 0.077485725 0.17562859 -0.00515 0.055792857 -0.058792863 -0.002207143 -0.004464287 0.008385714 -0.06352144 -0.0043428587 0.01047143 0.097478576 -0.025000002 -0.0493 0.004449996 0.051171433 -0.02419286 -0.019557144 0.018450001 0.21369286 -9.2856324E-5 0.040671427 0.03978572 -0.029564288 0.042635716 0.017728573 -0.014292857 0.0049214307 0.06407143 -0.030971428 0.025964286 0.025578571 0.017357143 -0.019857144 -0.04277857 0.016928572 -0.016378574 0.03275 -0.033735715 -0.0036142853 -0.0708 0.015692856 0.07836429 0.012485715 -0.058907144 0.021992857 0.04483572 0.0054428587 0.007457145 -0.0061 0.057192862 -0.022950003 0.20972143 -0.071442865 -0.04122857 0.048178572 0.009800001 -0.025478574 0.039342858 0.0065285717 -0.03597143 -0.11243573 0.04665715 -0.039414287 0.17816429 0.0120357135 -0.0039071413 0.0172 -0.04286429 -0.022514287 -0.04419286 0.0014642872 -0.013178574 2.142851E-4 0.14106429 0.016371429 -0.07180001 -0.009978572 0.022264285 0.0037571448 -0.06621429 -0.037057143 -0.0014857118 0.025864283 0.03552143 0.0017142877 -0.05427857 -0.012364286 0.007228572 -0.059271432 -0.0341 -0.017314287 0.054700002 -0.018599998 -0.017407143 0.028671429 -0.050192855 -0.040757146 -0.031621426 -0.008507145 -0.024935715 -0.08995 0.013221431 0.048507143 -0.076628566 -0.08253572 -0.12149286 -0.02387857 0.3050643 -0.031914286 -0.013207143 -0.11362143 -0.030021433 0.010735714 -0.21545 0.059 -0.041178573 0.028992862 0.010092857 -0.013700001 -0.010507143 0.033792857 -0.04877143 0.04205715 -0.052414287 0.2911 -0.030607143 0.052100006 -0.025971431 0.056000005 -0.06446429 0.0017357161 0.020950003 -9.214294E-4 0.040178575 -0.07454286 -0.03169286 -0.022628572 -0.0592 0.03285 -0.13427143 -0.016671427 0.0034571432 -0.017542858 -0.12919287 0.018300002 -0.06346429 -0.0065500005 0.0020357133 -0.028100003 0.037428573 0.04397143 -0.0196 0.016607143 0.008092857 0.005085717 -0.015157144 -0.038507145 0.03832143 0.060257148 0.044621427 -0.04459286 -0.02836429 0.06382858 0.03697857 0.019149998 -0.040021434 -0.0069857156 -0.003978572 0.024250003 -0.07992144 0.08031429 -0.02782857 0.15144286 -0.07368572 -0.08823572
headquarter 0.2856 0.0547 0.07 -0.1293 0.0487 0.0326 0.0058 -0.0839 0.1732 -0.0992 0.1192 -0.193 0.0579 0.1622 0.2296 -0.0151 -0.1261 -0.0189 0.0255 -0.0638 -0.3031 -0.0848 0.0575 0.0185 0.0685 -9.0E-4 -0.1444 -0.0384 -0.021 -0.252 -0.0612 -0.156 -0.2146 0.0148 0.056 0.0712 0.0319 -0.0682 -0.0398 -0.1176 0.0103 0.0953 -0.1629 0.0248 0.1842 -0.1382 0.1279 0.1163 0.188 -0.08 0.1357 0.2526 -0.7521 0.1073 -0.0188 0.0717 -0.0095 -0.0337 0.142 -0.0331 0.2215 0.0559 -0.0421 -0.0124 0.1755 0.0199 0.0303 -0.0614 0.1936 -0.1406 -0.021 0.146 -0.0225 0.0449 0.0747 -0.0317 -0.0735 -0.1605 -0.1538 -0.1928 -0.0291 -0.0221 0.0192 -0.2325 -0.0578 0.1838 0.0376 0.0276 0.0967 -0.1875 0.3539 0.0424 0.079 0.0641 0.0129 -0.1344 0.0116 -0.0661 0.024 0.3002 -0.1508 -0.1229 0.0738 -0.0573 -0.0546 0.1338 -0.1255 -0.0849 0.0564 -0.0445 -0.2148 -0.0644 -0.1192 -0.0343 -0.0589 -0.1887 -0.0338 -0.0426 0.0051 -0.1895 0.1224 0.13 -0.0652 0.0054 -0.0327 0.1445 0.0714 0.0229 -0.0238 0.0286 0.0289 0.065 -0.0404 0.1643 -0.2012 -0.0097 0.1844 -0.2111 -0.1178 -0.2353 -0.0511 -0.1179 -0.1612 0.2046 -0.0661 0.0693 0.1099 0.1115 -0.0176 -0.1238 0.0715 0.0609 -0.0131 0.0535 0.1515 0.1551 0.1148 -0.3147 0.1283 0.2241 0.0221 0.0111 0.1407 -0.1588 0.1319 0.054 0.0316 -0.0564 -0.0654 0.1378 0.1311 0.036 0.1511 0.2764 -0.1059 -0.0377 0.255 -0.0595 0.0737 0.1767 -0.1052 -0.1342 -0.1402 0.0219 -0.0679 -0.0819 0.1241 -0.051 0.0282 0.1368 -0.1034 -0.0855 0.1188 0.0579 -0.1619 -0.1356 0.1857 0.2854 0.109 0.1546 -0.0599 0.1988 0.023 -0.0271 0.0123 -0.0752 -0.1007 0.1039 9.0E-4 -0.2228 -0.0687 0.1092 0.228 -0.012 -0.1214 -0.0183 0.0457 -0.0229 -0.2527 0.0396 -0.0147 -0.1501 -0.1358 0.0464 -0.0521 -0.1176 0.2116 -0.0712 -0.0503 0.1075 -0.3828 0.015 0.2547 -0.1707 0.0458 -0.2744 -0.2833 0.2975 -0.184 0.163 0.0969 0.0689 -0.0108 -0.0833 0.071 -0.2069 0.1117 -0.0322 0.0343 0.258 0.1766 -0.1647 0.0223 -0.117 0.1515 0.2036 0.1702 -0.0616 -0.1492 -0.0961 0.0706 -0.0832 0.0525 0.0082 -0.4295 0.0868 -0.1527 -0.0752 -0.2585 -0.1486 0.2405 0.1088 0.0227 0.079 -0.033 0.1021 -0.0758 -0.1383 0.1717 0.0189 -0.0194 -0.1411 0.1006 0.2349 0.2467 -0.1015 -0.1354 0.2347 0.0293 0.0424 -0.013 0.0566 0.0776 -0.1157 -0.2364 0.0384 -0.0643 0.0021 0.0191 -0.2467
hometown 0.16220002 0.0015571427 -0.0015999995 -0.018414287 -0.048357148 0.10875715 0.043842863 -0.0098 -0.058885716 -0.025300002 -0.050685715 -0.0484 -0.031414285 0.030242857 0.08131429 -0.07565715 -0.008428576 -0.0198 0.052557148 -0.057928573 -0.17111431 -0.012328572 -0.08244285 0.18409999 -0.11840001 -0.022528572 -0.09738572 0.036785714 -0.06504286 -0.023657141 0.04682858 -0.025485717 -0.008457146 0.056057148 0.1087143 -0.05448572 -0.005928572 -0.0048714294 0.023900004 -3.142868E-4 0.10985714 0.022000002 -0.05211429 0.0052571436 0.012257145 -0.019614285 0.13274287 -0.054957144 -0.026500003 -0.0061142864 0.05974286 0.12401429 -0.7031715 0.005771429 0.011157144 -0.008328572 -0.021142859 0.05467143 0.07750001 -0.102728575 0.0015285702 -0.060442857 -0.19304289 -0.055400003 2.7142998E-4 -0.0020571458 0.007885716 0.030728571 0.12532859 0.020885712 0.053171434 -0.022999998 0.073642865 -0.062557146 -0.116157144 0.00944286 0.028471429 0.038114287 -0.0714 0.024628568 0.017928574 0.0020999974 0.005900002 -0.2196143 -0.04624286 -0.01887143 0.036400005 0.0028714286 0.1274143 -0.0027999997 0.095328584 0.0122714285 -0.029071428 -0.06315714 -0.044800002 -0.063857146 0.011042858 -0.011114287 -0.023657145 -6.2857143E-4 -0.13662858 -0.047371432 0.07105714 -0.08568572 -0.011828573 0.14842856 0.03322857 0.007914286 -0.08707143 -0.11734286 0.013528572 -0.009557145 -0.03511429 -0.075414285 -0.0072857155 -0.08272858 0.025014289 -0.005942858 -0.05341429 -0.28405714 0.049200002 0.122128576 0.020357141 0.008057144 -0.03790001 0.16957144 -0.058628578 -0.06132857 -0.099285714 -0.06758572 -0.02015714 0.032528576 0.07052857 -0.050871428 -0.06717143 0.14057145 0.0832 -0.024357146 0.0176 -0.018257147 0.0258 0.07271429 -0.08648571 0.14742857 0.039685715 0.044057142 0.072642855 -0.017628571 -0.0061428566 0.07095715 0.0373 0.047614288 0.017214287 0.014528571 -0.035900004 0.068171434 0.07388572 -0.10367144 -0.02802857 0.07312857 0.01927143 -0.054300003 0.050200004 -0.037385713 0.04062857 0.043728575 0.09135714 -0.10575715 -0.05654286 0.0252 0.025414284 0.04822857 -0.06578572 0.08498572 0.09954286 -0.01362857 0.2197143 -0.18184286 -0.0018857154 0.07407143 0.0052428576 -0.035557147 -0.044828575 -0.008471428 0.0029571457 -0.07325715 0.062557146 0.005728573 -0.045642864 -0.048214283 -0.055700004 -0.06761429 0.07555715 0.027400002 -0.09612857 0.061400004 0.015642859 0.018800002 0.087342866 0.019442856 0.04634286 0.059700005 0.08127143 0.12882859 -0.0819 0.12831429 0.03027143 -0.030814286 -0.01837143 0.07237142 -0.06334286 0.065157145 0.03841429 -0.064171426 -0.10982858 0.015942857 -0.0285 -0.0037 -0.042014286 0.041100003 -2.8571274E-4 -0.068485714 -0.066857144 0.12274286 0.050985716 0.011928574 -0.050428573 -0.07310001 0.042771433 0.022414288 -0.18031429 -0.039157145 0.2712857 -0.11831429 0.007514286 -0.13579999 0.05014286 0.10935714 -0.21310003 0.1609 0.06597143 -0.015800001 0.025642859 -0.14647144 -0.12715715 0.0409 0.016985714 -0.048614282 -0.12052858 0.33024284 -0.013600002 0.047514286 0.066385716 -0.010271429 -0.022114284 -0.10362857 0.09647144 -0.0419 0.015614286 -0.10507143 -0.029214285 -0.06808572 -0.006342857 0.0042999997 -0.33461434 0.11288573 -0.026271427 0.0791 -0.14418572 -0.0074714296 -0.07982858 -0.0061285696 -0.04397143 -0.036771435 0.08937143 -0.02558572 -0.021014284 -0.11081429 0.046800002 -0.0043714284 -0.034642857 -0.083157144 0.07081429 0.031885713 0.039800003 -0.08381429 -0.12870002 -0.014285714 -0.036842864 0.025428573 0.018571429 0.03691429 -0.020271426 -0.062871434 -0.0022999991 0.12895714 -0.018414287 0.088071436 0.018657144 -0.113914296
leaderName 0.026300002 0.030066667 -0.105466664 0.07286667 -0.03536667 -0.004599999 -0.019100001 -0.0181 0.118533336 -0.03063333 -0.061766665 0.0801 0.07596667 -0.06820001 -8.000005E-4 -0.018733336 -0.022833336 0.050800003 -0.0863 0.070700005 -0.049833335 0.023566669 -0.056933336 0.09730001 -0.0697 -0.14993334 0.033 -0.017666668 -0.03376667 0.0486 -0.014933336 0.048200004 0.09313333 -0.09576666 0.0342 -0.019266669 0.06993333 -0.013733333 0.10836667 -0.08066666 0.03643333 0.009933333 0.024100002 0.006066667 -0.037033334 0.013066667 -0.05533334 -0.008566667 0.035333335 -0.061133336 0.015166666 -0.043266665 -0.6657001 -0.02106667 0.09153333 0.015333332 -0.04743334 -0.046666667 -0.032133337 0.018566666 0.031100003 -0.0023666671 0.008233334 0.020766668 -0.0498 0.0975 0.07993333 0.038 0.0608 0.047933333 0.0037333337 -0.048033334 -0.0353 -0.058366667 0.0035666665 0.025099998 0.1029 -0.0264 0.013266668 0.093100004 -0.011033334 0.031633332 -0.04106667 -0.16323334 0.024633333 -0.0145333335 0.023266664 0.016366668 -0.1148 -0.00926667 0.10880001 -0.040366665 -0.0277 -0.07316667 -0.050466668 0.062400006 -0.021666666 -0.061833333 -0.008933335 0.010966666 -0.17946666 -0.024999999 0.05643333 0.049733333 -0.061233338 0.04806667 0.027266666 1.3333559E-4 0.05313333 -0.017800001 0.08573334 -0.0195 -0.09093334 -0.023433335 0.027333334 -0.08716667 0.0247 0.012700001 0.08923334 -0.36276668 -0.017100003 -0.025166666 0.035800003 0.077533334 0.0701 0.19113335 0.030833334 0.11416666 -0.0911 0.07113334 -0.05576667 -0.039299995 -0.12573335 0.035166666 -0.07063334 0.0945 0.0029333346 -0.019766664 -0.008933334 0.04123333 -0.021433335 -0.07136667 0.03596667 0.21900001 0.021266669 0.022666669 0.041133333 0.01153333 0.076633334 0.06486667 0.03076667 -0.030700002 -0.028100003 -0.050199997 0.032100003 -0.030866668 0.0014333334 -0.073633336 -0.11503333 0.029766668 -0.04163333 0.044033334 0.04553333 0.0531 -0.12906668 0.006966667 0.066366665 -0.0397 -0.0123666655 -0.009233333 0.12786667 -0.002066667 0.0073666675 0.016866667 0.056033336 -0.031433336 0.1929 0.017566666 -0.004966668 0.074433334 0.036733337 0.030166667 0.015333335 0.08656667 -0.030066667 -0.31023332 0.0371 -0.07603334 0.20916668 0.0051333336 0.09773334 -0.053866666 0.028599998 0.02526667 0.026300002 -0.006966667 0.04653333 0.03203334 0.1259 0.072100006 -0.057166666 0.056266673 -0.007666666 0.0313 -0.17413335 0.019900002 0.11563333 -0.009833336 -0.007233333 0.0801 0.050000004 0.04213333 0.003033334 -0.0787 -0.054300003 0.028066665 0.0728 -0.08513334 -0.035333335 0.0019999966 0.019533334 -0.04346667 0.07166667 0.021233335 0.037200004 -0.12776667 -0.028766667 -0.024833335 -0.08510001 -1.6666701E-4 -0.08096667 -0.001199998 0.28966665 -0.024166666 0.016266666 -0.12660001 -0.046200003 0.07113334 -0.22443335 0.07373334 0.046433337 0.070700005 -0.09193333 0.015400002 -0.0017333342 0.08503334 0.030066667 0.08443334 -0.062033337 0.3002 -0.012166667 0.012366667 -0.012633334 0.011033333 0.038433336 -0.0123 0.052100003 -5.333349E-4 0.048100002 -0.018633334 0.07056667 0.0034333337 -0.085 -0.08116667 -0.011099997 0.021866668 0.053866666 0.0018666666 -0.09990001 0.03756667 0.0754 -0.049933337 -0.1112 -0.0832 0.10066667 -0.0258 0.0093 -0.032033335 0.09933334 0.038433336 0.07596667 -0.1188 0.002133333 -0.030233331 0.0076333336 -0.019100001 -0.0952 0.0296 0.028033331 -0.0058999993 0.040133335 0.010700002 0.023166668 4.3333322E-4 0.10376668 0.077800006 0.013933334 0.18186668 -0.07343334 0.018733336
locatedInArea -0.025922222 0.066922225 -0.0039333347 -0.0015999994 -0.009177778 0.03662222 0.032355554 0.03357778 -3.4444407E-4 -0.014133334 -0.021555554 -0.02662222 0.0832 0.05223333 -0.0054444447 0.0411 -0.047788884 -0.016622223 -0.040411107 0.044477776 -0.08942222 -0.06832222 -0.027333336 0.21257778 -0.062266666 -0.067466654 -0.039688885 -0.0052222223 -0.08871112 -0.04301111 0.0057111117 0.024644446 -0.028588887 0.09975556 0.089999996 0.037733335 -0.064333335 0.094066665 0.063855566 -0.08157778 -0.013566668 0.040722225 0.015011112 0.054866668 0.008788889 0.021688888 0.0321 0.0134999985 0.056555558 0.013277778 -0.035166666 0.07767777 -0.6185334 -0.057466667 -0.020944443 0.050377775 -0.0482 0.086377785 0.008155556 0.0016666669 0.095233336 0.009988888 -0.03336667 0.026144449 -0.044744443 0.03142222 -0.07762222 -0.018566668 0.025155555 0.048322227 0.020466667 0.0011666691 0.011100001 -0.038022224 -0.037322223 -0.0017444441 0.006411112 -0.006866666 -0.06587777 -0.0016111111 0.0010555557 0.045855556 0.04618889 -0.21137778 0.0037444446 0.008944444 0.15077777 -0.04607778 0.005733336 0.051488895 0.096544445 0.0611 1.1112748E-5 -0.082833335 0.039244443 -0.0046222205 0.07377778 -0.08254444 -0.011944446 0.05962222 -0.19081111 0.009177777 -0.037955556 0.052011114 -0.025366666 7.11112E-4 -0.07551111 0.027155556 0.04617778 -0.0037666683 -0.023722222 0.032077778 0.041188892 -0.04157778 0.04422222 -0.04278889 0.013500001 0.019822223 -0.020288892 -0.35650003 -0.034733336 -0.010344444 -0.012611111 0.012688888 0.0018333338 0.20496668 -0.045333337 0.019999998 -0.117411114 0.0012777775 -0.019133333 -8.11112E-4 0.030266667 0.012811111 -0.074711114 0.08691111 -0.02477778 0.019988887 -0.013555556 0.0043777768 0.031211112 0.054044444 -0.033400003 0.1808 0.0015444441 0.08143333 0.04146667 -0.036033332 -0.023788888 0.031533334 -0.0047444426 -0.052766666 0.040288884 -0.042255554 0.028766666 0.07562222 -0.013644445 -0.09961111 -0.09578889 -0.002555556 0.020588892 0.08966667 0.020955557 -0.047277775 -0.016300002 -0.09485556 0.09346667 0.023688888 -0.030244447 0.018777778 -0.09991112 -0.010411112 0.045755554 5.1111233E-4 0.060677774 -0.112511106 0.22901112 -0.07416666 -0.029088892 -0.004655556 0.01901111 0.015533335 -0.025944442 0.039055552 -0.0013333338 -0.074099995 0.11913334 0.011488889 0.07254444 0.013533334 -0.016999999 -0.028555552 0.006611112 0.006555555 -0.003588891 -0.0449 0.047533333 0.06441111 0.1338889 0.055055555 0.010088888 0.08036666 0.0023999985 0.004899997 -0.045933336 0.02336667 -0.008255554 -0.14632222 -0.0023666688 -0.08072223 -0.0628889 0.025177777 0.0568 0.009855554 0.018933333 -0.052 -0.05171111 -8.7777816E-4 -0.08490001 0.06377778 -0.055844445 0.02577778 0.005977778 -0.05221111 0.028133333 -0.011822223 -0.04867778 0.011033331 -0.046011113 0.09217778 -0.120233335 0.0030666657 0.3402778 0.041366667 0.0041555557 -0.07261111 -0.050255556 0.0652 -0.25684443 0.11603333 0.0457 -0.04234444 -0.030088888 -0.023555554 -0.020433333 0.03277778 0.0074222228 0.0025666659 -0.053955555 0.2891889 0.009011109 0.032899998 0.060233336 -0.03811111 0.018188888 0.011166667 0.05726666 0.0060777767 -0.025322223 -0.012155556 0.028577778 0.019011112 -0.021777777 0.010811113 -0.24906667 -0.03913333 -0.027955553 0.029877778 -0.16595556 -0.032133333 -0.09116666 0.023022221 0.038444445 -0.042233337 0.041788887 0.012566668 -0.0091 0.031533338 -0.027244443 -0.014699999 0.0044888873 0.0016222211 0.057699997 0.051944446 -0.034655556 -0.03248889 -0.043011114 0.048233338 0.017877778 0.0464 0.03643333 0.011788888 -0.06457778 -0.047766667 -0.0858 0.0527 -0.034644444 0.080411114 -0.054133333 -0.06372222
nationality 0.14164999 -0.049599998 0.0843 0.10515 0.0279 0.14005001 0.029399998 0.0041499995 0.12205 0.062000003 -0.074650005 -0.00945 0.06235 -0.008850001 0.013899999 -0.101150006 0.15564999 -6.499998E-4 0.015800001 -0.0863 -0.17725 -0.0458 0.03875 0.14025 0.0298 -0.094950005 0.019399999 0.104949996 0.1852 0.0111 -0.09885 0.04355 0.06955 -0.19345 0.11995 0.008299999 -0.13275 0.038900003 0.04035 0.0686 0.13229999 0.0236 0.19435 0.078600004 -0.0169 0.0846 0.082949996 -0.14805 0.12065001 -0.1375 0.2272 0.02825 -0.68825 -0.04785 0.096750006 -0.0084500015 0.12795 0.0367 0.016350001 -0.00675 0.03965 -0.072000004 -0.0905 0.01625 -0.0639 0.06885 0.0307 -0.0056 0.012750001 -0.0198 0.0761 -0.10615 -0.028300002 -0.0718 -0.17999999 -0.0751 -0.117300004 -0.0349 -0.061049998 0.12605 -0.0073 0.038850002 -0.0183 -0.2369 0.0845 -0.03345 -0.0874 -0.0617 0.20449999 0.055699997 0.0242 0.04575 -0.10435 -0.0498 -0.0021499991 0.01445 0.012599999 -0.02615 -0.00265 0.0551 -0.156 -0.08025 0.0053000003 -0.1434 0.122899994 0.09405 -0.02055 -0.015749998 -0.113 0.0139500005 0.008500002 0.13535 -0.0488 -0.03115 -0.025150005 -0.111499995 0.023649998 -0.1397 -0.03945 -0.33685 -0.095300004 0.10349999 0.0331 0.00945 -0.047199998 0.19825 0.121 -0.027350001 -0.015000001 0.045199998 -0.1612 -0.12525 0.0438 -0.019900002 -0.011799999 0.038799997 0.01375 -0.0989 0.05505 0.0778 -0.03235 0.0224 -0.1072 0.27609998 0.019900002 0.057850003 0.074949995 -0.0025499994 -0.028599998 -0.0172 0.03305 0.086050004 -0.04055 -0.01715 0.056199998 -0.03765 -0.050550003 -0.0783 0.06025 -0.0645 -0.0441 -0.1073 0.0063499995 -0.0188 0.106199995 2.500005E-4 0.1117 -0.09315 -0.02985 0.126 -0.18035 -0.047250003 0.039350003 -0.033400003 0.19725001 -0.02995 0.24379998 -0.1564 0.011 0.061100002 -0.02815 0.09595 -0.021750001 -0.01735 -0.0661 -0.04395 0.0309 -0.0297 -0.16955 1.9999966E-4 0.0279 -0.137 -0.078 0.1268 -0.05825 -0.09555 -0.099249996 -0.0629 0.15995 0.1074 -0.14455 0.09925 0.073699996 0.024749998 0.10215 0.0342 0.05155 -0.112 0.09095 -0.0654 0.00275 0.0259 0.07915 -0.1083 -0.052500002 0.043250002 -0.06635 -0.11229999 -0.19115001 -0.070650004 0.05705 0.0049 -0.0049 -0.0030999985 0.0872 -0.062649995 -0.13690001 0.0848 -0.14655 3.500022E-4 0.015450001 -0.27045 0.3995 -0.16499999 -0.005000001 -0.074149996 -0.02725 0.1317 -0.23445001 0.13749999 -0.0011999998 -0.0052999984 0.1333 -0.030849999 -0.09905 -0.108049996 0.0783 -0.06445 -0.0376 0.3548 -0.03745 0.1238 -0.0383 0.0042000003 0.057800002 -0.04435 -0.024200002 0.00615 -0.07565 0.093 0.03345 -0.053450003 0.09325 0.08320001 -0.32255 0.06695 -0.06985 0.079799995 -0.1783 0.21775001 -0.07405 0.023450002 0.02945 -0.12979999 0.078549996 -1.9999966E-4 -0.06755 0.013599999 0.03485 0.061899997 -0.0018 -0.078 -0.15235001 0.00605 -0.08075 -0.0132 0.03305 -0.03555 -0.019499999 0.0603 0.026050001 0.0040000007 -0.06575 -0.10665 -0.0066000004 0.18765 -0.1152 0.0429 0.05855 0.0467
parent 0.056366667 0.059433334 -0.0164 -0.0954 -0.015566668 0.0881 0.0055333334 -0.056133337 0.12053333 0.03826667 -0.16566667 0.012133336 -0.062333338 -0.07153334 -0.082766674 0.09143333 0.002533333 0.17213333 0.09003334 -0.099 -0.05336667 0.08136667 -0.14500001 0.07333334 0.021233333 0.025066666 -0.13493334 0.0917 0.020733334 -0.09453334 0.0968 0.045366667 -0.045 -0.06633334 0.09406667 0.023066668 0.05793333 -0.0037666669 0.003966668 0.016666666 -0.027966667 0.026366666 -0.052033335 0.021533336 -0.025766667 -0.006333334 -0.045666665 -0.123100005 -0.027433334 0.026133334 -0.05313333 0.0893 -0.6259667 0.018766668 -0.007333334 0.026966667 0.0292 0.17456667 0.025866669 -0.013066667 -0.05146667 0.0738 -0.0988 -0.14686666 0.083900005 -0.102 0.0134333335 -0.0732 0.0441 -0.091966674 0.0049666665 0.04036667 -0.013800001 0.053566664 -0.008699996 0.13316667 -0.16616668 0.029566666 -0.1814 0.09543334 -0.0034999992 -0.023766667 0.13636668 -0.18806666 -0.020900002 0.13226667 -0.09193333 0.018266667 0.122233346 0.068900004 -0.020466667 -0.021633333 -0.0873 -0.0023000003 -0.014633333 0.06506667 0.0696 0.0249 0.0408 -0.037633337 -0.21580002 -0.1044 -0.100433335 -0.0459 -0.08896667 0.13353334 0.11790001 -0.048 -0.1966 0.015533334 0.0211 0.05136667 -0.024966668 -0.036866665 -0.062233336 -0.08533334 0.051133335 -0.04026667 -0.18213335 -0.37193334 0.012033334 0.051966667 0.09513333 -0.0537 0.04676667 0.21820001 -0.040300004 0.004000002 0.13803333 -0.028700002 0.018133335 -0.011866665 0.07903334 -0.11536667 -0.011166666 -0.020133335 -0.042299997 -0.1363 -0.12653333 0.007466669 -0.08913334 -0.064833336 -0.0011999998 0.18626666 0.13686667 -0.050900005 0.0361 0.018633334 -0.0010666674 0.0091 -0.05613333 -0.058 -0.022166666 0.013166666 -0.08276667 0.0043 -0.052966665 0.053933334 -0.025666667 -0.042166665 -0.11683333 -0.0554 -0.011666667 0.012633335 -0.020166669 0.0489 0.06406667 -0.034100004 0.0187 0.029633334 0.0044000004 -0.027166665 0.021833334 0.015733335 0.14473334 0.004600001 0.27776667 0.037633337 -0.111666664 -0.009199999 0.040233336 0.09460001 -0.0344 -0.025233334 0.06876667 -0.047766667 -0.0062333336 -0.12843333 -0.11026667 0.082433335 0.003 0.011066666 0.0088 0.08346667 -0.009199999 0.0677 -0.06526667 0.036166668 0.14796667 -0.016833335 -0.017099999 -0.061 0.0688 0.033466667 0.059599996 0.11513334 -0.0021666666 -0.07263334 0.003233333 -0.09643334 -0.022466667 -0.077700004 -0.069633335 -0.116966665 -0.074366674 0.06403334 -0.08026667 -0.0312 -0.014066668 -0.1211 -0.0847 -0.040733334 -0.043266665 -0.10010001 0.028133333 -0.12676667 0.0097 -0.054466665 -0.084233336 -0.08566667 -0.12256666 0.0042333333 0.37026668 -0.1288 -0.06946667 -0.11536667 -0.1534 0.13616666 -0.2799 -0.12459999 -0.08493333 -0.06223334 0.048866667 -0.028633334 0.041933335 0.022800002 -0.0073666675 -0.026733335 -0.0378 0.3764 -0.025399998 -0.04823333 -0.0983 -0.080133334 0.081133336 -0.028833335 0.014899999 0.0011666666 0.0227 -0.043266665 -0.0516 0.083900005 0.0161 0.1394 -0.38350004 -0.10893333 0.078833334 0.12076667 -0.16333334 0.06463333 -0.024166666 -0.030533334 -0.050833337 0.0913 0.0489 0.031333335 0.101166666 -0.14053334 0.060833335 0.0357 -0.06293334 -0.09956666 -0.0079333335 0.0121 -2.3283064E-10 0.009200002 -0.012966668 -0.18286666 0.11309999 -0.007966667 0.0802 0.15616667 0.0112 0.010233334 0.10313334 0.16493334 0.037533335 0.046933334 0.006566667 -0.08263334
president 0.046475 0.148 -0.087400004 -0.0028750002 0.050725 0.156725 -0.0616 0.168875 -0.014550004 -0.15619999 -0.034349997 0.091425 -5.749995E-4 -0.161925 0.024149999 -0.010775002 0.052599996 0.046175003 0.0942 0.004574999 -0.20307499 -0.1294 0.060325 -0.15002501 0.052325 -0.0677 -0.1713 -0.078175 0.017875 -0.219125 0.015474997 -0.033 -0.0154249985 -0.1017 -0.15015 0.011825 -0.0031249998 -0.013600001 0.115875 0.15467499 0.043224998 0.033025 0.015475001 0.065225 0.21195 -0.053975 0.0466 -0.011424998 0.102699995 -0.0228 -0.0349 -0.0634 -0.73765004 -0.150325 0.23432499 0.062425 0.011849998 0.10932499 -0.108475 -0.10925001 0.020399999 0.058750004 0.09785 -0.142975 0.096175 0.13765 0.117225 -0.022425 -0.07175 -0.028099999 0.0485 -0.1576 -0.068375 -0.10374999 -0.08825 0.1282 -0.108275 -5.99999E-4 -0.017699998 -0.093899995 0.0138 -8.750018E-4 0.025400002 -0.2506 0.053425 0.0788 -0.100425005 0.0274 -0.059199996 -0.168925 0.0398 0.057924997 -0.0426 -0.019775 0.0026249997 0.083525 -0.022225 -0.10775 0.0052000005 0.043075 -0.049599998 0.011050001 0.01215 0.13125 -0.150775 0.082475 0.087675 0.100125 -0.095925 -0.10870001 0.1026 0.0616 -0.064425 0.090975 0.0059499983 -0.066700004 -0.051 -0.0112999985 -0.039275005 -0.3076 0.078225 0.11864999 0.0739 -0.138375 0.015775003 0.06695 -0.086174995 0.003349997 0.18165001 0.04575 0.087225 0.07805 -0.014149999 -0.036625 0.0178 0.1188 0.02515 0.015325 -0.160525 -0.008550001 0.0050749998 -0.111200005 -0.040499996 0.02835 0.04025 0.064925 0.004024999 0.032350004 0.118975 -0.04415 0.0094 0.003850001 0.0294 0.019975 -0.14245 0.089575 0.008475 0.0568 -0.058525 0.17684999 0.117425 0.01965 0.05855 0.122175 0.12645 -0.013625001 -0.04225 0.054125004 -0.023675002 -0.04035 0.168375 -0.132575 0.010900001 0.09625 0.119825 0.099325 0.175275 0.01145 -0.163 -0.0142 0.07715 0.078274995 -0.033125002 -0.07985 -0.040299997 -0.1992 -0.0059499997 -0.025325 0.10472501 -0.05055 0.027224997 -0.068550006 -0.049425 -0.095075004 0.113625005 0.04695 -0.018374998 0.086125 0.117149994 0.018149998 0.110075004 0.08625 -0.059100002 0.045649998 -0.108425006 -0.073225 0.017275 0.08565 -0.0457 -0.122250006 -0.103 0.050274998 0.031375002 0.030225 -0.037025 -0.198675 0.043075 -0.069 -0.035475 0.0395 0.05845 0.101175 0.026649999 -1.7499924E-4 -0.066424996 -0.16695 0.035274997 0.013925 -0.098825 0.18349999 -0.375075 -0.078549996 0.21812502 -0.08302501 -0.086575 -0.096324995 -0.111375 0.0862 -0.188225 -0.017975 -0.073975 0.132125 -0.05755 -0.0685 0.0051000006 0.018300002 0.056325004 0.102375 -0.10365 0.254925 0.10282499 -0.060624998 -0.144025 0.02805 0.0872 -0.066125 0.109124996 0.119475 0.0020499984 -0.0713 -0.103025 0.087025 0.029475 -0.19182499 -0.337125 -0.16485001 0.07835001 0.048249997 -0.20734999 0.034925 -0.039049998 -0.0591 -0.063425 0.0056 -0.067375004 -0.0249 0.029075 -0.1689 0.047900002 -0.03225 0.091474995 -0.017275 0.096225 -0.014499998 0.086625 0.116575 -0.128975 0.062 0.052400004 0.011499999 -0.07574999 -0.046425004 0.133775 -0.096625 -0.03725 -0.055899996 -0.01045 -0.006175004 -0.14912501 0.011175
relative 0.08635001 -0.004025 0.076074995 0.097575 -0.061475 0.075325 -0.010125 -0.023825001 0.0903 0.00735 -0.0321 0.015525001 -0.12889999 -0.044375002 -0.04625 0.004725 0.045625 -0.043674998 -0.01795 -0.0684 -0.077575 0.130725 -0.074324995 0.052325 0.005075 0.0017750002 -0.0502 -0.03495 -0.061875 -0.057825 0.137625 -0.009175002 -0.044324998 -0.004425 0.0221 0.043125 0.037775002 -0.0034250002 0.071049996 -0.064525 -0.04425 0.078425005 -0.0374 -0.0433 -0.0030999999 0.0315 0.02155 -0.0391 0.065725 0.0826 0.011000002 0.0567 -0.65265 0.12425001 -0.0064749997 0.0865 -0.010725001 0.094975 6.7500025E-4 -0.049125 -0.04745 0.028524999 -0.036399998 0.056724995 -0.017075002 -0.152875 0.02205 -0.020949999 0.048125003 -0.038075 0.028925 -0.08794999 -0.0362 0.089125 -0.022425 0.109349996 0.008450001 0.1218 -0.059425 0.0823 -0.020275002 0.0301 -0.030924998 -0.129925 0.034875 0.015025003 0.011125 -0.0144 0.1473 -0.0059750024 0.06285 0.053625 0.048575 -0.0617 -0.054550003 0.152 0.023699999 0.038175 -0.0034249988 -0.012150001 -0.162175 -0.034725 -0.072425 -0.028600002 -0.045025002 0.073375 0.123375 -0.017299999 -0.10165 -0.021699999 -0.017025001 0.0112 -0.031775 0.0064749997 0.0229 0.004724998 0.0067249993 -0.073775 -0.062349997 -0.19215 -0.1154 -0.015699998 0.071675 0.022325002 0.0037250002 0.175975 -0.071825005 -0.030925002 0.107575 -0.0067749983 0.09925 0.073825 0.0357 0.090950005 0.010150001 -0.062725 0.055625 -0.0845 -0.060875 0.008675 -0.0263 0.026075 0.060725 0.193825 -0.0269 0.057 0.14965001 -0.053799998 -0.034675002 -0.037474997 0.0052250023 0.0345 -0.047125004 -0.009625 0.011175003 -0.0039250012 -0.017224997 0.055025 0.022274999 -0.017274998 -0.061224997 0.019225001 0.02855 0.119525 0.002475001 -0.02835 0.059575 -0.0029500006 0.022475 2.500019E-5 -0.0194 -0.033099998 -0.08375 -0.0018250011 0.13575 0.0063499995 0.20037499 -0.10435 -0.03565 -0.0306 -0.03725 0.045325 0.022525003 0.059924997 -0.019474998 0.0901 0.0765 -0.0207 0.058700006 0.0496 0.022424996 0.07220001 -0.04505 0.07165 -0.02155 -0.012250001 -0.03025 0.03205 0.086875 -0.11372501 0.034325 0.076425 -0.00335 -0.0762 -0.07857499 0.0971 -0.087074995 0.016800003 0.0847 -0.01075 -0.16482499 0.03745 -0.0753 0.062875 0.01465 -0.023874998 0.024950001 -0.0325 0.048225 -0.08845 -0.091675 -0.019225 -0.086875 0.01055 0.02755 0.033125 -0.009450002 -0.0462 0.022775002 -0.052125 -0.128 0.019524999 0.24595001 -0.036575 -0.060824998 -0.09685 -0.074525 0.031174999 -0.16715 -0.064125 0.02975 -0.010375002 0.014200001 0.027600002 0.0359 0.0017750021 -0.005724999 -0.13245 0.03735 0.23295 -0.007975001 0.026825 0.044999998 -0.0264 0.039375 -0.0219 -0.101349995 0.024425 -0.015524998 0.018074997 -0.07275 -0.046049997 0.0876 8.749985E-4 -0.2939 0.01265 0.020125002 0.11985 -0.091350004 -0.062675 -0.114675 0.074149996 0.013225 0.016749999 0.0062000006 -0.0261 0.074225 -0.004174999 -0.050399996 0.0609 -0.06475 -0.107425004 0.081175 0.028175 9.2499936E-4 -0.012925 -0.036425002 -0.151975 -0.014124999 0.009649999 -0.071825 0.0753 -0.0319 -0.02245 -0.0044250004 0.050925 -0.05925 0.0758 0.047000002 -0.05005
spouse 0.1355375 -0.08797501 0.0656 -0.046375 -0.01945 0.070737496 -0.0038249986 -0.1070375 -0.096675 0.10685 -0.08850001 0.0708125 0.041787498 -0.0591375 -0.018225 -0.038762502 0.064262494 0.038162503 0.057274997 -0.054475 -0.15695 0.08885 -0.060875 0.07525 -0.053324997 -0.0456375 -0.082975 0.0032125004 0.030187499 -0.060724996 0.2020375 0.0355125 0.005874999 0.0196875 0.039474998 -0.079525 0.0328875 -0.0251875 0.08565 -0.0737125 0.0634875 0.0381875 -0.0535 0.050837502 -0.005437501 0.0265 0.1382625 0.0183875 -0.0494 0.024012499 0.0864875 0.082962506 -0.709425 0.0474125 0.0499875 0.0028750002 -0.094275 0.1211625 0.08775 -0.0036625005 0.0313875 -0.0198 -0.032750003 -0.0711125 -0.0074500004 0.0632875 -0.0070625003 -0.03305 0.004012499 0.028424999 -0.046487503 -0.099 -0.1062625 0.0049124984 -0.08445001 0.042037502 0.0646625 0.020437498 -0.071025 0.119775 0.044 0.0795625 -0.034925 -0.1957625 -0.1251125 0.04895 -0.16707501 -0.0208875 0.147175 -0.027875 -0.061325 0.0193875 -0.037125 -0.0906875 -0.056675 0.0815375 0.074149996 0.0312625 -0.074825004 0.098000005 -0.19097501 -0.0214625 -0.022275 -0.10625 -0.0776375 -0.013475 0.021399999 -0.044974998 -0.1712375 -0.0028500017 0.012737501 0.04635 -0.017649999 -0.0077375 -0.030950002 -0.061487496 -0.10725 -0.12751248 -0.197725 -0.32253748 0.0497875 0.0628125 0.049562503 0.0348875 0.0312875 0.19076249 -0.037637502 0.039150003 0.124424994 -0.13357499 -0.016862499 0.0888125 0.0929125 -0.0012375005 0.0073625 0.10008749 0.017699998 -0.0284875 -0.10185 -0.01175 -0.041787498 -0.03065 0.121300004 0.19122499 0.06965 0.0038500018 0.019625 0.120875 0.09555 -0.052825 -0.0373625 0.018799998 -0.089075 -0.063325 -0.066662505 0.017362501 0.015587499 0.049175 0.012250002 0.107137494 -0.1231 0.0057000006 0.13365 0.1102 0.0029249992 -0.038225 0.08059999 -0.0054625 -0.0323 -0.027037501 0.033474997 -0.0041500004 -0.1227 -0.0224 0.035325002 -0.029300002 0.27775 -0.070462495 -0.073025 0.0035624998 -0.027375 -0.0068375 -0.031675 -0.040762503 -0.010624999 -0.1397 0.063475 -0.18123749 -0.06443749 0.0282625 -0.017037498 0.0656875 0.0020999983 0.142575 -0.037325002 0.13595 -0.0428375 -0.0665625 0.13492501 -0.0553625 -0.101125 -0.028587501 -0.020375 -0.1011875 -0.005937501 0.076325 -0.0391875 -0.047425 -0.03895 -0.0016500007 -0.018487502 0.05555 0.09285 -0.011062502 -0.0353375 -0.009200001 -0.011762502 -0.083375 -0.0411625 0.0185375 -0.0422875 0.0167625 0.0870125 0.0732 0.0465125 -0.0749875 -0.086925 -0.0022750003 -0.0020500002 -0.095487505 -0.0925625 0.0606125 0.31814998 -0.11 0.01955 -0.1403375 -0.019199999 0.085625 -0.25336248 -0.015762499 0.0437 -0.0800625 -0.0024374984 -0.0326875 0.011025002 -0.029175002 0.0116375005 -0.0899375 -0.0790875 0.3712625 0.074650005 0.0656375 -0.046025004 0.040862497 0.0408375 0.021137498 -0.017412499 0.0642375 0.0381625 -0.1754125 -0.11445 0.0655875 0.0065124994 0.07542499 -0.32705 -0.0977125 0.0432 0.112399995 -0.15915 0.0257375 -0.13775 0.0803125 -0.1004875 0.009387497 0.094375 0.093274996 -0.05305 -0.0552625 -0.15075 0.07493749 -0.0654375 -0.0451875 0.038862504 -0.0611375 0.004737501 0.030899998 -0.0929625 -0.1083 0.043449998 0.0194375 0.037325002 -0.0181125 0.013499999 -0.002912499 0.062025003 0.0155125 -0.067975 0.049362503 0.008550001 0.013237501
subsidiary 0.15910001 -0.016 0.0532 -0.07803333 -0.08733334 -0.04083333 0.038966667 -0.054399997 0.031166669 -0.082666665 0.0015666684 -0.030533334 0.013033333 -0.025099998 -0.032566667 -0.1712 0.040033337 0.12746668 -0.054866668 0.071600005 -0.17023334 -0.0031666667 -0.041433334 -0.042633336 0.07063334 -0.12496667 -0.1467 -0.0155 -0.056566667 -0.08273333 -0.0069999974 0.06873334 -0.0532 -0.09493333 0.018566668 0.0331 0.07766667 -0.0313 -0.06966667 -0.10186666 -0.06290001 -0.0059000007 -0.08183333 -0.039333336 0.042666666 0.08733334 -0.14626667 0.11360001 0.08223333 0.029966664 -0.013699999 0.13466668 -0.6787 -0.037366673 -0.023633335 0.049000002 -0.053966668 0.077533334 0.023200002 -0.006666667 0.08556666 0.13303334 0.059233334 -0.107599996 0.08456667 0.05496667 0.08180001 -0.021533336 0.038866673 -0.044999998 0.0882 0.08546667 0.057900004 0.034366667 0.012066668 0.08473334 0.037133332 -0.01996667 0.007766667 -0.0019000024 -0.018766668 -0.014666667 0.10456668 -0.2119 -0.10536666 0.007133335 -0.121533334 0.053 0.103366666 0.07293334 0.089999996 0.034 -0.006033334 -0.04976667 -0.023199998 0.027333334 0.020766668 0.05856667 0.06910001 0.009833334 -0.1649 -0.11233334 0.09256667 -0.056299996 -0.081033334 0.0077 0.044166677 -0.012033334 -0.07236667 0.021066666 -0.0112333335 0.046499997 -0.0039000004 -0.011066667 0.019900002 -0.025666669 0.08863334 0.006733333 -0.03366667 -0.2696 -0.120733336 -0.06706667 0.03606667 -0.006133333 0.011399999 0.20643334 0.020366669 0.013033334 0.0067666676 -0.020533334 -0.026566667 0.004166666 -0.04326667 0.0333 -0.09836667 -0.008900001 0.07906667 0.02493333 -0.1391 -0.13403334 0.0153 -0.06643334 0.035933334 0.1647 -0.0029999968 0.0609 0.027266666 -0.025000002 0.11573334 -0.017466668 -0.1026 0.0458 -0.028966665 0.0484 -0.017933335 0.048 -0.04986667 -0.014066665 -0.030366667 0.023033332 0.0056666657 0.0616 -0.009933334 0.013399999 -0.030466666 0.041633334 0.10163334 0.012266666 -0.030966667 0.17520002 0.04116667 0.03376667 -0.019733334 -0.031233337 0.038066667 -0.045100003 0.26033336 -0.0648 0.023166668 0.0798 0.053666662 -0.0123 0.013366666 -0.075 0.022533333 0.046666667 0.1547 0.053033333 -0.011100004 0.047033336 -0.09380001 0.035633333 -0.03136667 0.060000002 -0.0405 -0.031500004 -0.015733335 0.033033337 0.10653333 -0.0221 -0.08366667 -0.015533332 -0.05093333 -0.062333338 -0.060933333 0.0547 0.084300004 -0.011666667 0.0495 -0.044033334 0.0251 0.06656667 0.08043333 0.034500003 0.0207 0.009500001 -0.014166666 0.035600003 -0.16330001 -0.026899999 0.037433337 -0.014966667 -0.06976667 -0.13253334 -0.020966668 -0.13793334 0.09906667 0.052300002 -0.025566667 -0.026299998 -0.1402 0.0781 0.32676667 -0.096466675 0.07643334 -0.0434 -0.077533334 0.1498 -0.23426668 -0.0075666676 -0.029499998 0.043366667 0.0335 -0.008300001 0.08836667 -0.18016666 0.0792 0.06946667 0.031533334 0.2970667 -0.0150666665 -0.0545 -0.2651667 -0.08530001 0.1273 0.05486667 0.124900006 0.1023 0.029266667 -0.0766 -0.012533335 -6.333329E-4 0.0584 0.017033335 -0.22940001 -0.010566666 -0.0061666695 0.046933334 -0.13683334 0.07163334 0.0419 0.012666668 -0.026400004 0.0068333326 0.12663333 0.089833334 -0.03676667 -0.0988 0.07483333 0.0503 0.058500003 -0.0723 0.029533334 0.11096667 0.085200004 -0.0010333335 -0.038766667 0.053433336 0.07596667 0.035000004 0.0031666677 0.063700005 -0.024333334 -0.08996667 -0.10540001 0.060900003 -0.055833336 -0.006766667 9.999906E-5 -0.056366675
tenant 0.1622 0.07796001 -0.02462 -0.13676001 -0.019820003 0.09786 0.027639998 -0.24638 -0.11575999 -0.10126001 0.024119997 0.1739 -0.013660001 0.053540003 -0.087960005 0.04888 -0.0056399996 0.00812 -0.04438 -0.025600001 -0.22976 0.06418001 0.055900004 -0.046960004 -0.09264 -0.042140003 0.02618 0.03728 -0.16908 -0.06361999 0.1822 0.04478 -0.064040005 0.1073 0.02512 -0.0589 0.0461 -0.0342 -0.03064 0.015840003 -0.007740003 0.034580003 -0.036720004 -0.12388001 0.06832 -0.021820001 -0.09150001 0.07565999 0.010820001 0.0021200015 -0.0049600005 0.12811999 -0.72076005 0.03302 0.0074 -0.030860001 -0.0019000008 0.015959999 -0.0055799983 -0.13338001 0.060140003 0.02074 -0.033120003 -0.05018 0.05324 0.10284 0.1274 0.117639996 -0.07636001 0.16094 0.08216 0.03026 -0.036579996 0.060259998 -0.22537999 0.093439996 0.024400001 -0.103999995 0.030720001 0.033080008 0.01854 -0.04532 -0.0287 -0.18258 -0.13378 0.03442 9.600014E-4 -0.01936 0.114379995 0.034600005 0.043780006 0.06724 0.048959997 -0.11338001 -0.10857999 0.08011999 0.18584 0.07700001 0.08826 0.1213 -0.10022002 -0.0436 0.10026001 0.06621999 -0.05722 -0.01746 0.036720004 0.053 -0.047640003 -0.05482 0.11152001 0.035079997 0.034700003 -0.02254 -0.014080002 0.05564 -0.012099999 0.08448 -0.08044001 -0.27522 0.15844 0.056640007 0.015959999 0.027560001 0.033079997 0.11878001 0.013960001 0.03732 0.0075599984 -0.038060002 0.16622001 0.07356 0.031600002 -0.058739997 -0.14438 0.14704001 -0.03646 -0.028 -0.01502 -0.14136001 -0.0070400015 0.2198 -0.0564 0.07286 -0.0036999998 0.07318001 0.01568 0.08092 0.13202 0.009880001 -0.002580002 0.115 -0.09198 -0.0064000012 -7.399991E-4 0.10684001 0.062080003 -0.01764 -0.074920006 -0.12494 0.02298 -0.1481 -0.12276 -0.045500003 -0.008140004 -0.06506 0.03548 0.05822 -0.07096 0.038840003 0.08956 0.11140001 0.0073000016 -0.051740002 0.055000003 0.035439998 0.22909999 -0.18723999 0.12168 -0.04748 -0.0051200003 0.12762001 -0.04756 0.20732 0.08728 -0.20080002 0.04052 -0.06962 -0.08004 -0.0276 -0.05528 0.084 0.094739996 -0.09652 -0.029280001 -0.0657 0.00442 -0.0158 0.09526 -0.04698 -0.06454 0.073920004 -0.03972 0.11570001 -0.015960002 -0.07688 -0.007819999 -0.026940003 0.01882 0.101660006 -0.027859999 -0.02276 0.021680001 0.0016600008 -0.09654 -0.019840006 -0.025160003 0.09142 0.0153 0.015740002 0.08652001 0.013820003 0.04986 -0.06992 0.11932 -0.10794001 -0.082320005 -0.04822 0.0065400004 -0.073319994 -0.13872002 0.05896 0.22640002 -0.04368 -0.09582 -0.11786 -0.07646 0.085420005 -0.16554 0.2124 0.01794 0.009899999 -0.067820005 -0.06684 -0.03182 -0.0087399995 0.12956 -0.13350001 -0.10896001 0.31812 -0.0017600015 -0.031220002 -0.13082002 0.0046399995 -0.0034999966 -0.073240004 0.06306 0.065060005 0.04812 -0.06778 -0.115820006 -0.054619998 0.10431999 -0.19394 -0.27596 -0.049799997 -0.13992 0.028839996 -0.15324001 -0.0504 -0.06950001 -0.05366 0.15672 -0.014200001 -0.027180001 0.03232 0.069299996 -0.068720005 -0.14321999 -0.09508 0.0054599973 -0.02222 0.058860004 0.05886 -0.051920004 -0.03942 -0.14618002 0.046240002 -0.008220002 0.0031200007 -0.0387 0.09709999 0.017560003 -0.061039995 -5.8000087E-4 0.30556002 -0.022220002 0.06516 -0.011759998 0.05978
trainer -0.050449997 0.27335 -0.03015 0.0035500005 0.0343 -0.054700002 -0.06005 0.0288 -0.016700003 0.096650004 -0.013300002 0.0781 0.1847 -0.019100001 -0.017299999 -0.0017000008 0.071849994 -0.01865 0.04665 0.074599996 -0.21560001 0.0553 0.0216 0.032700002 0.1619 -0.04035 0.066250004 0.0727 0.104 -0.18380001 0.11225 -0.0603 -0.0218 -0.0673 -0.11755001 0.04735 -0.06205 0.007849999 -0.085 0.0423 -0.018999998 0.1046 -0.10415 0.070199996 -0.1223 -0.0665 0.0481 -0.084 0.0082 -0.011 0.02945 0.03135 -0.6601 0.082200006 -0.0054 -0.21114999 -0.01805 0.042099997 0.04885 0.0302 0.0 -0.025100002 -0.106649995 0.0063 0.091249995 0.0482 -0.0436 0.0303 0.0069500003 -0.14645 -0.06835 -0.03735 0.0023499997 0.085949995 0.044 0.12265 0.01525 0.04405 -0.14035 0.08454999 -0.01575 0.08395 -0.031600002 -0.21985 0.016449999 0.13525 -0.013600003 0.06805 0.1458 -0.08315 -0.1167 0.0325 8.000005E-4 -0.21215001 0.073 -0.0644 -0.0559 0.11585 -0.1658 -0.0774 -0.2168 -0.008200005 0.0793 -0.0456 -0.0299 0.101500005 0.0219 -0.07285 -0.0691 0.0841 -0.12355 0.0377 -0.0879 0.05745 -0.04705 -0.053999998 -0.01115 -0.058500003 -0.013449999 -0.33255 -0.1371 -0.0084999995 -0.1264 0.0339 0.09935 0.1925 -0.022950001 0.007150001 -0.0036999993 0.08435 -0.08665 -0.086150005 -0.0057500005 -0.08455 -0.031099997 0.12795 -0.11455 0.11715 -0.15445 0.04495 0.060000002 -0.14719999 0.08565 0.17480001 -0.1719 -0.072850004 -0.1325 0.0749 0.03645 -0.04095 -0.042850003 0.111999996 0.012250001 -0.00695 -0.05415 0.06145 0.022599999 -0.0592 -0.0647 -0.0205 -0.02785 0.0012999997 -0.0691 -0.113450006 -0.0453 -0.0502 0.011200003 -0.07405 0.1582 -0.0037499983 0.11365 0.03885 -0.0563 -0.1206 -0.03695 -0.024699997 0.30225 -0.1134 -0.0676 -0.073750004 -0.0045 -0.0308 0.0217 -0.0524 0.0099 -0.28775 0.05765 0.10595 -0.108 -0.07915 0.0016499998 -0.1328 -0.04835 0.094950005 -0.0040499996 -0.045550004 9.999983E-4 -0.03 0.111949995 0.14155 -0.16755 -0.064899996 0.0763 -0.084199995 0.05275 0.047450002 -0.11365 -0.10345 0.015249997 0.1221 0.11575 0.1372 -0.032250002 0.09855 0.11995 0.03695 -0.03325 0.0404 -0.13690001 0.10665 -0.012150001 -0.0023 -0.0225 -0.0315 0.13080001 -0.13585 -0.0052999984 0.028749999 -0.0632 0.07145 -0.22670001 0.04085 0.3429 -0.13155 -0.1384 -0.09475 -0.2424 0.105000004 -0.27115 7.999996E-4 0.023100002 -0.0919 0.11455 -0.03135 -0.1862 0.03255 0.023 0.13305 -0.1379 0.40635002 0.0123 -0.13955 -0.014150001 0.08225 0.08845 -0.1542 -0.1197 0.009850001 0.078 0.0664 -0.03125 0.087500006 -0.012899999 -0.049200002 -0.3364 0.1486 -0.011599999 -0.24340001 -0.1702 0.1113 0.0498 -0.0972 -0.05525 0.0029000007 0.0615 -0.10525 0.1038 -0.14845 -0.0477 0.0552 -0.05375 0.03955 0.008599999 0.1258 0.13645 -0.08255 -0.19319999 0.1033 -0.0696 0.0526 -0.09485 0.025750004 -0.0369 0.03675 0.1531 0.0257 0.08305 -0.09045 -0.014350001 0.0977
