affiliation -0.017893536 -0.045529217 -0.0051208185 -8.97618E-4 0.005116363 0.032426454 0.039041232 -0.06132039 0.048743736 0.0069434904 -0.006093168 -0.02032811 -0.064089596 0.007855005 -0.11465995 0.03763117 0.0578337 0.025401345 2.477318E-5 -0.0030168332 0.025128715 0.030381825 0.061287932 -0.025490448 0.044639762 -0.027499821 -0.045935944 0.023487266 -0.086735986 -0.03613275 0.025976747 0.041821282 -0.013311258 0.0051519247 0.04545521 3.6439238E-4 0.03860742 -0.01412419 0.015354266 0.013091264 0.02805645 -0.034588914 -0.037739836 0.008577876 -0.044681802 -0.06966298 0.028809503 -0.0036916188 0.009972235 0.0534306 -0.020653386 0.02487806 0.051239423 0.027773697 0.007611743 -0.05778648 0.016016584 -0.030225318 0.024537874 -0.043314427 0.017974792 -0.028229441 -0.06653413 0.013186893 -0.0847016 0.025231857 -0.01974479 -0.005078983 0.06891611 0.01164903 0.009689385 -0.017673915 0.0051973024 -0.046745505 -0.021757966 -0.048369985 -0.043332558 0.043248206 0.056998074 -0.005726236 0.005319671 -0.0014332049 -0.040669493 0.050277628 -0.017123908 0.0057961 -0.05476947 0.013076475 -0.010602857 0.044387914 -0.04050879 0.003793498 -0.01852877 0.0433865 0.08253808 -0.0271192 -0.008581221 -0.023408717 -0.03435365 0.028023586 0.040106334 -7.239068E-4 -0.05453473 -0.043072235 0.02962575 -0.011513583 0.03133328 0.00923312 -0.018886037 0.013551943 -0.026214954 -0.02078285 0.009582406 -0.059247907 -0.029687619 0.05955501 0.018639341 0.051697075 0.057349633 0.0587672 0.016951744 -0.032577265 -0.022949662 0.034691088 -0.048137993 -0.039585065 0.054389864 -0.005359891 0.08292283 0.06324478 0.04018695 -0.09141912 0.007442996 0.0040017697 0.010470095 -0.009989192 0.004995751 0.04350791 -0.081334166 -0.025711052 -0.054825272 -0.009131523 -0.02974521 0.0028257815 -0.002275148 0.07767087 -0.023448512 -0.021588031 0.01591234 0.042511296 0.036592454 0.072534546 -0.02660245 0.011377993 0.05269178 -0.08298363 -0.0124980025 -0.016540382 0.039554317 0.022389658 -0.028902208 -0.015048373 -0.036407 0.025012394 0.03941992 0.038573027 0.013707971 -0.040199056 0.054812115 0.06311165 -0.007665667 -0.0068998127 0.03521002 -0.043656588 0.016925558 0.006077824 0.038936175 -0.08927079 0.03838044 -0.0027613933 -0.06033843 -0.08065841 0.050653234 -0.01101272 -0.004379702 -0.045890756 0.017406823 0.056171305 0.021474086 0.016940996 -0.0028266944 -0.002150306 -0.0035749688 0.01372839 -0.065095626 0.063855976 0.049095236 -0.02522797 0.024649072 -0.020749962 -0.017011613 0.031864747 0.073037796 0.010326256 -0.015348746 -0.077149734 0.0090118265 -0.018026723 0.052409645 -0.0016572252 -0.012613433 -0.041464105 -0.046407875 0.05490996 0.036414232 0.018652009 0.013272241 -0.046719216 0.048008036 -0.054917656 0.05076211 0.03457247 0.02198805 0.024744432 -0.00902705 -0.0076438077 0.03772513 -0.009148778 -0.02997683 -0.033610746 0.0091021145 0.038983613 -0.06444751 -0.0047172266 0.015024181 0.004141085 0.017401092 -0.036211215 0.03058754 0.0059338426 -0.01248561 -0.07048506 -0.018519672 -0.04145912 -0.030327145 -0.023467368 -0.027459275 0.035782587 0.039199673 -0.06541361 0.016322263 0.025106376 -0.015848387 -0.0081608705 -0.015493568 0.0020898562 -0.019670572 0.01008217 -0.051618718 -0.060619436 0.016393036 -0.002726689 0.050878476 -0.0128283305 0.016401738 0.059200734 -4.7234696E-4 0.024182454 -0.018862348 -0.017530397 0.02521128 0.018349394 -7.988078E-5 -0.052930396 0.020950839 -0.07427084 -0.09174797 -0.005507428 0.019362666 0.017661138 -0.03461118 -0.039375458 -0.06243571 0.011069532 -0.062326603 0.03593386 -0.01868928 0.029087437 0.059392713 -0.09219433 0.06149272 0.049685474 -0.043610573 0.01933888 0.0048178635 -0.021715766 0.0767089 -0.01389326 0.017875183 0.059950054
almaMater 0.013885535 0.04698701 0.0010437527 0.05139419 0.04159608 0.011079487 -0.033547014 -0.07717117 0.059679598 -0.043166064 0.032649394 -0.030719722 -0.021044059 -0.033799328 -0.046948712 0.03852346 0.045632917 -0.016851904 0.00790426 -0.010316019 -0.054533042 0.14686103 0.05503841 -0.035107713 -0.031527985 -0.093567684 -0.0034461343 0.037171643 -0.07782338 0.02288152 0.068799786 -0.021879427 -0.040133998 -0.025797699 0.0183969 -0.013622077 0.07357816 -0.03191165 -0.010270319 0.052588154 0.021056345 -0.017363738 -0.06033476 -0.021913055 0.015892578 -0.06534879 -0.058559608 -0.035133574 0.07606044 0.036219954 -0.05859303 -0.022490097 -0.0064310357 -0.008601424 -0.014397613 -0.025749905 0.018741604 -0.018830044 0.029703164 -0.06227684 0.011977242 -0.05154843 -0.033846606 0.011337983 0.0148777235 -0.011296707 0.019058658 6.8275334E-4 0.05346895 0.053003814 -0.016078012 -0.021846233 0.010951296 -0.06907367 0.02804969 -0.004941883 -0.027970893 0.055601086 0.009966428 -0.038481496 -0.0050957333 -0.009972903 0.003969921 0.008782677 -0.030586813 -0.022368265 -0.08681116 0.093371406 0.022173414 -0.00117082 -0.11064527 -0.07192666 -0.009044893 0.04380721 0.010497445 0.06990282 -0.013480051 0.13613164 0.0055441963 -0.038181737 -0.03532504 -0.024787141 0.029265929 -0.11069538 -0.012171286 -0.01116006 -0.0054015727 0.025823493 0.02084299 -0.0034200132 -0.038244333 0.020145426 0.030235965 0.060959 0.08374575 0.047732618 -0.011686667 0.047761824 0.088815436 -0.038581055 0.018293198 0.0319736 0.027938558 0.002031408 -0.022041995 -0.04679638 -0.007288789 -0.0040681097 0.011576122 0.10254921 -0.012226753 -0.12179841 -0.016267342 0.039089262 -0.0045333332 0.024680583 0.013678561 0.050807655 -0.053822648 0.030031895 -0.0922144 -0.0044512176 0.04352089 -0.03214061 0.04246608 0.097547874 0.031309154 0.05403291 0.06515181 -0.0010947913 0.0932912 0.051279634 -0.018959302 0.042712476 -0.027210137 -0.061206173 -0.012639887 0.03174023 0.050187815 -0.009405908 -0.041272167 0.054432 0.013853343 0.0829723 0.065661766 0.030327786 0.09668975 -0.029534638 -0.04921547 0.03506816 0.020595934 0.029010653 0.0147575755 -0.04328641 0.023786949 0.037744775 0.054094624 -0.010136014 0.039269272 0.019530162 0.009940321 -3.6364197E-4 0.071983464 0.0017254389 -0.024274494 0.024164055 0.043701965 0.0073603923 -6.354753E-4 -0.05519706 0.020521123 0.0073889154 -0.011837043 0.11951125 -0.070036635 0.003881995 0.042706925 -0.04283922 0.041246217 0.0135512 -0.009711725 0.014852295 0.06912592 0.022128273 -0.088664345 -0.120725535 -0.024437599 -0.025364637 -0.032722775 0.003163425 -0.023918416 -0.05189795 0.020739509 -0.014400161 -0.026987026 0.06905571 -0.063698545 -0.053700157 9.96828E-4 -0.022641711 -0.025734669 -0.044999365 0.0018423584 0.010961912 0.09969523 0.012471039 -4.117377E-5 -0.023636 0.002234082 -0.028378619 -1.8615388E-4 0.033770934 -0.038677294 -0.043224823 0.044822067 -0.01657263 -0.017352402 -0.07826406 -0.056734264 0.044041768 0.017650668 -0.055855114 0.0062510828 -0.0033727158 -0.071320124 0.052196044 -0.06669149 0.023717016 -0.06421764 -0.020197237 1.5623793E-4 -0.022437716 -0.018330067 0.00992287 -0.035427872 -0.028200656 0.061801877 0.023628086 -0.10598534 0.0672727 0.03819014 0.055668265 0.0433885 -0.04948455 -0.00965888 0.043549974 0.023839677 0.010032154 0.023133067 -0.022765568 -0.014740022 -0.050313156 0.06919623 0.033606675 -0.03213809 -0.049038522 -0.02055779 -0.050986808 -0.013462505 0.0091115 0.069063604 -0.041926567 -0.078170694 0.071457334 -0.006648165 -0.014304146 -0.064020775 0.0021238434 0.11603413 -0.011892616 -0.02580458 -0.07982981 -0.1183903 -0.0074689128 0.088786505 0.026296005 -0.004465969 -0.01615271 0.029856836 0.014248642
bandMember 0.052005745 -0.07762692 -0.015077149 0.01401134 -0.041499127 0.043902446 -0.044875283 -0.090085804 0.014960705 -0.054920662 0.053177524 -0.045365404 0.008431044 -0.009601097 -0.02229376 -0.026457971 0.023270769 0.0049190717 -0.069446035 -0.053414352 0.004398407 0.07459203 -0.02705572 0.0032754974 -0.053250283 -0.008595751 -0.03605429 0.00930808 -0.021895334 -0.042394068 -0.004457367 0.050637316 -0.054726172 0.060990274 0.016089382 -0.062793784 0.092401184 0.027946262 0.059464533 0.018476771 -0.04854266 -0.0042045424 0.0053315903 -5.9270486E-4 0.030020097 -0.0407909 -0.020190265 -0.01819626 0.018287327 0.024267245 -0.024611497 -0.014605388 0.0066426783 0.0040944847 0.06481726 0.015463771 -0.02797404 0.016045693 -0.020739915 -0.061956275 0.050042976 0.030258063 -0.021231791 0.012658647 0.03132871 -0.02611179 0.02130343 0.012267398 -0.021055112 0.07082437 0.005619298 -0.050559916 -0.017159732 0.033159252 -0.11180629 0.026236763 -0.010821543 -0.045989793 0.012381072 -0.054561365 -0.043528445 -0.05233221 0.0044356096 0.0012888481 -0.040867735 -0.03476121 -0.07000407 0.036259834 -0.017207952 0.014370039 -0.04013408 -0.07265133 -0.0027420097 0.041927423 -0.037101906 0.022605551 0.01778237 0.012741319 -0.021609394 -0.08185549 0.013006771 0.055358943 0.0076045305 0.02554487 -0.06096257 0.002246301 0.04232655 -0.01912427 0.018416775 -0.049342614 -0.049073484 -0.0014949233 0.03337048 -0.033120465 -0.0010645852 0.07247235 -0.009277445 0.020056909 0.052772414 0.00981355 0.050835777 -0.08063056 -0.05769677 -0.053149052 0.018403158 -0.04407325 -0.09876331 -0.030389143 -0.0042440607 0.0023576915 -0.002152875 -0.054621335 0.09020429 0.018613627 0.026676109 0.047898855 -0.020046623 -3.7448548E-4 0.019995978 0.035902537 0.035401966 0.028369365 -0.055837084 0.032384444 -0.0376188 0.035078596 0.039763387 0.015648967 -0.03870803 0.04155555 0.07362044 0.025885684 0.030414442 0.07619928 0.004419981 -0.05080995 -0.016401112 -0.011644988 -0.019223902 -0.058069598 -0.046363186 0.04580481 0.051639777 0.126093 -0.013831246 -0.045855347 0.027986562 -0.020674286 -0.051763214 0.02879031 0.0762057 -0.039857995 0.05017067 -0.049312245 -0.010927266 -0.060970385 -0.018139077 -0.04062075 0.012408558 0.01869837 0.024069661 0.064808 0.06162106 -0.025900904 0.027851349 0.014940813 -0.028508892 0.003552934 0.057178736 -0.014226099 0.0021341369 -0.029376 -0.0033324778 0.01659904 0.005723848 0.012445298 9.605267E-4 0.039502226 -0.009157932 -0.03124631 0.025029749 0.007997294 -0.020285888 -0.024362272 0.010055966 -0.06096184 0.004240466 0.008810352 -0.061469723 -0.026187316 0.023139054 0.01556077 0.040554952 -0.019721724 -0.005294385 -0.042520765 -0.02700988 -0.045352813 -0.040246807 -0.046711873 0.017467473 -0.009038679 0.07242347 0.012110444 0.02699015 0.028146787 0.0027713298 -0.03911204 0.018139526 0.028947756 -0.07652527 -0.018746909 -0.058238715 -3.958568E-4 0.059469175 -0.0077377795 -7.2298537E-4 -0.057763714 -0.015718866 -0.015496592 0.05061158 -0.06108438 -0.023094105 -0.059045214 0.042926718 -0.0062121856 0.024616404 0.04934575 0.039996825 0.015556916 0.020022992 0.030994708 -0.0214073 0.019453097 0.031093819 -7.446073E-4 0.06239016 0.027193844 0.017534956 0.012826825 -0.007962531 0.014314336 0.046676185 -0.029740209 -0.038796075 0.029632429 -0.109565236 0.019133724 -0.026979238 -0.032244038 0.0051087034 -0.050933845 0.05216037 0.12651657 0.021430457 -0.044356033 -0.0028059462 0.02695567 -0.03763184 -0.06313739 -0.020234581 -0.010649161 -0.026372788 0.019867627 0.04711687 -0.03261314 0.0011188313 0.015821205 0.074347295 0.06271219 0.062473502 -0.006527375 -0.056682076 -0.033777233 -0.0072341175 0.014578613 0.019840525 0.020946529 0.04744783 -0.010378578
birthPlace 0.021396212 0.045171227 0.014700594 0.004971906 -0.026441062 -0.0061699036 0.056750894 -0.047198575 0.043851145 0.07634007 0.013818889 -0.04334682 -0.016947223 0.013709756 -0.0331884 -0.0044807415 -0.029766968 0.055986673 -0.017530283 0.020103721 -0.018412348 -0.017388972 -0.01868317 0.03922028 -0.014311331 -0.03102079 -0.029290387 0.027951092 -0.0075790333 -0.029108202 -0.0025337916 0.00938427 -0.045562554 0.047869865 0.00152778 0.013976571 -9.857834E-4 -0.044194415 -0.028284272 0.016827157 -0.0254658 0.012483996 -0.013224688 -0.021421017 0.008285472 -0.029044414 -0.019367306 0.008664987 -0.009725708 -0.016569952 -0.022223562 0.031227602 -0.01554355 -0.0900215 -0.011660852 0.025303626 -0.013883606 -0.025648503 -0.008022371 -0.03350698 0.043553937 -0.012604906 -0.013849673 -0.080205806 -0.015549274 -0.045100234 -0.088434905 0.015388503 -0.010364861 0.025367064 0.062321465 0.012292653 0.037625827 -0.08213111 -0.053595215 -0.0070313686 0.01305631 -0.03101686 -0.0013153941 0.05740252 0.031695403 -0.050559085 0.048520263 -0.039835744 -0.040334743 0.0054353657 0.031896725 -0.011485889 -0.011264245 0.043488383 -0.012266672 -0.034150835 -0.032299098 -0.06806004 0.033666756 0.024343897 0.022111287 -0.011715362 0.041637905 -0.027767956 -0.048024975 0.016708327 0.030936902 0.029063625 -0.05282678 -0.1102485 -0.06137221 0.0015004307 0.027515043 -0.041657973 -0.0119423065 0.06516721 -0.011147366 9.978369E-4 0.008604686 0.03910277 -0.04878372 -0.008980125 -0.006442529 0.020561611 -0.035586394 -0.047269758 0.053379685 0.030020341 -0.006941277 0.0028980281 -0.029078394 -0.043473225 -0.059810292 0.023205683 -0.030513436 -0.014374353 0.007784355 0.012516235 -0.013045526 9.5959305E-4 0.021948209 0.0068378407 0.02816551 0.03332943 0.006933205 -0.012527778 0.04222712 -2.4282634E-4 -0.0010921225 0.04674078 -0.04322829 -0.0022351802 -0.059611272 0.0071272464 0.04052259 0.03151446 -0.034234967 -0.01754404 -0.013409152 -0.046217795 -0.060873695 0.034085188 0.033106193 -0.043472406 -0.038461912 -0.028713632 0.001766248 -0.048934646 -0.01645455 0.04093226 0.001710783 -0.029555509 -0.04484518 0.032823008 -0.024308277 0.008665019 0.04218299 -0.03816209 0.011847737 -2.792731E-4 0.0111605665 0.002883867 0.029636074 0.029897481 -0.058842074 -0.03698141 0.0056484393 -0.074862376 0.020508995 0.018927602 0.0145982625 0.044950407 -0.0030623737 0.09540727 -2.9713148E-4 0.047605902 -0.00390189 -6.5286545E-4 -0.08766904 0.00696218 -0.042644706 -0.017979652 0.06073401 -0.045718964 0.028108368 0.05384778 0.0033865662 -0.009741369 0.03940909 0.025610998 0.039691493 0.016521009 0.014912317 -0.014813833 -0.022055147 0.005056566 -0.037510097 0.04099871 -0.037719272 0.0057416223 0.03570488 -0.013313546 0.023258662 -0.002438789 -0.0059917127 -0.005832401 -0.0049594142 0.0150848 0.010652531 -0.017404404 -0.0149394395 -0.0038339035 0.016062655 0.0036221638 0.048750352 -0.028975744 -0.04222257 0.05677058 0.06594852 0.009903224 0.024573073 -0.019113693 0.031928703 -0.035953276 0.027723795 -0.061935198 -0.001242587 0.013605515 0.019589908 -0.0056364937 -4.6830252E-4 -0.0056195976 0.009692616 -0.037989195 0.0029375188 0.037172806 0.018536579 -0.035324883 -0.026249085 0.006290899 -0.02146951 -0.025334824 -0.034280125 -0.048179507 0.008085404 -0.0021524378 -0.007082764 0.014284353 0.039987426 0.012305826 -0.010885853 -0.074437276 -0.029170886 -0.042905957 -0.02728572 0.0044284738 0.05258901 0.013689599 0.016690528 -0.09584616 -0.03667664 -0.04777566 -0.049205065 0.007076125 0.03031337 -0.01132399 0.03736602 0.011783304 -0.03945755 -0.013861875 -0.010563074 0.0035722516 -0.06348936 0.022350691 -0.036085185 0.0024560906 -0.06265137 0.0151860835 0.013263437 -0.009778368 -0.009135166 -0.003903965 0.04754888 -0.01522275
ceo 0.02789023 -0.0367615 -0.00690852 -0.04308021 -0.008731632 -0.022249574 0.017926624 0.010940757 0.020826615 -0.0018514851 7.892456E-4 -0.015620638 -0.015688457 -0.037847802 -0.048469048 0.064004496 0.025736926 -0.015864829 -0.039201036 -0.027066138 -0.027220666 -0.022678759 0.0036499936 -0.0090874685 0.06452618 -0.03819296 -0.034172058 0.020131983 -0.05568342 -0.0073382035 0.011000678 0.011100018 -0.02397677 0.035055287 0.053115457 -0.003642749 0.031418487 0.06836452 0.03089305 0.013513311 0.0054718754 -0.04322411 0.015362581 0.027721524 -0.041734062 -0.10617893 -0.026108809 0.007394612 -0.009947375 0.058123387 -0.031966366 -0.024864135 0.0036893664 0.018026195 4.5365887E-4 -0.014218851 -0.043875802 -0.009578907 0.029848808 -0.05031366 -0.02346812 0.059229434 -0.05732926 0.053006243 -0.0059954347 0.0100766495 0.0054014185 0.02818224 0.06799587 0.018889362 0.02465833 -0.03931781 -0.008531507 -0.018299159 -0.03490857 0.014661342 -0.013371738 0.02266508 0.016459947 -0.035717167 0.07249974 0.02562131 -0.05236127 0.048621807 0.027430573 -0.01000199 -0.04501669 -0.009984665 -0.0096059395 0.018855564 0.07596669 -0.05294074 -0.008995172 0.017023865 -0.019173155 -0.020327829 -0.01620046 0.039307922 0.04734107 0.013962245 -0.0044322433 -0.038342193 0.028735436 0.041025806 0.02687336 -0.035096236 -0.01668299 0.013156665 0.0030673463 -0.016114052 -0.010302678 -0.047135755 -0.007388451 -0.06391822 0.01273771 -0.013138587 0.032494243 -0.008539881 0.0973604 0.022594586 -0.026774498 -0.003439105 -0.06829959 0.004028827 0.029908273 -0.05097864 -0.03771341 0.0061682262 0.069463894 0.017457768 -0.019710526 -0.081658 0.004511915 0.0239697 -0.018191976 0.031190762 -0.006298759 0.0129697295 0.017129783 0.06183689 0.008191384 -0.023525134 -0.011989506 -0.01097304 -0.013901039 -0.0049025468 0.012528075 -0.02102567 0.038958926 0.012645007 0.012158668 0.0683728 -0.025816804 0.072989255 -0.04122495 0.03092298 -0.022664344 0.021384688 0.022917323 -0.030722406 -0.048568357 -0.029107401 0.016092613 0.023772098 0.015956964 -0.03699468 0.009446556 -0.034530215 0.066026635 0.06488055 0.071491286 0.006556011 0.01433457 -0.042163566 0.029272992 -0.024014097 -2.1002628E-4 -0.014025543 0.010239799 -0.04256627 -0.03528657 0.007508152 0.020988315 -0.06879105 -0.03211692 -0.02647265 0.019995162 0.026390158 0.014288817 0.043062475 -0.046285935 -0.025255026 -0.014876418 0.07483548 0.029025912 -0.018502379 -0.0474149 0.026132256 0.030786663 -0.007474564 -0.0772568 0.028402975 0.049635492 -0.0051010945 -0.003596861 -0.012891423 0.020253338 0.00242007 -0.032228515 -0.059967417 -0.005574505 -0.017389596 -0.007957679 0.04458905 0.058904678 0.060601547 -0.023791231 -0.03573154 -0.010293291 -0.0049780444 0.015863704 0.0060889497 0.009653872 0.04011002 0.05640015 -0.0063432157 0.0384906 0.021769192 0.036197945 -0.007063238 -0.029727759 -0.016760932 -0.058287114 0.0012591495 -8.3475513E-4 -0.011927284 2.12593E-4 -0.006694278 -0.02186526 -0.010162998 -0.0093023535 -0.070454635 -0.012865872 -0.007341152 0.028607203 -0.01599169 -0.06394301 -0.01411221 0.08306937 -0.035605855 -0.008743987 0.014044192 -0.005134166 -0.035558745 0.04338514 0.007343177 -0.020906605 0.045181114 -0.021565927 8.230489E-4 0.013496071 -0.026617225 0.050812557 0.01664408 -0.04070973 0.032379556 -0.050972734 0.01455871 -0.04869523 0.0018933397 0.009868462 0.016918408 0.0069709513 0.007959041 -0.06388547 -0.0111056585 -0.0037283923 0.012243937 0.0048770336 -0.026756365 0.0044126976 0.0017922632 0.024577115 0.0030678557 0.058906324 0.08730321 -0.022123862 -0.026181852 0.07348318 0.008254082 -0.015890058 0.007186727 -0.0540002 0.012858471 0.0014321981 -0.0039485656 0.03345108 0.004649519 0.015294997 0.019893672
child 0.010353886 0.014000095 -0.022126973 0.023273598 0.0015987959 -0.0035647484 0.019897204 -0.024852565 0.0041399165 0.01925808 0.070385836 -0.058824755 -0.004659935 -0.03441657 -0.0680299 0.026544875 -0.020502364 0.06255554 -0.04010257 0.017068844 0.012048535 0.024903728 0.047027044 0.008248791 0.012937121 -0.06015572 -0.051701795 0.06572771 0.05573111 -0.06294936 -0.010643957 -0.005413625 -0.05615635 0.020739997 -0.046325393 0.004972066 0.08239757 -0.025643732 0.008311031 0.012530888 0.030067023 -0.04753331 0.06717903 -0.022656387 0.0540149 0.010686672 0.0146037005 0.03581081 0.0060162134 -0.026865564 -0.036477268 0.0023225858 0.035853766 -0.016729426 0.06038028 -0.02508232 -0.018970352 -0.024386927 0.0077130697 -2.7072988E-4 -0.002278489 0.024480335 -5.269693E-4 -0.028494395 0.020039435 -0.017422387 -0.04475596 0.013430084 0.003448946 0.048059415 0.07872379 -0.012732497 -0.026489219 0.019202378 -0.0490126 0.061203957 0.012239581 -0.027909577 0.008088593 0.015594669 0.016246263 -0.011405868 -0.051183917 -0.033191297 -0.030504938 0.026995232 0.032396458 0.036516428 0.006994377 0.0039542643 -0.003004464 -0.034642898 -0.035627265 -0.013253516 -0.028984092 -0.006107548 0.037222415 0.0032267384 0.020898003 -0.029372174 -0.015653327 -0.032587104 0.037776016 -0.038954273 -0.029452097 -0.04343179 0.034424625 0.008063862 9.819254E-4 0.006700054 -0.0042322516 0.042468026 0.04916833 -0.0018867956 -0.0035823323 -0.02961838 -0.036437355 -0.019479498 -0.025695633 -0.006872068 6.6617073E-4 -0.012587658 -0.03607086 -0.01810868 -0.01611849 0.014909407 -0.013277387 0.020254683 -0.0142544275 0.0074281767 -0.021139694 -0.01751048 0.013777314 0.007927138 -0.024987077 0.031845443 0.041863002 0.04099115 0.010908283 0.050323203 0.0618987 -0.03869402 -0.005532573 -0.015034406 0.04129335 0.090631485 -0.03220635 0.06188869 -0.033062305 -0.025885893 0.10640426 -0.012221638 -0.06153302 0.021188762 -0.010838691 0.0038511637 -0.024778916 -0.051088657 0.0040519154 -0.015587959 0.0014756446 0.030291349 0.059981458 -0.0025643788 -0.01016565 -0.069393024 0.03828929 0.010339046 -0.002006968 0.03782104 0.017750647 -0.023508951 0.011787027 -0.03546296 -0.027578227 0.023162171 0.07840398 0.01718508 0.0014419295 0.05324861 -0.0049660914 -0.025074013 0.035370477 0.011696249 -0.028023526 0.046343796 0.00943142 0.0036066852 -0.016172957 -0.012774324 -0.03296364 -0.015123015 -0.023801193 0.020968756 0.040837236 0.056019153 -0.022370484 -0.00921162 -0.04269149 -0.029359391 -0.04946488 -0.05003217 -0.029939681 -0.04715432 0.03367672 -0.024012912 -0.01220301 -0.03158636 0.008829361 -0.030892378 -0.02917613 -0.005134144 0.005789038 -0.0029809768 -0.039196376 0.026177842 0.027270623 -0.034276806 -0.014378211 -0.021864712 -7.273959E-4 0.004039505 0.073928736 -0.03238272 0.019327985 -0.020488314 0.012846105 -0.07442297 0.012635964 -0.068166256 0.0074395426 0.0017802607 -0.0050197574 -0.002729691 2.5493343E-4 0.02062767 -0.03170814 -0.062235467 0.00753225 0.021281656 -0.011155104 -0.04832705 -0.02090124 -0.011601733 -0.005492105 0.06370427 -0.035412148 0.019397877 0.014117378 -0.018391449 0.023925658 -0.049087 0.047404688 0.02813965 0.037194226 0.025039956 -0.022685533 0.016448453 -0.06841478 -0.030881917 0.021346428 0.011465903 -0.032098442 -0.025861232 -0.01195498 0.03712429 -0.053331994 -0.0045538703 -0.06705744 0.017917134 -0.047162246 0.023890462 0.025253262 0.03822753 0.01668641 -0.04952104 0.011079754 -0.007495069 0.0025921653 -0.025770515 0.049360316 -0.033616133 0.02392066 0.061379384 -0.015878394 0.00445801 -0.047309496 0.021981856 -0.0030301316 0.09051566 -0.014243685 0.02791747 -0.07892474 -0.037992872 -0.020667503 -7.3353824E-4 -0.021535574 -0.025218632 -0.026249854 0.018992495
club -0.021402836 -0.009516117 0.04230016 -0.02254374 0.044696838 0.0026203878 0.070267715 -0.05836395 -0.005823055 0.008700795 -0.006287694 -0.06808402 0.036409877 -0.019749552 0.009553818 0.06041236 0.008077586 0.07746385 0.07544638 -0.027660057 0.0018157879 0.08453561 -0.040985532 -0.054674774 0.0010092973 -0.08090345 -0.08605999 0.1441515 0.1021031 0.023557892 0.0077996566 0.0050051115 0.09356205 0.053215902 0.016903877 -0.033318743 0.080308154 -0.0141522195 0.052620187 0.051300786 0.020245587 -0.043906406 0.028608693 0.053728163 0.010247841 -0.020956276 0.058611654 -0.03616187 0.015369649 0.061715752 0.026913073 0.016679613 -0.036283255 -0.05717992 0.06727809 -0.045620143 0.0038268256 0.02284924 -0.053283274 -0.05404265 -0.03156657 -0.054419648 -0.015994104 -0.046978988 0.029577509 -0.020246869 -0.014472203 0.030398995 0.029857814 0.031760275 0.015695728 -0.020289505 -0.016067024 -0.030240372 -0.013678834 0.0027638003 -0.034328196 -0.03528401 0.02499412 -0.057118475 -0.02739334 -0.035599485 0.013646639 0.08803364 0.047764197 -0.06309137 -0.06093934 0.07724382 0.048262175 0.004425239 -0.013583673 -0.01682675 -0.045505524 -0.05241081 0.0151073 -0.03262986 0.046709742 0.053706314 0.05337628 -0.05898605 -0.040749107 0.10915663 0.045154124 -0.007399536 0.020425618 -0.0070115156 0.05349005 -0.032705676 0.012358057 -0.022931397 -0.04686916 0.06325835 0.019452348 0.047513507 0.07358274 0.03332546 -0.023038736 0.0035992307 -0.04432293 0.019926725 -0.06064325 -0.04672737 -0.0017298212 0.048094865 0.0021017035 -0.07988199 -0.015328398 0.05577013 -0.03622757 0.011723697 0.018354408 -0.07561941 -0.022464216 -0.023210427 0.00245136 -0.064984754 -0.02992117 0.06711086 -0.032776248 0.047357254 -0.014977116 -0.025555745 0.014305787 0.026085198 0.035868384 0.06664898 0.014252955 0.020089721 -2.4191632E-4 -0.050070923 0.051357783 0.046211623 -0.07785913 -0.032732245 -0.03513568 0.05918638 0.044876516 -0.061344877 0.034003668 -0.049637627 0.058806848 0.059433065 0.11205596 0.045421537 -0.047199488 -0.078636214 -0.032330826 -0.056480482 0.020855166 0.045153715 -0.04412983 -0.0020313598 0.015186718 -0.079328135 -0.0032432755 0.001441865 0.053904127 -0.04637827 0.038541406 -0.007986177 0.07079354 0.064674884 0.014456069 -0.016895488 -0.011330656 0.026618598 -0.040818505 0.02877078 0.055757623 -0.011436942 0.055715255 0.024715807 0.026228614 0.054731093 0.022076175 -0.042663172 0.06640765 0.04006482 -0.05491565 -0.04684423 -0.010515953 0.008350253 -0.0461891 -0.022095859 -0.02472056 -0.09732111 0.019371703 -0.05618699 0.010919474 -0.010491735 -0.032998316 -0.00982781 0.009226512 0.021929644 -0.054396927 0.04154282 -0.0134132905 0.011550965 -0.07043102 -0.019573381 -0.017743845 -0.046754953 -0.0067178756 0.020525731 0.043150038 0.016187686 0.0627466 -0.055795874 0.028813958 -0.026019534 0.05667798 0.023788318 -0.008288145 -0.012245577 0.0102020055 0.013353888 0.032439902 -0.042662203 0.054320298 -0.07632011 0.052898627 -0.081882894 0.018041562 -0.035784215 0.030459803 0.0047624838 -0.068036586 -0.032234713 -0.019191265 0.0064442167 0.028792283 -0.026215777 0.049709838 0.039955024 0.04148374 0.045310378 0.013019547 0.013311919 -0.083311096 0.077977985 0.04206118 -0.0031009852 0.03506428 0.012816014 0.01215852 0.0437998 -0.008274201 0.006118485 -0.026522368 -0.0047594896 4.7734016E-4 0.04363736 -0.09151622 0.03187106 -0.066559866 -0.031742103 0.021184316 -0.069962755 -0.039266672 -0.0056987954 0.0053098723 -0.015058349 0.05854237 -0.032085974 -0.020999193 -0.0046205036 -0.06771922 0.048276864 0.03432733 0.049487375 0.005330543 0.0038252128 -0.100061014 -0.060775273 -0.0034944937 0.019536681 0.012658174 0.023221862 -0.05439843 -0.027367767
deathPlace 0.018342787 0.04798468 -0.0023197616 0.08208557 -0.033257063 0.0068679815 0.0026993223 -0.057685185 0.08507154 0.07909478 0.0072761923 -0.048270155 -0.053243447 0.043336816 -0.017566377 -0.008129626 -0.002668763 0.012145986 0.009699573 -0.0053287637 -0.009148745 -0.011379393 -0.006007776 0.015203883 0.08966488 0.028473672 0.01150467 -0.008953827 0.029970815 -0.054239463 -0.010650788 0.0026385474 -0.053221095 -0.019608008 -1.5102989E-4 0.05902036 -0.02044568 -0.009235902 -0.0192597 0.022524871 0.10282443 -0.044014517 0.068933465 -0.041972358 -0.009057803 -0.07530459 0.010482463 0.010456934 -0.024257848 -0.002633738 -0.003349188 0.0076683895 0.023006735 0.009447821 0.022583231 -0.050200395 -0.048961196 -0.009240791 -0.024984177 0.003218241 0.030445987 0.013927334 -0.0048230365 0.0024657787 0.0147226835 -0.021460028 0.015472369 0.020979384 -0.054912515 0.05076079 -0.017523065 0.0052692443 0.03526843 0.023469979 -0.07529608 -0.06390916 -0.009734574 -0.012462548 -0.0092088515 0.10040828 0.051542066 -0.04028449 -0.02107321 0.035807688 -0.030123184 0.030758718 -0.011224579 0.06972859 -0.010723221 0.012215377 0.060138896 -0.024775205 0.0022390496 -0.058245435 0.005608602 -0.0066536325 0.054565445 2.948911E-4 0.0057626483 -0.002858102 -0.02676147 -0.0032939825 0.01900939 0.0058184704 -0.045339264 -0.059614412 -0.03382622 -0.034653027 -0.015688619 0.015157429 -0.009872207 -0.053699788 0.024841448 -0.0048368783 0.04109874 0.010178705 -0.02233136 -0.016456468 0.033298086 0.03188734 -0.013633942 0.0049708346 -0.019221634 -0.04577761 0.022223266 -0.0526067 5.145383E-4 -0.05221607 -0.016177671 0.020505989 0.036088135 0.014342421 -0.031981613 -0.009204315 -0.03502264 0.01360569 -0.015621275 -0.010944649 -0.02017505 0.032947127 0.023617215 5.2098E-4 -0.042359713 0.012778707 0.014302102 0.024628246 -0.012636042 -0.018398613 -0.02165811 -0.038625684 0.020030027 -0.034277245 -0.013112162 0.02032649 -0.005495529 -0.009972607 -0.008831804 -0.02114872 -0.02075387 -0.025100784 -0.015539431 0.004724149 -0.033058684 -0.039851986 -0.016367178 -0.041870296 0.024307173 -0.007850753 -0.013001381 -0.0034532372 -0.03279616 -0.041037127 -0.05105345 -0.05639626 0.008664499 -0.014959448 0.034923967 0.017644363 0.06062585 -0.018503815 -0.022227148 -0.06914058 0.021155534 0.010127438 0.029836781 0.038687132 -0.012396522 0.035014063 0.061979342 0.08580566 0.0437427 0.00896883 0.0033849415 0.04244998 0.055065233 0.012821203 0.07506336 0.0056842896 -0.028058419 0.011909434 -0.011121407 -0.0021854746 -0.03508139 -0.008440683 0.035400454 -0.02949429 -0.009035661 0.0052370126 0.0119580915 -0.04962135 -0.02869976 0.036711182 0.013481675 0.0065846676 -0.03912602 -0.030993998 -0.010823318 -0.049269307 -0.047895487 -0.0050473907 -0.016688723 0.036229 -0.0060245525 0.055358935 0.05484899 -0.017480142 0.053716384 0.008949349 0.024212891 0.043978553 0.021224568 -0.008027932 0.008556746 -0.02634678 0.03101525 -0.022536414 -0.03430324 0.025535643 0.048669584 0.006473403 -0.0060425447 -0.0026058068 -0.007301713 -0.05767764 -0.01987682 0.029865954 -0.001362882 0.023193857 0.02952296 0.009307277 0.03494067 0.022457404 -0.015780177 0.013359306 -0.004316802 -0.022989081 0.017415907 0.0148291625 -0.024877392 -0.019699099 0.010954556 -0.033307575 -0.009046557 0.016126215 0.012844493 0.019173348 -0.023298807 0.01803007 -0.013169935 0.0106549 0.040515494 0.0080759 0.016501749 -0.059398983 0.03870813 -0.04309703 -0.052913148 0.023927672 -0.012888296 -0.0344867 -6.099983E-4 0.007868848 0.038159605 0.0017154341 0.010092981 -0.008148421 -0.036944814 -0.005789893 -5.0972705E-4 -0.001936622 0.02362448 0.0076309335 -0.065158404 0.03347746 -0.008432137 -0.005535267 -0.09196602 -0.028218856 0.01314534 -4.2946127E-4
debutTeam -0.0192695 0.019238498 -0.026177414 -0.009202471 0.034952857 -0.034975857 -0.074236296 -0.09690498 0.052032154 0.048931025 0.009131901 -0.03975247 0.0021707085 -0.036168568 -0.040280968 -5.516854E-4 0.0468126 0.003943335 0.020798136 -0.0031265186 -0.008643336 0.06752997 -0.03609395 -0.019643858 -0.024435949 -0.023010314 0.013336684 0.023871388 0.02335009 0.06560402 -0.029963328 -0.010541856 -0.0012529803 -0.003617282 0.028975686 0.014004638 -0.020177763 -0.017878694 0.059990965 0.0111497445 0.049455278 -0.06812824 0.041932896 0.05283965 0.030180931 -0.027423864 -0.022239257 0.011485182 -0.011988459 0.042847663 0.014601627 0.03722049 -5.126856E-4 -0.007969735 0.015305245 -0.027548155 0.014280738 -0.024336508 0.008815453 -0.037400007 -0.038064875 -0.025172178 -0.03900794 -0.046522185 -0.012077622 0.008857948 0.0022392347 0.010790038 0.0025270495 0.08947484 -2.9363795E-4 -0.00998261 0.028759917 0.0139520075 -0.015859004 -0.04567872 -0.0013721287 0.013329459 0.014542274 -0.011751272 0.05435077 0.019525666 -0.016060933 0.014024685 0.04471021 -0.0565504 -0.05393216 0.0034198628 0.028446704 0.057024755 0.0020695701 -0.053049278 0.01108369 -0.030399658 0.029263046 -0.041448586 -0.033139564 -0.0031037997 -0.031388097 0.010314515 0.021915998 0.0068474244 0.001399419 0.019362457 -0.009946812 -0.04043468 -0.006903912 -0.02826903 -0.02691989 0.017875165 0.050372135 0.021089777 -0.0479734 -0.04235525 0.049544923 0.0058808997 -0.011430267 0.0066278083 0.06536951 0.001724739 -0.027821869 -0.03238126 -0.040475417 0.023115985 0.02203682 0.014100316 -0.030254677 -0.025465352 -0.011589813 0.08553689 -0.03209349 -0.0020390241 -0.041618105 -0.009612924 0.0036566765 -0.019589547 0.001938322 0.04421879 -0.061235413 0.028200096 -0.04544831 0.006839033 0.019182494 0.018773755 -0.0016531411 0.06620106 0.019372493 3.925953E-4 -0.023181979 -0.008293685 5.0688535E-4 0.016388917 -0.025901377 0.024164295 0.015487952 -0.028011836 -0.020187475 -0.061004885 -0.016473897 -0.0106384335 0.022467136 -0.0063232384 0.0716475 -0.05466689 -0.0433217 -0.062454697 0.047340296 -0.035088524 -0.038776606 -0.011691382 0.02360135 -0.06339901 0.041725155 -0.074548356 0.014454404 0.015365917 0.012756815 -0.03302055 -0.0058633285 -0.0025367923 0.0155600775 -0.047049314 0.028006021 0.015477439 -0.0032448235 0.0016601238 -0.0035357065 0.016662318 0.020472385 0.011118485 -0.019705271 -0.023011383 0.032315787 -0.01628635 0.0037594321 -9.0089533E-4 0.022387262 0.048164126 -0.0625314 -0.01975011 0.022125838 -0.011289248 -0.019384239 0.03247128 -0.020154148 -0.060595714 0.023729492 0.014457919 0.012875548 -0.02562209 -0.016050583 0.053816043 -0.0018280501 0.03600057 -0.05241037 0.038826577 0.02796518 -0.06282576 -0.04141365 -0.068005696 -0.046168935 0.029053045 0.002992021 0.0476413 0.055612963 -0.03886172 0.030538125 -0.012558341 8.4824464E-4 -0.021789214 -0.0015407084 0.05720003 -0.021029793 0.039543647 0.010149137 0.00740911 -0.017047167 -0.027311256 -0.013041376 -0.054452144 -0.018519457 0.0121090375 -0.0068168747 -0.04969591 -2.5053634E-4 0.030282212 -0.002520604 0.023303133 0.015893176 0.020532917 0.016432334 -0.018097017 0.01829543 -1.67592E-4 -0.030542662 0.056195945 0.025292031 -0.008135531 -0.04276217 -0.0035338968 0.030950151 0.025916053 0.011270384 0.044952106 0.033563994 0.0061154068 0.018434297 -0.025689034 -0.04122737 0.014175209 -0.020631243 -0.0019098738 0.013014569 0.033958625 0.06926328 -0.046451643 0.0050206985 -0.051102005 -0.05282954 -0.044806495 0.04398408 0.0018049914 0.015714478 0.03796118 -0.009523292 0.010229778 -0.024658184 -0.006876543 -0.0071934573 0.016894858 -0.038492866 0.015277016 -0.039673805 -0.018521065 6.4644404E-4 0.013343088 0.0013380878 -0.042552404 -0.048754614 -0.033301286
department -0.07548131 0.037946284 0.013026152 -0.032666698 -0.044195466 -0.07794941 0.059278727 -0.06919137 -0.030767683 0.019917605 0.014657835 0.0061092246 -0.02710059 -0.060687028 -0.06737693 0.024300966 0.018835545 -0.059549972 -0.005533083 -0.013149925 0.040186245 -0.042271066 -0.008300598 -0.056091137 0.012214033 -0.018482797 -0.09465732 0.035608165 -0.07109648 -0.050580185 -0.06577054 -0.0125171095 -0.0055059576 0.019159827 -0.007996644 -0.0105392 0.029309284 -0.035069 0.029386044 0.05079 0.026747117 -0.05114335 0.030932084 0.010315927 -0.0023391899 -0.02665722 -0.022620292 -0.015778296 -0.056153532 0.051373854 -0.016841266 0.017173052 0.049868375 -0.090974286 -0.02459337 -0.05138135 -0.03424322 0.0050685 -0.009902233 -0.022573002 -0.040254787 -0.024841283 -0.03709754 -0.071917266 -0.031131906 0.01237083 -0.08847174 0.038966693 -0.042071246 -0.03529513 -0.0049832407 -0.013820577 0.0847065 0.008055016 -0.029266488 -0.011307992 0.010620134 -0.03956566 -0.015278138 -0.0142036695 0.07529443 -0.031105986 0.07924791 -0.02277555 -0.043505803 -0.03138457 -0.006542247 0.027243465 -0.04335237 0.09988746 0.054621466 -0.0136649115 0.017364252 -0.12644598 -0.033390615 1.6639382E-4 -0.026398068 -0.0068273563 0.015194006 -0.0044155177 0.009199447 0.018119842 -0.03276097 -0.020229349 -0.0014806055 -0.119705915 -0.0468141 -0.04152277 -0.027791198 -0.07799474 -0.014372123 0.037207186 0.037158914 -0.025341505 0.022675578 0.0038310345 -0.019950237 -0.0044638375 0.03391565 0.05887704 -0.13224077 -0.035275456 -0.03875269 0.09559779 0.023543268 0.015986713 0.019404989 -0.050355513 -0.008177001 0.033864595 -0.017635092 -0.11528802 0.009429123 -0.03317975 -0.008825068 -0.045268737 0.021206468 0.007250501 -0.0044574426 0.00984478 0.040319227 6.758645E-4 0.032022398 -0.038908225 -0.08000251 0.03435632 -0.049297135 0.004577142 -0.096492544 0.064256184 0.11327208 0.07252626 -0.011685278 0.04906353 0.010152004 -0.038096994 0.0011586789 3.2104645E-4 0.025200842 0.028422538 -0.015640646 0.013670795 -0.009012772 -0.031085894 -0.018003136 0.0227273 -0.028177366 -0.0100101475 -0.003352303 0.005139853 0.026593607 -0.04516848 -0.028121782 -0.025622148 -0.0043009426 1.5690038E-4 0.033679094 0.01939338 0.0020275544 0.06658449 -0.014115015 0.022132332 0.058545254 -0.08249483 -0.047475964 -0.06763781 0.03118688 0.06120329 0.054280646 0.059916377 0.02539043 -0.013115218 -0.05638719 0.050647635 -0.059499882 -0.03415171 -0.0011341572 0.005675487 -0.035824396 -0.006040357 -0.05986335 0.01661861 0.038681105 -0.008702076 -0.015191952 -0.07273052 0.014721465 -0.0145312045 0.008237695 -0.017083537 0.039974146 -0.010740896 -0.07644053 0.034084275 -0.0483918 0.007719456 0.008911157 0.048792884 -0.0284273 -1.084432E-4 -0.012365721 0.0097042825 -0.0052642273 0.014560705 0.029891519 -0.040892947 0.0306782 0.016157724 0.009653529 0.015921343 0.08214839 0.014898606 -0.07684662 0.056662228 0.035571102 0.006210482 0.022069326 -0.040977344 0.03414628 -0.008542522 0.024443835 -0.008716738 -0.012335715 -0.026190244 -0.024901789 -0.07123697 0.016740577 -0.073248826 -0.028972007 -0.072090484 -0.07040565 0.045745097 -0.033164714 -0.026220748 0.017140284 -0.054086946 0.014460116 0.047543842 -0.030554933 -0.021428619 -0.0037671141 0.003941861 0.032424726 0.009361678 0.092582054 -0.016587043 0.019714024 -0.031612594 -0.039075136 0.013742309 0.055658758 -0.01924047 -0.0054718833 0.078215376 -0.019073386 -0.02198998 0.0391554 -0.07924791 0.016211955 0.019898087 -0.0035831183 -0.0700928 0.05295091 0.035762385 -0.013793645 0.046642244 -0.016656786 -0.019910704 0.057670575 0.0169923 -0.09272663 -0.0099900365 -0.05486391 0.028375288 -0.0024565235 -0.0026317816 0.007618826 -0.034157824 -0.00792175 -0.010271958
district 4.9547944E-4 -0.004887579 0.023869252 -0.022869527 -0.055762876 -0.023080403 -0.05036156 -0.02548007 0.023231477 -0.023301607 0.026543165 0.009502646 0.060657263 -0.0035632765 -0.09778406 -0.021346767 -0.017510701 0.0062692426 0.027375901 -0.04871507 -0.039789934 0.024391135 0.01589052 0.04074013 0.034552127 -0.012690796 -0.051894244 0.008923884 0.016819643 0.011441667 0.019138714 -0.012844725 0.011322114 0.027384438 -0.015367251 -0.01042122 -0.04047646 -0.028206132 0.05554516 0.025955815 0.03354483 0.006099475 0.043499347 0.01391013 -0.026742946 0.022399416 0.027280822 0.013382552 0.012610408 0.012138191 0.019054282 -0.035895515 -0.008142471 -0.025392132 -0.050813444 -0.022170896 -0.008850066 9.1065466E-4 0.025122836 -0.033246107 -0.013889198 -0.025864031 -0.008581554 -0.05089528 -0.047730252 0.031871896 -0.019583052 0.06782178 -0.003302846 0.06612932 -0.04096452 0.04020358 0.043157842 -0.041842192 -0.04126297 -0.09619196 0.024405101 -0.04470171 0.0066242423 0.0363182 -0.014444439 -0.018586326 -0.020415306 0.02702327 0.024514938 0.0025485745 -0.028136637 0.031029902 -0.0012136938 -0.0097549185 -0.0013134181 -0.066470094 -0.05235658 -0.0032964968 -0.026153639 0.023429476 0.008553863 0.019140476 0.0011681796 0.0040492304 0.0069694375 0.0038074069 0.012615812 -0.0037345581 -0.022193622 -0.10419477 -0.037035976 -0.050284322 -0.005719821 -0.04389421 0.0042575323 0.02312642 7.7299995E-4 -0.008765053 0.031351194 -0.024917008 0.022470187 0.03343994 -0.018053459 -0.04359009 -0.032434233 -0.006106306 -0.018279094 0.03811314 -0.022728436 -0.0044434136 -0.0387693 -0.041248452 4.1639432E-4 -0.09292941 0.039090678 -0.052081227 0.027651608 0.029385988 -0.022628624 0.0063341754 0.03745157 -0.007878574 -0.021848321 0.008579301 -0.05365758 -0.031365387 0.035368405 0.015281117 -0.014466078 -0.050917294 -0.041125283 0.0049067363 -0.10116048 0.026534181 0.05517662 0.021920409 -0.030479418 0.038429633 -0.036687475 0.005111873 0.015006702 0.00940069 0.030094123 -4.23898E-4 -0.0737608 0.048994787 0.07687584 -0.068990424 -0.025407847 0.018727835 0.06471061 -0.009823423 0.06278133 0.014980853 -0.037292354 0.021122387 0.044420123 -0.029749548 0.028022682 -0.053716544 0.015375303 0.02542023 -0.026799697 -0.019381944 -0.09517288 -0.07892325 0.019361451 0.045325007 -0.025143653 -0.044473886 0.07004634 0.03131808 0.052733775 0.0245714 0.030657552 -0.046685312 -0.02986706 0.058275264 -0.044658437 0.016311748 0.018237453 0.015440706 -0.0050858557 -2.1548523E-4 0.0030189333 0.013158631 0.040229134 -0.06897657 0.021948865 -0.031050075 0.06156251 -0.05948192 0.013591075 -0.034250464 0.0033683137 0.042313673 -0.030779425 0.016548313 -0.03275112 0.009164616 0.0052012764 0.02896168 -0.03315731 -0.024341185 0.013835073 0.013523663 -0.055110134 -0.0031381734 -0.028941546 0.017142285 0.037938904 0.002757574 0.022147764 0.020945545 0.04027008 -0.017238453 -0.045698304 0.024394657 0.042976037 0.021705408 -0.058968898 -0.026906712 0.050979547 -0.02339295 0.018801901 0.016196007 0.07096859 -0.01954434 0.016554214 0.043410618 0.013856899 -0.030477613 0.028316705 0.030491231 -0.02071647 0.0235636 0.057350576 0.034781087 0.014666635 -0.07823011 -0.0017960831 -0.0038922285 0.024121918 0.014745638 0.018552076 -0.0063859434 -0.013779847 0.041136824 0.056074515 0.044357747 -0.002810229 0.053196136 -0.037583012 -0.020994116 -0.063284814 0.011196188 -0.024667809 -0.018686289 0.008158184 -0.0029581022 -0.016302586 -0.050126284 -0.05251864 -0.017819896 -0.057614744 0.022290224 0.045087084 0.014563036 0.0524823 0.009540513 -0.019208916 0.019096471 0.037010208 -0.008703598 -0.022241687 -0.01818394 -0.0035672374 -0.025693014 -0.0033763861 -0.059768263 -0.04534468 -0.049247187 0.023601 -0.021728935
doctoralAdvisor -0.01991654 0.004269961 0.054084897 0.02728245 0.008425938 0.07607 0.038499087 -0.03900185 0.04276761 -0.10454587 0.052437052 -0.015230017 -0.011302174 0.029543137 -0.08340698 0.06943692 -1.0458447E-4 0.0219027 0.016572665 -0.07515895 0.047386657 0.017909456 0.009078959 -0.019743383 0.021312173 -0.030305065 -0.0065273843 -0.002656303 -0.07684455 -0.017242275 0.03641605 -0.0056654233 -0.062970854 -0.017615525 -2.776246E-4 -0.0058769616 -0.0047254884 0.012470641 -0.0075818687 -0.033365086 0.009291454 -0.005618458 -0.006137882 0.0068598436 -0.057842735 -0.0082298 -0.030425042 -0.06186077 0.0018704258 -0.009057621 -0.031662878 0.02805316 -0.01772697 0.015550301 -0.039365485 0.005978596 -0.0076092673 -0.06540253 0.016082857 -0.05712586 -0.024555592 -0.030820053 -0.0081860805 0.023524698 0.010336772 -0.013887061 -0.03405338 0.030515393 0.017526066 0.002438673 -0.005753418 0.0119644385 0.05315762 0.014136472 -0.057679012 -0.08773523 -0.030519947 0.06536227 0.025565244 0.059907835 0.032762777 0.023749579 0.006851538 0.005927012 0.009311331 0.019950269 -0.037187688 -0.015014976 -0.012949289 0.043715484 -0.006041227 -0.06562566 -0.024507355 0.0024329738 0.05899416 -0.022736838 0.02866951 0.015817996 0.016471233 -0.046831433 0.019662281 -0.051119927 -0.035738103 0.01611735 0.024040235 -0.004818497 -0.034398288 0.008295721 0.0552128 -0.022637403 -0.025055641 -0.012696485 0.010507058 0.022011973 0.029298788 -0.059164032 -0.04256486 -0.0054116785 0.06942356 0.023188984 -0.019271795 0.066554196 -0.030495722 0.041538835 -0.044461865 0.0079161655 0.008042305 -0.04126229 0.014076742 0.10818687 0.005394638 -0.10728767 -0.02370334 0.012829434 0.02661637 0.0013737488 -0.010618281 0.07267908 0.018151496 0.053036865 -0.005065527 0.025594512 -0.08230454 -1.9924743E-4 0.04201675 0.074488096 0.014436677 0.026341416 0.040973283 0.029968845 0.0382699 -0.0018769355 -0.0063082124 0.020295803 0.017402101 -0.035426646 -0.016064623 0.0045552542 -0.014093776 -0.032578297 0.036627263 0.026434166 0.02446974 0.009016898 0.0734266 0.024402466 0.05317325 -0.06326049 0.034814224 -0.003294784 0.0077893496 0.047941215 0.04799863 0.015594343 0.06293765 -0.037257712 0.053821523 -0.030790642 -0.01942813 0.031511422 -0.0492175 -0.0129881445 0.0059919856 -0.010577375 -0.04768247 -0.032769114 -0.029123686 -0.011512541 -2.488143E-4 0.04258534 0.0022114837 -0.0021051776 0.013302193 0.027012752 0.016256891 0.021431437 0.020236189 -0.036970716 0.016062912 -8.0278504E-4 -0.03329764 0.057487786 0.0016088997 -0.023276735 -0.065603614 -0.06690021 -0.00636491 0.00384317 -0.028742861 -0.0527226 -0.015802626 -0.03573908 0.03024465 -0.04587992 -0.036867023 0.018016607 -0.017928585 -0.03955389 0.017333249 -0.032305695 -0.005057229 -0.036582332 -0.031419434 0.02026641 0.049178258 -0.028061792 0.021826115 -0.0015905245 0.0019498852 0.023548016 0.020314945 -0.031501584 -0.059691988 -0.03326693 0.03106048 -0.0059013893 0.041746523 -0.035160296 -0.046000578 -0.008164327 -0.010881792 -0.0408865 -0.017936964 0.01997299 -0.03136389 -0.028502261 -0.035800833 0.029386759 0.024664393 -0.02950801 -0.021753363 0.009068649 0.0072987173 0.043580588 0.03889002 0.014802707 -0.041697796 0.037346594 -0.0435421 -0.00509855 0.028152421 -0.0011603024 -0.023036635 -0.027449 -0.0025179079 0.04343945 0.0106413495 0.01742925 -0.036411323 -0.0029532912 0.054833543 -0.0124995895 0.008230396 0.029231202 0.0027339535 -0.0241941 -0.010893918 -0.010666261 -0.010632167 -0.0043067005 0.029680492 -0.037408315 0.017143592 0.044855434 0.06158392 0.036244325 -0.04253759 0.06080595 0.059961874 -0.018488402 0.0016897923 0.0049037505 -0.026307525 0.0024924278 0.021442957 0.0026303036 -0.03180772 -0.0016012525 0.01876676 0.027414953
doctoralStudent -0.005935667 0.0089201685 0.009387679 0.017397167 0.048567127 0.045861546 0.08373192 -0.031669952 0.027360188 -0.07138583 0.033261426 0.016697483 -0.005125503 0.027977472 -0.058750466 0.03686352 -0.057335176 0.06254178 -0.005243623 -0.023366485 0.049489427 9.2674233E-4 -0.03158568 0.004502964 -0.04396196 -0.041439872 -0.03922615 -0.011399564 -0.06543497 -0.018015068 0.009276295 -0.023156177 -0.01649426 -0.020912372 -0.018668186 -0.063731365 -0.018289328 0.029838853 -0.006888848 -0.008284953 -0.018543905 0.009047063 -0.021406554 0.036801443 -0.03260967 -0.028491858 0.021262012 -0.0062267557 -0.0036273338 0.01861484 -0.032172147 -0.009349475 0.012709645 -0.04064838 0.005450906 -0.03163474 -0.031064175 -0.063615605 -0.042084984 -0.049336452 -0.0071539017 -0.007508618 0.00819055 -0.021951532 0.017505262 0.017815948 -0.023388267 0.027111107 0.04595957 -0.019090522 -0.046977304 0.016475424 0.041811347 0.012251094 -0.005652833 -0.014675362 0.020182878 0.034599014 0.016350184 0.03550839 0.005649226 -0.038114235 -0.01853773 0.041235663 -0.046783775 0.07550314 -0.040994123 0.039452054 -0.012853622 0.045372956 -0.022141214 -0.042956382 -0.04738354 0.045287367 -0.014280193 0.025002312 0.054626185 0.015218162 0.0556071 -0.013029559 0.009217549 -0.059472207 -0.04366005 -0.0050743204 0.007617403 -0.02958434 -0.062890075 0.01606934 0.042261176 -0.040217794 -0.053008124 0.040887535 -0.015268986 0.0114250425 0.05170299 -0.029332926 0.01689373 -0.0411433 0.04254511 0.034299903 -0.0013748966 0.07420133 -0.04247845 -0.014241818 -0.025077134 0.014953244 -0.035907958 -0.031115519 -0.018803313 0.06978789 0.020531131 -0.084333844 -0.009723638 -0.040901218 0.013055103 -7.6401257E-4 0.044578895 0.02687481 -0.004047299 0.024068013 -0.02736644 -0.003464125 -0.048982687 0.01434262 -0.02473716 0.037010983 0.024269547 0.015740585 -0.02313574 -0.03763623 0.05727081 -0.03596008 -0.003410195 0.05297499 0.049894266 -0.05164453 0.0010067187 -0.026149563 -0.004670966 -0.03871746 -0.0067956196 0.052061696 0.03277023 0.021315977 0.011888294 0.040660776 0.103786886 -0.01618744 7.4133027E-4 -0.0059728306 0.016605515 -0.008642125 -0.014191933 0.047463536 0.03713529 0.02992962 0.036271144 -0.015373603 0.0010732068 0.023497261 -0.009086765 0.016414832 0.03621315 -0.027801128 -0.014184914 0.012566256 -0.032179363 -0.036039006 0.027509468 0.011509455 -0.010275055 -0.07174647 0.014545354 0.030188315 -0.049017303 -0.0034832421 0.07244824 -0.026642708 -0.009003649 -0.017030044 -0.009637749 0.0328902 0.041417696 -0.043032713 -0.05991488 -0.05441135 0.0077207005 -0.020403154 -0.028615657 -0.027822558 0.010302788 -0.0067965873 -0.014559201 -0.08462572 -0.019381952 0.016286746 0.026858434 -0.03990698 0.04238145 0.009173407 -0.03199828 -0.024564125 0.07563664 0.015012104 0.028245892 -0.03500305 0.016274773 -0.03820955 0.006672439 0.006302545 0.018627021 -0.009303845 0.031692255 -0.026689079 0.040998157 -0.032530714 0.025013093 -0.019713918 -0.025975414 0.01695918 -2.8778613E-4 -0.054880865 0.011518079 -0.008860604 -0.040415723 -0.010988218 -0.04720094 0.019211665 -0.042128664 -0.018449621 0.0069278483 -0.025012907 -0.016867507 -2.0685606E-4 0.030947315 -0.031253137 -0.027520668 -6.2813796E-4 -0.07641224 0.001334155 -0.0048507014 0.0219282 -0.052692734 -0.025479976 -0.01981415 0.008096679 -0.022978716 -0.009757305 -0.05584128 0.044960085 -0.0042445716 -0.019039478 0.0070161438 0.005352824 -0.0068972195 -0.04441776 -0.039624143 -0.060750447 -0.0045815804 -0.05091725 0.038092714 -0.0128109595 -0.02367999 0.028993037 0.0044359923 -0.0014847044 -2.8116396E-4 0.04321769 0.0905608 0.0035870206 -0.030251306 -0.040779356 -0.02338599 0.021352064 -0.004496385 0.012164517 -0.01721042 -0.0017361399 0.04397776 -0.02232795
employer 0.008288951 0.007174587 0.027555134 -0.030501593 -0.038637653 0.03375771 0.03198415 0.023590416 0.001784442 0.039138675 0.04294586 0.047608398 -0.04972385 -0.009994532 0.0023158665 0.056660526 -0.06582634 0.09374699 -0.004606329 -0.0391213 -0.100164555 -0.0013821598 0.062986046 -2.9952297E-4 -0.0038855285 0.023123514 -0.07452105 -0.023690421 -0.020895444 -0.03313538 0.024650902 -0.009106129 -0.038935166 -0.029817332 0.07208732 -0.0056558563 0.008803426 0.049038734 -0.038261846 -0.025974166 0.11828791 2.262046E-4 0.02653512 -0.025663637 -0.1023774 -0.0603241 -0.07109903 0.0128130745 -0.05244504 0.0946198 0.0170465 -0.006929481 0.032462724 -0.04680721 0.014745622 -0.11168784 0.032853354 -0.044939097 -0.03859282 -0.017520847 0.036766525 0.025817618 -0.117952846 -0.04955951 -0.0056853145 0.012448306 -0.046380192 -0.04427719 0.06047973 0.0066497503 -0.05342228 0.0027466193 0.08973366 0.0508651 -0.01700782 -0.0914267 -0.010936234 -0.009266928 -0.008401824 5.247699E-4 -0.036316827 -0.009448281 0.031247906 0.047232218 0.030499257 0.046115454 -0.014820739 0.022692462 0.0021077408 -0.08716343 0.026772043 -0.017430305 -0.08819153 -0.009190969 0.05373688 -0.04265804 0.009198653 0.047951143 0.02710741 -0.012297042 -0.012610294 -0.08905496 -0.012398422 0.051762328 0.04040438 -0.13398741 -0.0451667 -6.2249106E-4 0.013894054 -0.03521703 -0.008136406 0.01444556 -0.06342544 -0.005877762 0.06982901 0.0052443994 0.055164542 -0.029524341 0.028413236 -0.03392341 -0.010663874 0.031090623 -0.029518997 0.034833513 0.03948808 -0.06885177 -0.018247737 -0.06052155 -0.0120143015 -0.013411475 0.020673722 -0.06050455 0.010762866 0.0013915369 0.01957234 -0.0048968745 -0.08317153 0.031145489 0.023590704 -0.06564632 0.020607635 -0.043040883 -0.06735444 -0.019477654 0.017268812 0.00862571 -0.035963356 -0.010641061 0.015966963 -0.011238101 0.008041721 0.016928487 0.0053024786 0.046265107 -0.0026299004 0.014367941 -0.09099202 -0.040348835 0.006952363 -0.07094609 0.07083097 0.059260204 -0.07521847 -0.11911338 0.020513102 -0.072293505 -0.028068786 -0.072088666 -0.014673967 -0.033490792 -0.010015231 -0.0068355715 -0.032401163 -0.009757577 0.0183712 -0.027060509 0.061630987 0.023446945 -0.03087572 -8.450376E-4 -0.082328156 -0.08359855 4.7925487E-4 -0.062256142 -0.054427605 -0.014011162 0.020347781 -0.024292156 0.043758433 0.031171914 -0.013291652 0.047647916 -0.0058534853 -0.04153083 -0.08380338 0.011604926 0.03875984 -0.04625702 -0.045945615 -0.046691447 0.012500448 0.12977058 -0.005328558 0.065577015 -0.11380225 -0.032978106 -0.012564774 0.01772261 0.038487732 0.020430777 0.0959976 0.0046212985 0.021100063 0.0029530725 0.054572187 0.005661913 0.04699866 -0.017462257 -0.112798914 0.017080154 0.06787054 0.027041754 -0.031610005 0.02122626 0.07862137 -0.008382764 0.01095163 0.017474808 -0.05979567 -9.999785E-4 0.046794515 -0.033706352 0.03149151 0.02604279 0.04073771 0.006142465 -0.01106243 -0.073511705 -0.020011788 -0.033248305 -0.06995748 0.07347956 -0.007562815 -0.07732019 -0.029856116 0.0028533607 -0.030177772 0.014470978 -0.0065862625 -0.104582205 -0.036180224 -0.038492758 -0.008465765 0.071583994 -0.022904037 -0.019744335 0.006710091 0.08672033 -0.042531185 0.057838522 0.078272015 0.021411356 -0.028915918 0.09275907 -0.03229874 0.040006824 0.015098169 -3.9532315E-4 -0.09542303 9.266975E-4 0.041314676 -0.00919465 0.026798507 -0.03081983 0.09764917 -0.03696567 -0.038225845 -0.028416283 0.0028640989 0.021207862 -0.044036157 -0.0011981379 0.07187947 0.055312496 0.018090084 -0.01946154 -0.027563017 -0.06961748 0.059824448 -0.015676688 -0.04231803 0.0848542 -0.041449264 0.046420347 -0.040822722 -0.012125617 0.09105492 -0.01624173 0.0032060966 -0.0087174345
formerBandMember 0.048695117 0.011981143 0.015907817 -0.0010991237 -0.0010320034 0.020721167 -0.03492544 -0.03988843 0.01635589 -0.015839033 0.026522333 -0.02328763 -0.0037433624 0.03523707 -0.054249033 -0.0058911233 0.04079787 0.0054227803 0.011603509 -0.005791472 -0.024879958 0.052711513 -0.026034568 -1.1295081E-4 0.0074874223 -0.0032834231 -0.049096737 0.058356456 4.0456082E-4 0.0062459023 0.029935908 0.001902278 -0.03443795 0.04836614 0.010373898 -0.012465593 0.058140017 0.009073036 0.021391623 0.008120964 0.008822004 -0.04052484 0.04034451 -0.013668728 0.027905414 -0.025912745 -0.013187367 -0.004817634 0.024934962 0.0011031505 -0.01185255 -0.0089877015 0.004812108 0.013816403 -0.004589959 0.05148937 -0.01454015 -0.0184222 -0.0052857995 -0.0029782825 0.016669778 0.036347445 -0.007139796 -0.0011926881 -0.0032110384 -0.03784262 0.024747109 0.01262699 -0.011635494 0.05578873 0.022057764 -0.0045520538 0.0024043196 0.027727867 -0.07547211 0.043466225 -8.39824E-4 0.012508722 0.020101419 0.0032799772 0.001720383 -0.045030728 -4.06753E-4 -0.024414564 -0.008773311 -0.032303773 -0.023475079 0.028825982 -0.02107427 -0.0040186523 -0.028389527 -0.04187295 -0.01767534 0.008723704 -0.01244038 0.007829044 0.012035714 0.022336213 -0.041690122 -0.048292626 -0.014211965 0.0063641192 -0.005210223 -0.011212857 -0.03299086 -0.004282386 0.038235962 0.017600035 0.013490767 -0.015942702 -0.015557422 0.021514727 0.012993115 -0.015825411 0.011126344 0.032115452 0.009951082 -0.008409537 0.088668995 0.027109303 0.0013376806 -0.031256188 -0.04016396 -0.034966163 0.019041898 0.011931054 -0.034744035 -0.031164182 0.003935543 0.018881986 -0.003927083 -0.049748 0.005878089 0.03506897 -0.015136264 0.021070547 -0.013086862 0.014392795 -0.019995416 0.054252926 0.015179462 0.037802547 -0.027071623 0.010379436 0.023718938 0.008061103 -0.0061909626 0.023107624 -0.0038440442 0.024522483 0.05807264 0.015027789 0.014339175 0.06315509 6.4800336E-4 -0.021018043 -0.020412207 -0.012829187 0.03801457 -0.05254245 -0.008615273 0.024210747 0.04399524 0.028878018 0.018989598 -0.016161855 0.028130963 -0.029150216 -0.018342663 -8.333406E-4 -0.0049459725 -0.024432076 0.0132530155 -0.05107456 0.008048167 -0.033132885 0.0047872183 -0.028003851 0.05327516 0.019075222 0.005720062 -0.008302068 0.0022682142 0.019665558 0.018859878 -0.0025159079 0.00804255 -0.0045646615 0.045884818 0.026222805 -0.0019261615 0.006443482 -0.002471516 0.036427766 0.0151115535 0.019470671 0.0010250628 0.010503395 -0.0025432934 0.008283595 0.028072147 0.0150047075 0.0088217 -0.004730449 0.04309669 -0.026796622 0.010677129 0.022208117 -0.03208178 -0.023013348 -0.043155182 -0.0066256854 0.052897427 0.022211438 0.0019845662 -0.054818496 -0.021972798 -0.012880287 -0.057466406 -0.012281659 0.0073231296 0.011558907 0.03326577 0.010271941 0.054743297 -0.0049065575 -0.007758487 0.017241502 0.026329113 0.033682425 -0.015082997 -0.039490033 -0.029820982 -0.0033244197 0.023134578 0.005118233 0.012259129 -0.06351776 -0.037645508 0.01603747 0.026036615 -0.04911146 0.019082153 -0.047515944 -0.007495246 0.015546776 0.031935014 0.014529795 0.03671349 0.0026477908 0.011225331 0.01298534 -0.0041059256 0.03042181 -0.014968124 0.016048346 0.05610574 0.036140192 -0.026100522 -0.013509293 0.042381167 0.019219412 0.016765991 0.013012427 0.011016472 0.031008286 -0.080328874 0.0043817773 -0.0047215316 0.012201823 0.027807884 -0.04639493 0.02222815 0.024236763 0.016101636 -0.023588145 -0.019019634 0.0030578878 -0.01105596 -0.059880164 -0.017662147 0.0035237418 -0.030119272 0.014989817 0.01739152 -0.041734215 -0.038538694 0.008534497 0.034799166 0.031882297 0.007155082 -0.010623623 -0.03056781 -0.029701209 -0.027415816 -0.03407361 0.0037067356 -0.0053360015 0.0268748 0.02574916
formerTeam 0.015130803 0.054043874 0.039140563 -0.022511154 0.033654146 -0.0049377205 -0.027770888 -0.03110947 0.010975143 0.012058003 0.023127636 -0.013896225 3.3896448E-4 0.028071215 -0.07560902 0.019313423 0.04255886 0.010422651 0.043314897 0.009566279 -0.025635129 0.04605643 -0.03229346 -0.01838152 0.017334618 -0.018407263 -0.06774458 0.08823542 0.021287184 0.02377337 0.040177323 -0.01701811 -0.0059555117 0.036201216 0.02026236 0.007893393 0.038830232 -0.0074097244 0.03218913 0.016491424 0.048124515 -0.051821005 0.048595496 0.012912307 0.01530022 -0.03432872 -6.556646E-4 -0.0059991903 0.023622528 0.013812171 0.0064825225 0.014951906 -0.016952194 0.008947324 -0.022455793 0.037491716 0.013302955 -0.01942084 -0.00807419 0.009961675 -0.01249907 0.028284853 -0.010533227 -0.017253762 -0.010008414 -0.035270505 0.021364605 0.0049722046 0.011249499 0.05503407 0.015822394 0.013246123 0.0148290275 0.0092446 -0.036995247 0.030523187 -0.0042343214 0.028999796 0.03707788 0.0068933326 0.03424233 -0.025605902 0.0015020724 -0.01386001 0.007668664 -0.06018275 -0.013532808 0.021734621 0.004550285 0.012433877 -0.0064577647 -0.026561528 -0.014865257 -0.018899912 0.006777368 -0.0073595676 -8.269294E-4 0.016200284 -0.03905735 -0.032057833 -0.013188786 0.0040123058 -0.0056605893 0.00339536 -0.00671517 -0.0067477664 0.033160787 0.007689744 0.01719406 -0.0032378114 0.007721465 0.02251054 -0.011252314 -0.004131901 0.04133708 0.01428822 0.009041365 -0.01293645 0.07358246 0.018201951 -0.04949389 -0.021721652 -0.036557008 -0.00927007 0.0060907616 0.02278455 -0.0113736205 -0.024086084 -0.009171221 0.039073683 0.008298805 -0.06233924 -0.039907508 0.01405146 -0.021658536 -0.009942491 -0.0033991737 0.056635283 -0.054907676 0.0493294 -0.002445018 0.018494131 0.015273377 0.0019819122 0.04492908 0.0063309055 -0.0121675385 0.017617496 0.014603387 -0.0034425221 0.05558411 0.022407977 -0.016649388 0.042778146 0.004968996 -0.0076048337 -0.0056141536 -0.026470691 0.057269394 -0.027656034 0.03763414 0.028982414 0.06373191 -0.025247786 0.019284012 -0.03136555 0.013716349 -0.030919109 3.6710873E-4 0.00815798 -0.040388145 -0.01315809 0.005251332 -0.06945789 0.036431324 -0.015233401 0.024390295 -0.017736737 0.059606604 0.016053533 0.0054615415 -0.04003056 -0.021247623 0.04251218 0.0031901263 -0.014644837 0.022897726 0.0062282 0.03902533 0.028074954 0.0029789205 0.0142448805 0.001004128 0.033586476 0.005151322 0.007886329 0.014544485 0.008919801 -0.028120268 0.021746974 0.021653973 0.0053234706 -0.005868366 0.008708077 0.02548868 -0.028876988 0.014773208 0.02299792 -0.005668074 -0.039213203 -0.062846944 -0.022961034 0.023832005 0.044439472 -0.010258454 -0.03618729 -0.03252442 0.0034188493 -0.070923425 -0.0058549615 -0.014152135 0.0096437745 0.018181842 0.0083564175 0.04802721 -0.032456078 0.0141075505 0.031260192 0.03599757 0.021871394 0.014812596 -0.024748992 -0.008912585 -0.00266566 2.2865832E-5 0.010020449 0.010664383 -0.049444817 -0.019497689 6.975522E-4 0.009330552 -0.018892158 0.028916419 -0.031260967 -0.008891868 0.03147634 0.024648022 -0.020593805 0.0148876 0.004847334 0.009060465 -0.016398735 0.016318584 0.03013169 -0.02866531 0.022517882 0.043732665 0.025546845 -0.037783675 -0.022007544 0.059819262 0.014920814 0.0063406914 0.04551269 0.031655535 0.04839505 -0.05803777 0.0017510119 -0.002835673 0.034724846 0.033162765 -0.021598754 -0.008325014 -0.014374232 0.012284706 -0.023131985 -0.0063228696 -0.02174567 -0.020393757 -0.052949697 -0.015953822 -0.013993065 -0.0025442257 0.005401369 -0.016848743 -0.037565958 -0.046102315 0.013400963 0.024711777 0.013665989 -0.018258266 -0.0044069095 -0.033318542 -0.038161147 -0.037851997 -0.03832892 0.0026745102 -0.0209377 0.0028691876 0.024311662
foundationPlace -0.029275792 0.0090003265 0.009134883 0.028867938 -0.057974663 -0.04493974 0.036963746 -0.030586047 0.05320706 0.016665477 -0.022867687 -0.031065462 0.009755229 0.0056907283 -0.001445834 0.024721947 -0.017038755 0.023632167 -0.009659628 0.011718826 4.3107514E-4 -0.011210003 -0.00571313 0.016144192 0.0017984819 -0.038163643 -0.03520964 0.011008751 -0.017756423 -0.020486062 -0.005010111 -0.046204127 -0.014273566 -0.0018023817 0.0048720823 0.028747555 0.0025239468 -0.0038041899 0.020610387 -6.0401805E-4 0.01132032 -0.025631063 -0.0030545078 3.513608E-4 -0.010098267 -0.0701675 -0.0080963 0.0013788521 -0.02008525 0.024548627 0.029543763 -0.021539029 -0.0012363698 -0.03268064 -0.0051674442 0.017480234 -0.03173054 -0.0438375 0.0028855698 -0.043169692 0.0026047702 -0.0037709395 -0.029663675 -0.017766638 -0.030786887 0.0029706415 -0.042486846 0.023470838 -0.0054431753 0.02424785 0.012392499 0.0029548623 0.045813397 -0.0038770498 -0.024947507 -0.046038326 0.020761862 -0.015483504 0.0034525825 0.017947001 0.021965845 -0.044906307 0.052362077 -0.0068007577 0.0060253125 -0.01906339 -0.00535744 0.02568597 -0.02431707 0.020609347 -0.010606648 -0.056877382 -6.589113E-4 -0.040257026 0.02776343 -0.025165265 0.0053539756 0.0049205036 0.01758447 -0.025705425 -3.1008877E-4 -0.038460474 -0.0038615174 0.055174667 -0.0035300176 -0.06801414 -0.043755107 -0.024986882 -0.0062668095 -0.014188833 -0.013697071 0.02523427 -0.014452157 -0.021765875 0.033084847 0.012697344 -0.012368013 0.029659545 0.050129134 0.041640192 0.0074690273 -0.036969483 -0.011435553 0.050670344 -0.032838784 -0.0053260783 0.010180039 -0.024283223 0.0091239475 0.034270406 0.027763845 -0.050793465 -0.007858397 0.015243785 0.013452723 -0.015695954 0.0048663104 -2.0426555E-4 -0.0018477069 0.023719031 -0.02529722 0.006785557 0.019512633 0.045972873 -0.011815586 0.010967259 -0.049335036 -0.014152231 -0.016926749 0.03855977 0.029489778 0.002084774 -0.03179808 0.030855244 0.023274982 -0.014323673 -0.035621814 0.005986601 -0.029954994 0.0067898626 0.02374473 -5.5485265E-4 -0.019505994 -0.028610822 -0.011428684 0.018264182 0.02594762 -0.025478387 -0.0075363712 -0.011424449 -0.025042737 -0.013638915 0.015241307 -0.035429504 0.025586523 -0.019112514 0.023208497 -0.030429805 -0.013983049 0.025718221 -0.014370628 -0.022496814 0.009561573 0.0029135854 -0.03473223 -0.011939345 0.017276963 0.019618131 0.056768335 0.03465254 -0.01920933 -0.03410212 0.016620541 -0.011426048 -0.07585489 0.0044551706 2.2157755E-4 0.006835236 0.008201769 -0.05762839 0.0024820522 0.049212605 -0.010507219 -0.03602372 -0.0039412966 0.009745303 0.020762172 -0.0045660795 0.026056133 -0.046192385 6.053219E-4 0.026278151 -0.04922762 0.026592908 -0.028336206 -0.027146611 0.030611347 0.01227808 0.0018157476 0.017834088 0.012254484 -0.009953884 -0.023084827 0.029806161 0.020270921 0.0029422764 0.015170272 0.020232141 0.011402026 0.030352317 -0.0052025686 -0.02772435 0.0086221285 0.0068742055 0.031641815 -0.003957567 0.011957988 -0.022291599 0.037589233 0.022831406 -0.018587533 0.0011111945 -0.015165287 -0.0073671495 0.01436275 -0.01438819 -0.016984254 0.029924992 -0.013733936 -0.017916042 0.011886649 0.00366176 -0.011602922 0.015563087 -0.02100074 -0.0058687725 -0.01923944 0.0029423148 -0.038499236 -0.04469889 0.02831995 -0.014355151 0.0012742017 0.02193389 0.032631163 0.053451605 0.027921943 -0.046753936 -0.043602645 -0.02936207 0.0071790833 0.0052994313 0.010111226 0.023382941 -0.0014837511 0.0025996969 -0.036487848 -0.039355356 5.3200015E-4 -0.007750398 -0.008859712 0.009585937 0.017693229 0.05850744 -0.014736005 -0.010123261 -0.02190033 -0.019852806 0.0027776798 9.968485E-4 -0.04493308 0.018209025 -0.033584177 0.02171391 -0.014335983 -0.0037534167 0.021593748 0.013488331 0.020428369 -0.015407097
headquarter 0.008334362 0.014970982 0.079022095 0.005479071 0.030250646 -0.07408322 -0.07686134 -0.08396097 0.023922704 0.05247561 -0.05154957 0.007871342 -0.072539814 -0.005517656 -0.073465854 -0.031639706 -0.04691937 -9.260402E-4 -0.08334362 0.061427332 0.005363316 -0.030250646 0.045067288 0.026855165 -0.045684647 -0.05741449 0.074391894 0.013273243 0.012192862 -0.12717618 0.05895789 -0.073465854 -0.05648845 0.07099641 -0.028398566 -0.082726255 0.04444993 -0.011035312 0.034263488 -0.082726255 -9.10365E-5 -0.010340782 -0.039511047 0.06204469 -0.0075240764 -0.05741449 -0.065748855 -0.011961352 -0.035498206 0.07840473 0.043832567 -0.033800468 0.15742683 -0.013041733 -0.13273242 -0.10495122 -0.09383874 -0.040128406 0.031022346 -0.10556858 -0.023768364 -0.06698357 -0.017749103 -0.13705395 -0.012424372 -0.08889986 -0.0039549633 0.13273242 0.020527223 0.009954932 -0.017286083 -0.006135016 0.012655882 -0.0068681315 -0.04877145 0.028398566 0.020990243 -0.06821829 0.029170265 -0.10495122 0.10742066 -0.018983824 -0.06790961 -0.003221848 -0.05926657 -0.093221374 0.08581305 -0.04722805 0.015511173 0.004591616 0.042289168 -0.04722805 -0.014044942 -0.031639706 0.0038970858 0.042289168 0.040128406 -0.030559326 0.035035186 0.06204469 -0.056797132 -0.034263488 0.05093221 0.16668724 0.069453016 -0.027472526 -0.05432769 -0.029324606 0.0022282843 -0.035035186 -0.04074577 -0.10742066 -0.0851957 -0.1006297 0.037813306 0.05185825 0.091986656 0.008064266 0.019215334 -0.039511047 0.021144584 -0.11112482 -0.1703914 0.078096054 0.021761945 0.09075194 -0.06544017 -0.005054636 0.10618594 -0.012578713 -0.031639706 -0.011343992 0.09075194 -0.05587109 -0.04722805 -0.078096054 0.024077045 -0.039511047 -0.06266205 -0.033954807 -0.0095690815 -0.013581922 -0.007485491 -0.016514383 -0.015665513 0.04630201 -0.030096306 0.04167181 -0.013041733 -0.017131744 0.029633285 0.122854665 0.008488702 0.005479071 -8.6816266E-4 -0.08025681 0.032874428 0.023151005 -0.038739346 -0.043215208 0.011189652 -8.778089E-4 -0.07500926 -0.043215208 -0.021916283 -0.0010562646 0.035498206 -0.023459684 0.012578713 0.041980486 0.033337448 -0.019138163 0.10124706 -0.04167181 0.04815409 -0.113594264 0.06513149 -0.026392145 0.022224965 -0.1518706 -0.04784541 0.005517656 -0.06914433 -0.021453263 -0.004128596 0.058649212 0.028089885 0.05340165 0.061427332 0.025620446 -0.05062353 0.04167181 -0.10124706 0.082726255 -0.024848744 0.014585133 -0.027318185 0.072539814 0.10433386 -0.076243974 0.0027395354 0.124706745 0.021298924 -0.029941965 0.07007037 -0.05154957 0.09939498 0.015356833 0.124706745 -0.030404985 0.04537597 -0.04908013 -0.10865538 0.0018134953 0.029324606 0.04877145 -0.05185825 -0.019909864 -0.05401901 0.042289168 0.04630201 -0.0026623656 -0.05000617 0.0036269906 -0.05432769 -0.018520804 -0.17533027 0.028244225 0.023922704 0.018443633 -0.016900234 -0.05710581 -0.07562661 0.014816643 0.047536727 -0.06790961 -0.07192245 -0.014970982 -0.013350412 0.04691937 0.022379303 -0.034417827 -0.003106093 0.05000617 -0.023305343 -0.0074083214 -0.09136929 0.028707245 -0.008797382 -0.007948511 0.005208976 0.064822815 0.05525373 -0.076243974 -0.005980676 -0.063896775 -0.08210889 0.063896775 -0.023614025 0.009376157 0.0023536854 -0.06513149 0.045993328 0.011112482 0.12038522 0.069453016 0.05463637 -0.032102726 -0.016900234 0.06636621 -0.0011286115 0.004977466 -0.015974194 -0.11791578 -0.010417952 -0.06698357 -0.022533644 0.07161377 -0.033646125 0.010880972 -0.032257065 0.044758607 -0.065748855 0.041363128 -0.04444993 0.07686134 -0.029170265 -0.04877145 -0.009877762 -0.06513149 -0.115446344 0.023151005 -0.016823063 0.04444993 -0.036887266 -0.021144584 0.012501542 0.079022095 -0.028398566 0.008488702
hometown 0.017874181 0.033626676 0.0057326 -0.02694384 0.011565952 0.016206108 0.04489891 -0.04592585 0.042239543 0.035154298 0.05193902 -0.04357898 -0.03460605 0.057320468 -0.013036967 0.01001104 0.0053916876 0.045170598 -0.00766562 0.027793625 -0.0038246391 -0.039201267 -2.5231726E-4 -0.030653678 -0.012765036 -0.053469736 -0.02112568 0.041429397 -0.011911972 -0.03196765 0.029060554 -0.0139015475 -0.027813677 0.04562286 -0.048316214 -0.03422337 0.024220001 -0.048203353 0.03682926 0.0026390604 0.0010035065 0.031128343 0.05252679 0.02703423 -0.006002775 -0.004761214 0.0014560779 0.023759967 -0.030479016 0.01662145 0.0024810364 0.012157081 0.05473961 -0.007973579 -0.04428608 -0.070122026 -0.046654794 0.018134605 4.7802128E-4 -0.049171474 0.035598863 -0.0072597945 -0.009602574 -0.02574725 -0.026913568 0.003353382 -0.04404904 0.035676856 -0.026344003 0.017781816 0.05021094 0.008311013 0.029393785 -0.018992031 -0.041696735 -0.027062394 -0.019098468 -0.019046152 0.006510184 -0.009154639 0.0065928656 0.0028105194 -0.019337872 0.005547954 0.028232682 0.0033725512 -0.019810066 0.028258005 0.05491415 0.012567248 0.0024002695 -0.01856785 -0.03874308 -0.053609267 -0.002184638 0.04190975 0.041393638 -0.026778089 -0.007406573 -0.0700815 -0.018250993 0.011600799 0.08593678 0.05590569 0.004796736 -0.06131353 0.017454255 0.014865649 0.008113874 -0.027551357 -0.017885648 0.0065781167 0.040063452 -0.035073675 0.020761501 -0.0095100645 0.011331594 0.001555005 -0.015370444 0.0090166535 -0.032366622 -0.008266205 -0.043756142 0.024806222 -0.02381171 0.022171455 -0.025421215 -0.050249435 -0.040784203 -0.030705027 -0.01799398 -0.03243387 0.0074250447 0.02205142 -0.03094722 -0.015608673 -0.033664167 0.0056133294 0.040025987 0.024377713 -0.052217163 0.008252717 0.020736044 -0.018519243 0.023009913 0.016424334 -0.0439154 0.049944803 -0.041258413 0.02817517 0.033883475 -0.010169076 0.029439982 0.0071365447 -0.054477643 -0.052045655 0.042963587 0.008986313 0.04965992 -0.03750223 -0.025166754 0.04989789 0.05316252 -0.02542014 0.037431683 -0.018577365 0.03722461 -0.008886573 -0.013008595 0.021196876 -0.02781062 -0.031296372 0.014636543 -0.013120735 -0.0035616304 0.032924987 0.039863624 -0.013807365 -0.009458288 0.0058020065 -0.07735316 -0.034171816 0.04540557 -0.014349835 0.021882746 -0.03932208 -0.0014398621 0.038365122 0.0685204 0.024952712 0.011828753 -0.020094594 0.0058551934 0.0742756 -0.027061269 0.0450137 -0.01834597 0.054371122 0.0034901756 0.015230847 -7.4314117E-4 0.021760037 -0.01624617 -0.068759754 0.029305596 -0.0068678935 0.024213277 0.026765056 0.055368166 -0.05987819 -0.025721272 0.0161834 -0.026847448 -0.020490427 -0.04023698 0.07486615 -0.03674769 0.024597337 -0.081978224 -0.01134474 0.00965164 0.035860077 -0.021799961 -0.02870207 7.7084027E-4 -0.00877881 0.008093577 0.06315511 -0.02528199 0.0289092 -0.0048154816 -0.025414413 -0.032600757 -0.011867115 0.04585695 0.006107751 -0.011228834 -0.06944998 -0.042531688 -7.7355414E-4 0.032978088 -0.057065472 0.01359841 -0.035152093 -0.0022599667 0.045457058 0.025018614 0.026776629 0.012831081 -0.00904337 8.750005E-4 0.036871042 0.06833228 0.056099065 -0.04245109 -0.006801257 -0.021133143 0.04968471 -0.026472574 0.0068151182 -0.007523601 -0.03868648 0.008157551 0.025681438 0.06323767 0.060279295 0.012429553 -0.03347065 -0.06431087 -0.0213399 0.024500858 0.008915872 0.04744274 -0.012416725 0.0082859 -0.026444208 -0.020348303 -0.017546244 -0.0014729995 -0.04596644 0.024189573 -0.051516835 0.0147548895 0.020909144 0.00913532 -0.0053055445 -0.034495108 -0.013542206 -0.07488203 0.039194427 -0.062562026 0.029769674 -0.076343834 0.0058062305 0.01785914 -0.018872794 -0.017551925 -0.042730924 0.03227986 -0.020581732
leaderName -0.043922246 0.04139682 0.02468813 -0.06938154 -0.047990903 -0.11377989 0.04665769 -0.065754905 0.038057733 0.032429762 -5.1409006E-4 0.016136587 -0.02335245 0.02407821 -0.026710209 0.023671359 0.026505008 0.06359025 0.0013162646 -0.009992406 0.03060228 -0.0071756486 0.06042417 0.010838015 0.041295685 0.02009865 -0.05925271 -0.022876024 -0.037234336 -0.0061408607 -0.019571692 0.060265273 -0.02994971 0.028089989 -0.011835593 0.003606268 -0.013061868 -0.040547684 0.023930049 0.07233789 0.026306406 -0.033322725 0.060476672 0.017475992 -0.00394245 -0.028882518 -0.0069047785 0.006681389 -0.028158199 0.03132763 -0.01969209 0.042191252 0.032587897 -0.08879711 -0.0454965 -0.004105778 -0.024891082 -0.05525282 0.012705117 -0.06654303 0.029519334 -0.003936018 -0.019487621 -0.016713865 -0.06677136 -0.013191398 -0.040262595 0.09154771 -0.008705542 -0.0026775699 0.04738873 0.0010064816 0.071948186 -0.025784744 -0.06078426 -0.12392287 -0.0035385522 -0.048214685 0.05055917 0.045371167 -0.00611473 -0.029717471 0.018123431 -0.056396183 -0.045303084 0.004154665 0.029103806 -0.012863408 -0.06995197 0.018234633 0.015784584 -0.016969798 0.025512204 -0.08119673 0.058377467 -0.0678184 -0.016609851 -0.09127858 0.005982315 -0.028729167 0.017567951 0.0024604108 -2.6055303E-4 0.025130844 -0.043444984 -0.12867817 -0.014797777 -0.06911364 -0.013956688 0.010862659 0.01580825 -0.0036215 -0.009567899 -0.026872102 0.019877499 -0.03197157 -0.011851918 0.04225427 0.041522764 0.028735287 -0.041888297 -0.049190458 -0.0040664086 0.040201895 -0.009045816 -0.027544862 -0.010259431 -0.07796746 -0.033993118 0.06468475 -0.0051735453 -0.07382397 0.017568145 0.023871815 0.0067484896 -0.02394819 0.029210655 0.0055701016 0.032208815 -0.04192473 -0.05525007 0.015978143 0.0074127554 -0.010633102 -0.017612103 0.033784177 -0.06648608 -0.0020048867 0.0059609613 0.024674367 0.058246434 0.008148322 -0.015355497 0.018299226 0.004993516 -0.025842723 -0.017117307 -0.043474253 -0.02753017 0.0048692776 -0.062002733 0.028639277 -0.016014582 -0.0587185 -0.016124008 0.07541027 -0.022359533 0.015748423 -0.037252422 -7.2845677E-4 -0.03700631 -0.050325245 -0.009478642 -0.043117385 0.025368398 -0.017511614 0.0028541933 -0.029497825 -0.032431606 0.06963876 -0.04818508 -0.022765249 0.054266296 -0.040631536 -0.072538264 -0.02946969 0.03376352 0.030427568 0.042040862 0.014880865 0.03533145 0.027304908 0.014831899 0.019956036 -0.107572794 -0.03369864 -0.022722784 -0.0017629329 -0.0059107314 -0.09746808 -0.04048714 0.065523595 0.03220454 -0.030763984 0.007576026 -0.029076783 0.013781831 -0.07099296 0.009452096 -0.0691288 -0.017597057 0.01253419 -0.002011391 0.038638964 -0.057277113 -0.044379305 0.037378103 0.017523155 -0.013377081 -0.0030524167 0.0151713975 -0.002173815 0.03370274 -0.030913595 0.02535007 -0.034047052 0.04701884 -0.009021352 0.07388733 0.062417656 0.05034621 -0.0061516073 -0.0204259 0.035219837 0.068182096 -0.0024429595 0.003215318 0.012221143 0.094490826 0.026601702 -0.039006345 -0.049052667 0.03906414 -0.0062856684 0.012491418 -0.06350209 -0.006759012 2.8799972E-4 0.003666793 -0.039959148 -0.031608365 -5.3830945E-4 -0.048993446 0.025611004 -0.040068507 -0.022928212 4.8536435E-4 0.018792346 -0.017281573 -0.06841771 -0.018421791 -0.009750318 0.04212112 0.027562832 0.060717307 0.013244405 0.027352806 -0.0013885405 -0.06245324 -0.042792317 0.025105631 0.018131416 -0.004579799 0.0072766505 -0.014186941 -0.026251778 -0.050197452 -0.07144936 0.008676126 0.019357938 0.054819193 -0.042620085 -5.863011E-4 0.041900925 -0.02115655 -0.0018677562 -0.022554707 0.011569919 9.0998167E-4 0.0019593462 -0.03402412 0.023288961 -0.025317613 -0.06700613 -0.05689068 -0.032939047 -1.1196609E-4 0.016668353 -0.018013243 -0.032134824
locatedInArea -0.033210773 0.0032254057 0.026355343 -0.017964013 -0.040682487 -0.0356337 -0.00535564 -0.07105444 0.026086727 -0.0074587334 -8.583835E-4 -0.011824641 0.021548444 -0.038222935 -0.03294203 -0.006255973 -0.01908005 0.03849792 0.049061764 0.010911916 0.0066704387 -0.01901042 -0.018950839 -0.0055742017 -0.023015395 -0.043763623 -0.0826688 0.010531402 -0.037209526 -0.04683716 -0.013211709 -0.013120645 -0.008278082 0.028975904 -0.0246127 -0.034748882 -0.021314157 -0.037268672 0.059949048 0.016411107 1.7042892E-5 0.050069995 -9.343856E-6 0.041119773 -0.01390383 -0.0303733 -0.011482957 -0.018646235 -0.015799865 0.015638324 0.0072761686 -0.016026601 -0.01558759 -0.06911252 -0.0010555132 0.0015613445 4.6378913E-4 -0.0010747835 0.01956493 -0.03502701 -0.032937378 -0.053727128 0.0138948755 -0.05853864 -0.055955667 0.003490497 -0.039995223 0.026754502 4.26429E-4 0.014639501 -0.0068748733 0.020008875 0.055772524 -0.024997115 -0.022868574 -0.07863028 0.02648541 -0.02633696 0.026310688 0.0130899 0.011911793 0.0013604497 0.02912326 -0.0063836738 -0.0031301987 -0.01688526 0.019412274 0.006048948 0.0044407262 0.040792815 0.016664848 -0.06466558 -0.018608356 -0.045661513 0.0046966365 0.011564525 -0.0074198865 -0.008997096 0.031238083 -0.018284112 -0.011107759 0.017593093 0.020784995 -0.0021805987 -0.0069274204 -0.047443032 -0.024790859 0.0038597037 0.008272965 -0.052854154 -0.017744325 0.010797209 0.005175794 -0.031210909 0.04635759 -0.0013103826 0.037818883 0.010118198 0.021336457 -0.014791344 -0.043969456 -0.038291037 -0.056183916 0.047122926 -0.053562302 -0.019451039 -0.055167988 -0.026383739 0.023660077 -0.004783491 0.013694559 -0.032076705 0.015592905 0.02918661 3.7346035E-5 -0.019745665 0.026614938 -0.021115173 -0.008572141 0.009207037 -0.0037961118 -0.006766297 0.008528468 0.014509557 -0.008830053 0.023894511 -0.014175228 0.004177415 -0.06508484 -0.0014503358 0.047782283 0.04571244 0.003772972 0.010167718 -0.022679891 -0.0057950937 -0.008153211 -4.882862E-5 0.00745654 1.822084E-4 -0.025173528 0.035480723 -9.747664E-4 -0.07257032 0.020561833 0.044179358 0.007250794 -0.052965134 -0.007908947 0.018018527 -0.07066958 -0.003913232 0.023181746 -0.06842042 0.020551378 -0.03922666 0.030119814 -0.03302456 -0.020779125 -0.024446955 -0.052446418 -0.01949948 -0.005360926 -0.029329492 -0.028094752 -0.03863128 0.025511974 0.037901763 0.034399703 0.045971468 0.011586217 -0.005728643 0.0087090405 0.018300636 -0.063655 0.021978088 -0.02239939 0.030697273 0.0074110785 -0.028351128 -0.008163486 0.019032912 -0.026490143 -0.06057475 -0.013664088 -0.037331417 0.051572397 0.0014701649 0.015073983 0.01572867 0.0031412654 -0.01615956 -0.061448377 0.045656912 -0.044201095 0.023262927 -0.011187691 0.012343013 0.009657665 0.039145775 -0.0030371812 -2.8537953E-4 -0.025004994 -0.02785173 -0.014942012 0.0146842 0.01255131 0.015578508 0.0013341678 -0.03209499 0.04660292 -0.05379828 -0.0011171065 -0.0036029965 0.035993904 0.029933175 0.007122939 -0.006247336 0.04459795 -0.024956686 4.7340782E-4 0.001464744 0.013428607 -0.04318334 0.022534374 -0.0020727855 -0.0086632855 0.033985052 -0.012749658 -0.0031641696 -0.017216036 -0.0058358046 0.04112561 -0.00554753 0.03254051 -0.043576706 0.010216743 0.02129823 -0.051348224 -0.021705879 -0.03349457 -0.04541715 0.027625538 0.052464686 0.10383211 0.04627322 3.1950945E-4 -0.008703679 -0.06070433 -0.037752144 -0.04261096 -0.029933346 0.0077814907 -0.034061126 1.544791E-4 0.0018798192 -0.027565781 -0.03916671 -0.054164127 0.009017004 -0.028369924 -0.02321349 0.05942153 0.049989708 0.023583094 -0.008175506 -0.02431843 -0.019407207 -0.014998065 -0.011237886 -0.061004255 0.007376714 -0.0694655 0.005680747 0.023847472 -0.02808212 -0.0043470333 8.550235E-4 0.002523187 -0.0012282237
nationality -0.016778527 0.002183739 0.09136456 0.030382788 -0.044446036 -0.024711056 0.034611624 -0.05017541 0.02882929 -7.731654E-5 0.034913182 -0.05235976 0.07516901 -0.024985075 -0.019965284 0.093274996 -0.045426928 0.12428424 -0.057243004 -0.08261183 -0.030776711 -0.032853715 0.002329206 -0.025102127 0.008861984 -0.035178814 -0.08067285 -0.016394455 0.055942185 0.007994791 0.039946333 -0.0439875 0.027870767 0.026967706 0.01151121 0.026153019 0.020240081 -0.08074034 0.0011082478 0.05304071 -0.020876514 -0.014345533 0.04691416 0.060093652 0.07178863 0.009760365 -0.020247007 0.09243569 -0.028449645 -0.016317401 0.017925952 0.0050366493 0.054067645 -0.004825877 -0.0020923056 -0.0026656846 -0.062128432 0.04814633 -0.082414374 -0.028257843 0.08798076 -0.008241385 0.03360427 -0.031643827 0.008959207 -0.003111546 -0.0047464054 -0.0030121484 -0.0012928927 -0.021645792 -0.06356591 0.04458706 -0.0045528165 0.019411698 -0.043430325 -0.057274964 0.019977534 0.053142644 0.027371679 0.049271625 -0.023475444 -0.04573994 0.014165175 0.06237657 -5.656122E-4 -0.04903391 -0.071128055 -0.01759059 -0.009351642 0.028886072 0.03795305 -0.040920112 -0.08260251 -0.06488989 0.023681473 -0.038166005 0.030988498 -0.066561446 0.06002907 -0.017371409 -0.029288188 0.1065982 0.008829005 0.029538058 -0.07127272 -0.05769947 0.0062809773 -0.058276415 0.055136874 -0.010862166 0.013987641 -0.043123078 -0.012258636 0.01790001 0.0076717064 0.0018389705 0.0013254713 -0.07385894 0.06079463 0.061876964 -0.07650486 0.027673189 -0.064561024 0.054417126 0.0064383447 -0.0049507557 -0.061049454 -0.046807494 -0.11557081 -0.037071887 0.03503193 -0.012833226 -0.06296578 -5.430975E-4 5.029186E-4 -0.06778022 -0.017628673 0.0015057698 0.05220803 0.042563707 -0.024831511 -0.025968228 0.0062170858 0.05008258 0.024118667 0.051372796 0.029275445 0.021193651 -0.04620485 0.0024302735 0.03374777 0.05159173 0.016099734 -0.035694316 0.048024163 -0.077151075 -0.03349416 -0.06893798 0.095421605 -0.05749062 -0.03186632 -0.01760035 0.11601377 -0.086435884 -0.022807222 -0.03596741 -0.048432898 -0.048692517 0.070509635 0.04223346 -0.029976638 0.0407356 0.02836978 -0.098000675 0.03186632 -0.044715483 0.066853106 -0.09180635 -0.012532607 -0.075929105 -0.050741386 -0.10855843 -0.07469039 -0.07045147 0.042370193 7.8419223E-4 0.007935932 -0.009841194 0.03737293 0.10559595 0.046038445 -0.023010593 -0.021140393 0.031949107 0.011120399 0.047991473 -0.019125376 0.08557969 -0.06816813 -0.03834394 -0.038736977 0.04106915 -0.002221899 0.011488358 -0.04130686 -0.011429345 0.003040675 0.011013114 -0.0027846806 -0.003337194 0.030172922 0.002979693 -0.029205188 0.048443444 -0.023073867 0.032409817 -0.051553793 0.060518913 -0.047416084 0.017798008 -0.04749619 -0.048003845 0.0153983645 -0.046148386 -0.021983856 -0.01721789 0.09129788 0.042412855 0.02828928 -0.018180829 -0.008263556 -0.025756003 -0.017918147 0.06241471 0.06670473 -0.01635312 0.022738125 -0.04583212 0.023161972 -0.04038684 -0.01757541 -0.051685866 -0.061273474 0.071465224 0.10171991 0.031232074 0.029368274 -0.045127388 -0.030653557 -0.037996955 0.055595547 -0.03567189 0.036872484 0.039627805 0.036758233 -0.05995226 0.015158209 0.066868976 0.051274948 -0.030096518 0.031661704 0.018139627 0.04921708 0.051424198 0.074165165 0.014877911 -0.033890817 0.012591652 -0.039821904 -0.04796763 0.023679318 -0.053812463 0.03197538 0.036062792 0.026704457 -0.004124714 -0.026543764 -0.047584273 -0.02349647 0.014832195 -0.030359272 -0.03482872 -0.011567723 0.038217846 0.023533236 -0.014930764 -0.0028021522 0.04945681 -0.012261631 0.012706013 -0.045123022 0.06023446 -0.05630398 -0.067318484 0.020681642 -0.009645631 -0.032081857 0.007815511 0.03776987 -0.017233334
parent -0.008663369 -0.07222357 0.0046659764 -0.014349699 0.018502941 0.01920961 0.024909738 -0.036426064 0.059233814 0.012812955 0.10851988 -0.07939993 -0.0168311 -0.043079786 -0.06931198 0.03683945 -0.04413409 0.03894989 -0.028330414 0.034581453 0.012626408 0.038396765 0.07543388 0.004400653 0.034993976 -0.06123012 -0.03319283 0.033965327 0.03139256 -0.05419722 0.07418652 -0.045609783 -0.08792319 0.0470018 -0.0065494636 0.07395105 0.10446932 0.0026412576 0.011009946 0.0068076453 0.0465112 -0.030915683 0.044406414 -0.062207878 0.062933505 -0.0015435182 -0.024052475 0.04851928 0.013276632 -0.032459263 -0.00996606 0.017391324 0.018695768 -0.003897082 0.05306357 -0.023861399 -0.11163232 0.034319427 -0.02764067 0.005350956 0.08581652 0.040511932 0.022598099 0.0025473468 0.021491265 0.008302698 0.0019094063 0.036484316 0.017413503 0.0041187834 0.059253626 -0.0011898478 -0.0695704 0.048038483 -0.03830256 0.12975764 0.038903248 -0.032972198 0.07851536 0.039959118 0.09832598 0.0031662672 -0.05255317 -0.008264471 -0.024667328 0.03171309 -9.0099906E-4 0.05770357 -0.025525782 -0.022396479 -0.03637746 -0.05493387 -0.060387515 -0.047471073 -0.0045368383 -0.02197942 0.05648799 0.005570039 0.022712892 0.012564067 -0.03159195 -0.06708858 0.044856217 -0.058727782 -0.03203259 -0.06745823 0.034059584 0.031289205 0.030425202 0.045119807 0.0044928566 -0.0038532864 0.015694212 -0.07549538 0.0040701022 -0.015864585 -0.040575735 -6.5159926E-4 0.04073418 0.013996504 0.0033051416 -0.0026674694 -0.018681955 0.021269288 -0.05236657 0.010799157 -0.020356571 0.0025470313 0.035338763 0.020455975 -0.031503897 -0.037621565 -0.041083273 -0.0019355351 0.015674587 0.0044320123 0.043907415 -0.0067907325 0.030876135 0.018753782 0.08336601 -0.029235428 -0.01749487 -8.512171E-4 0.0036902025 0.06912213 -0.06925177 0.05801947 -0.007734833 -0.024198115 0.13102129 0.032530602 -0.0077092983 0.04566267 -0.04282556 0.043843012 -0.016181171 -0.06030306 0.038129833 -0.0020679554 -0.017529488 0.02998275 0.08349182 0.102530114 0.0057763862 -0.029220864 0.049874168 0.0049187783 0.07006873 0.08347575 0.050900992 -0.036763873 0.033468556 -0.1014325 -0.0019307149 0.014359212 0.12528454 0.07880947 -0.0011626458 0.038872298 -0.0036561936 -0.028731912 0.026693806 0.009988548 0.028968941 0.04096359 0.011393135 0.045566585 -0.019825464 0.035850376 -0.058242895 0.01412338 -0.041707568 0.030769337 0.03921844 0.070537105 -0.031891983 -0.044645213 -0.003056581 0.010478104 -0.08315864 -0.016880793 -0.016253255 -0.046217307 0.05617866 -0.03254348 -0.003964916 -0.028210688 0.034781016 -0.102530584 0.010697598 -0.021924097 -6.049959E-4 -0.03245237 0.028862296 0.02317071 0.019255137 0.04536676 -0.04963594 -0.041916363 0.029713482 0.026347978 0.11176538 -0.024204478 -0.0061642374 -0.0921528 0.044840217 -0.050399736 -0.019237258 -0.036231153 -0.004568064 0.012939777 -0.051613033 -5.280326E-4 0.03147168 -0.014290161 -0.03278695 -0.08647009 -0.022138415 0.015836252 -0.04588709 -0.113626264 -0.06275423 -0.022511922 0.011287553 0.14267379 -0.033475753 0.015661985 0.02301177 -0.06370233 0.053276192 -0.013178682 0.061305624 -0.056473415 0.042456605 -0.03765271 -0.011936409 0.023109501 -0.079711586 0.048179068 0.057053015 -0.016201422 -0.0034331228 -0.04261681 0.016834162 0.08778222 -0.033148836 0.0099105 -0.06738057 0.051205844 0.008648353 0.00910509 0.027922533 0.05047632 0.009802621 -0.04505577 -0.02841368 0.022221401 0.020416126 -0.068458095 0.025694137 -0.06661702 0.003635298 0.05981105 -0.035789672 0.035589676 -0.05005785 0.08069765 -0.028104488 0.1410122 -0.07993388 0.0068775206 -0.0876237 -0.07086136 -0.016268637 0.015855648 -0.049982645 9.628137E-5 0.027183173 0.0030970061
president 0.0064822244 -0.05672058 0.018569427 -0.054509535 -0.03403746 -0.0712937 0.06920014 -0.025599226 0.018205486 -0.020594828 0.008541901 0.03617441 -0.021836765 0.025723496 0.017675929 0.13890986 0.053232946 -0.012052452 -0.051843964 -0.030764475 -0.02279361 0.034147102 0.015463479 0.0011390499 0.044993192 -0.0550052 -0.029060349 -0.0094851 -0.09218055 -0.04278981 -0.06351334 -0.010682952 -0.030591074 0.033380672 0.06570062 0.01707462 -0.025238473 0.084298 -0.0072304737 -0.00353069 -0.036242954 -0.003652241 0.0153992325 -0.031343948 -0.1346902 -0.10652202 -0.04593975 0.01872097 -0.012013746 0.06706562 -0.023630297 -0.0015888633 0.052403916 0.01924059 -0.049660183 0.026517197 -0.0769135 -0.06987369 0.05193557 -0.060070395 -0.06327516 0.014827643 0.0116719995 0.022827446 0.031954713 0.010844549 -0.015657762 0.08531462 0.08002962 0.04196213 0.07244483 -0.07923683 0.03456341 0.014496657 -0.03594037 -0.07142031 -0.02983488 0.026109006 0.03369555 -0.0057345573 0.06390908 -0.024109116 -0.0017666442 0.03183586 -0.012673493 0.009117249 -0.04582054 -0.08090853 0.035806704 -0.008396057 0.10898555 -0.06228834 0.030418096 -0.010778714 -0.005827911 0.019902091 0.0027838126 0.038242623 -0.0066685313 5.837702E-4 0.024067838 0.022325194 0.0037073588 0.03899133 0.014780901 -0.01645175 -0.06670148 -0.040005956 -0.013643933 0.02429872 -0.012546066 -0.02234936 0.059112452 -0.06835997 -0.03472846 -0.05290705 0.031824905 -0.017016126 0.09998083 0.0033119859 0.031212924 0.009301696 -0.023942772 -0.0063975956 0.011596493 -0.026149863 -0.053856082 -8.522724E-4 0.06619114 4.2816787E-4 0.05695549 -0.008739315 0.003098873 0.036788005 -0.038090616 0.079603225 0.034373105 0.023080265 0.049341504 8.928161E-4 -0.015147655 0.007867936 -0.03630723 -0.023944322 -0.040929638 0.036516156 -0.0015680313 5.503483E-4 0.07291193 0.027644336 -0.00815245 0.07268196 -0.024443176 0.07628949 0.02837309 0.020114943 6.475197E-4 0.0051561054 0.0019363463 -0.012788527 -0.018116653 -0.04444901 0.061827164 0.04538754 0.061760172 0.033239145 0.0011088275 -0.02171569 0.07049643 0.053569227 0.08519973 0.088151336 -0.03003062 -0.060299236 0.034164757 -0.09502024 0.038759984 -0.022170424 0.0630862 -0.0014589308 -0.0028902628 0.0027500151 0.049789853 -0.059746817 0.024469415 0.03460836 0.0371997 0.0051723355 -0.0093695475 -0.005510436 -0.0075610373 -0.022654742 -0.048547342 0.12910727 -0.013533643 -0.020991074 -0.004192368 0.0099020805 0.07989696 -0.0048352135 -0.045153122 0.00850293 0.05678123 -0.088950545 -0.022397222 -0.018984722 0.033813573 0.0230588 -0.031515203 -0.04244573 0.022347761 -0.001700677 0.023320738 0.019053182 0.05657249 0.02130929 -0.052265763 -0.07435669 0.026237141 0.03315604 0.05355586 0.0049385577 -0.003937563 0.10082506 0.074488446 -0.039316386 0.063955106 -0.020018948 0.025804527 0.033839382 -0.12257609 0.018714886 -0.09486432 0.047943946 -0.015692651 -0.013774389 0.009530993 -0.035678223 -0.008997523 -0.037450507 -0.026316226 -0.0745787 -0.01739871 -0.0022179727 0.012342407 0.014450299 0.0245417 0.0049313726 0.022284575 -0.018279351 -0.006788875 0.067764714 -0.052772023 -0.044271734 0.051834945 8.065663E-4 0.0044425335 0.045825634 -0.024766723 0.008410867 0.009415245 -0.01633149 0.07749696 -0.039519504 0.033661757 -6.6958927E-4 0.042737048 0.055308364 -0.023007218 0.08550957 -0.03034456 0.08722157 0.016295256 0.06454236 -0.016285986 -0.08416226 0.0413852 -0.019504985 -0.03176568 0.01942475 0.050221078 0.0077623185 0.013033981 -0.03652686 0.11023612 0.067939736 0.025942285 2.956586E-4 0.04890099 0.030693408 -0.011451049 0.0044371295 -0.06977159 0.045971684 -0.032864302 -0.05015971 0.011527827 0.024836557 0.080064476 6.9349166E-4
relative 0.010676928 -0.013930722 0.00230066 0.013740475 0.052874636 0.07236536 -0.016084889 -0.08383792 0.067307666 0.0038428127 0.0880579 -0.09506481 -0.020942386 -0.020138301 -0.035900578 0.01584494 0.015835347 0.03044918 -0.056746434 -9.214798E-4 -0.005443692 -0.025280666 0.013918279 -0.010505021 0.016617268 -0.058168612 -0.103645705 0.12248989 0.048950624 -0.029173387 0.032535717 -0.028955903 -0.018406862 0.055457085 -0.0325409 0.023681115 0.06331223 -0.04416838 0.02247378 0.0094684325 0.06361588 0.014088018 0.045497112 -0.015490207 0.049341913 -0.007319214 -0.0077553103 0.04495305 0.0352185 -0.052018993 0.00241674 -0.043499764 0.05708435 0.012059218 -0.0020422577 -3.79147E-4 -0.098408125 0.12697689 0.020961626 -4.37536E-4 -0.008990025 0.043788385 -0.0014363341 0.042970985 -0.010980993 -0.031403664 0.019584171 0.023188477 0.02861562 -0.010580132 0.008228952 -0.01343802 -0.022794865 0.008522648 -0.04905521 0.073421106 -0.03384178 -0.06060053 0.07752018 0.07954201 0.06915353 0.03660486 -0.03652188 -0.016041702 -0.029652487 -0.023331953 -0.05145056 0.07324789 -0.03202287 0.008390032 0.018903755 -0.059856884 -0.051659472 -0.02051491 0.0017293205 0.0052716765 -0.01742338 0.039072584 -0.004382958 -0.057665408 -0.018335098 -0.05970058 0.07484603 -0.043193728 -0.034219865 -0.07690014 -0.043009683 0.045042284 0.048788782 0.043317463 0.024730407 0.05954481 0.032257665 -0.05492507 0.006557524 -0.02162103 -0.0156556 -0.048800513 0.038451616 0.054898135 0.003990181 0.03208477 -0.025523847 -0.049007706 -0.05015102 0.03933932 0.050768852 -0.05848358 0.0016335193 0.012949029 0.0068917116 -0.018219033 -0.02383459 -0.0024389874 -0.014963109 -0.028622633 0.054577596 0.035551712 0.047401756 0.039921172 0.045134466 0.0084583 -0.036271073 0.04046167 0.071784645 0.034950834 -0.034809 -0.0022748373 -0.0039245985 -0.0050559025 0.11093273 0.032370497 -0.014580417 0.029253103 -0.041247156 -0.058515824 -0.026915688 0.011720411 0.009656403 -0.046880692 -0.03346512 0.05653442 0.08490801 0.03483415 -0.002128112 0.031812936 0.0588348 -0.007872998 0.021505352 0.07790168 0.028053686 -0.029800987 0.033269767 -0.06563009 -0.045003977 0.04953512 0.056263532 0.049066678 0.04513718 0.0982029 0.026483282 0.024702227 0.039111108 0.009262832 0.03800848 -0.069498345 0.032558188 0.032245748 0.0067935837 0.023081353 -0.02723211 -0.004388654 -0.026516568 0.02011266 0.014283369 0.05588632 -0.052644994 -0.0036468403 -0.026030784 -0.05216141 -0.06904407 -0.0038382418 -0.079937324 -0.048793532 0.021019075 -0.0044066845 0.020454643 0.022064617 -0.02897735 -0.06310941 0.011472531 -0.009099865 -0.057380207 0.039071314 0.0024390533 0.0034785706 -0.03418985 0.047434367 -0.085724875 -0.021876588 -0.018020367 -8.931073E-4 0.038322873 -0.0659509 -0.030923655 -0.083324745 0.07759756 0.07209185 0.019227374 0.024885973 -0.026514878 0.019111268 -0.010825582 0.0040816693 0.014508013 -0.03785932 -0.015676899 -0.0562564 -0.068568915 0.011142015 -0.06393908 -0.034460872 -0.044722628 -0.03053061 0.028002784 0.12632471 0.038047105 -0.008525912 0.026703587 -0.010814707 0.035057895 0.06713425 0.08291995 -0.01663968 0.014556269 -0.044564273 -0.027517011 0.025183544 -0.033100292 0.0042093643 0.002500544 -0.093868 -0.040504497 -0.038527265 0.03007679 0.09188433 -0.019873064 -0.05766025 -0.02514499 0.033891298 0.0067104804 0.0011422544 0.028171182 -0.020369958 0.032454398 -0.0763166 -0.012146533 -0.020289904 -0.049915396 -0.072091565 0.035317704 -0.08561628 -0.01655468 0.006894519 -0.0072057955 0.012449722 -0.033380274 0.048632525 -0.010124337 0.04745695 -0.0656414 0.054085057 -0.084771655 -0.0295187 -0.008741322 0.026640937 -0.023043541 -0.04185238 0.031037632 0.021229576
spouse -0.012052658 -0.05331093 -0.07609109 0.026370626 -0.00895487 0.028043613 0.013804175 -0.05452163 0.036484122 -0.018680617 0.06073793 -0.036002778 -0.089699045 0.035347924 -0.021378292 0.05379122 0.041078195 0.026669212 -0.0140286945 0.0088753505 0.009264277 -0.029614009 0.056128345 -0.056685925 0.047407918 -0.04161331 -0.0723072 0.06223083 -0.03884464 -0.013138702 0.022706144 -0.012933916 -0.04584283 0.018414712 -0.031637583 0.020020157 0.045327038 0.025424099 0.008958787 0.0114540355 0.025948204 -0.011497621 0.051243275 -0.005845761 -0.03729476 -0.020632818 -0.0017169537 7.4825715E-5 0.008800636 0.03223084 -0.0026325826 -1.5932973E-4 -0.012835151 0.02289626 0.00898594 -0.031708926 -0.0810804 -0.052228514 -0.014172872 -0.02752832 0.06899145 -0.007994623 -0.006710018 0.028127732 -0.027807321 0.038001787 0.0036325597 -0.037580635 0.021086102 0.00572047 0.05444367 0.052478906 0.001511845 0.042134 -0.065460324 0.027245946 -0.0394217 0.021985 -0.0030814111 0.038448364 -0.0062693376 0.017284643 -0.0049597574 0.02297391 0.041805938 0.0062999655 0.006648831 0.044515193 -0.028821312 1.2622401E-4 0.0049605146 -0.025328062 -0.04156719 0.02413413 0.01709385 -0.019225828 0.06115015 -0.05644104 0.053150464 -0.0046563316 -0.03462802 -0.064014 0.038453933 0.01060142 0.008828081 -0.07023455 0.014212336 0.040972847 0.054966472 0.04435326 0.014488837 0.022257766 0.051462382 -0.0023605116 -0.007014562 -0.046418615 0.021849316 -0.032975554 0.036909632 0.04741827 0.035717744 0.031485 -5.464172E-4 -0.0070717414 -0.010939723 -0.050710797 0.018671645 -0.02227019 0.018753752 0.04615147 -0.038444795 -0.026996288 -0.06488061 0.050964464 0.012548696 -0.013295293 -0.0032389532 -3.8547348E-4 0.06264602 0.029641796 -0.007154191 0.012903063 -0.018222459 0.035253577 -0.021800995 0.010214907 -0.078990676 0.06885065 -0.015298018 0.028461788 0.13668656 0.037181072 1.302408E-4 -0.030244717 -0.027479518 -0.042686302 -0.010923542 -0.059715804 0.022521717 -0.050567213 -0.06907816 0.03193178 0.06975073 0.08223558 -0.02306016 -0.05704895 0.0729363 -0.013501678 -0.032250155 0.05227673 0.017661389 -0.045363136 0.018660408 -0.055712316 0.015159817 0.031367175 0.08361558 0.0010895254 -0.0016025258 -6.272318E-4 -0.010311681 0.0011400585 0.017966364 -0.014875896 0.02565974 -0.0046767695 0.009046807 0.055364225 0.019297378 -0.0119549045 -0.027310941 -0.0057562683 -0.017555688 0.07064293 0.05936464 0.104660615 -0.015131132 0.03147298 0.008695332 -0.006202713 -0.050941963 0.009507544 -0.044401184 -0.02435907 0.035578836 -0.00548118 -0.041255187 0.030745799 0.019995194 -0.057885446 -0.045590915 0.0033856535 0.008991376 0.006052375 -0.006770121 0.007453696 -0.008902904 0.063669056 -0.050105248 0.02834406 -0.019438472 -0.025244376 0.07071818 -0.018587336 0.0036157323 -0.057741556 0.05625729 -0.008257433 -0.014469324 -0.016635912 -0.029288977 -0.0066368245 -0.06048214 -0.042212766 0.015691075 -0.014858538 -0.034854706 -0.047759965 -0.07827406 0.021709852 -0.036605366 -0.046020456 -0.019497737 0.02318976 0.032516833 0.046875067 0.02455914 0.006235019 0.024131976 -0.03969737 0.022405127 0.0064902995 0.047557805 -0.015609266 0.020847194 0.01727816 -0.06094861 -0.007151356 -0.035198055 0.038078547 -0.010336369 -0.023639096 0.033336964 -0.014067795 0.03578545 0.06485815 -0.050959654 -0.0015632473 -0.008553473 0.032756932 -0.021011977 0.030892856 -0.014848613 0.032050796 0.03433196 -0.019760627 -0.014880358 0.020893361 -0.03048407 -0.039997544 0.06333908 -0.056338258 0.011334619 0.02824349 0.04170438 0.05246313 -0.035714693 -0.031080533 -0.009713633 0.093463026 0.008478897 0.068347 -0.0748661 -0.07801509 0.009553787 0.024394764 -0.012472942 -0.01661377 -0.0015180318 0.032176092
