affiliation -0.20440488 0.20559254 -0.13154 0.14054535 -0.52491665 -0.20861 -0.25461435 0.25878632 0.40491337 -0.25908434 0.22178566 0.11562967 -0.20338601 0.021356337 0.046679996 0.15354829 0.17501001 -0.12368666 -0.02433667 0.12729001 -0.29340667 -0.7037367 0.15636334 0.08887333 -0.23269668 0.07589446 -0.08412167 -0.02504567 -0.19806 -0.41019666 -0.058999002 -0.38731667 0.5294634 0.031749334 -1.07074 0.28106 0.41090998 -0.05091333 -0.043936666 0.05402001 0.25122333 -0.21062867 -0.13331558 0.26464668 0.23194033 -0.28122336 -0.07682668 -0.03591668 0.141807 -0.27826667 -0.24190667 0.26740938 0.082819335 -0.24302666 0.09612667 0.16760968 -0.078046665 0.08374335 0.105330005 -0.26631233 -0.13937335 0.19935334 0.022133341 0.15110669 0.046054125 -0.0037466637 0.010654002 0.26499265 0.118079 0.0020199965 -0.004596 0.28770602 -0.38308 0.2509167 -0.21989799 0.11004433 -0.2329967 0.37449667 -0.1675061 -0.073564336 -0.23780333 -0.181392 -0.7022767 -0.13332833 0.039526667 -0.10061434 0.17060566 -0.04366333 -0.5743667 0.037873667 -0.06678667 0.26057798 -0.053343337 -0.049743336 0.11041 0.25064367 -0.13711402 0.09028268 0.01276734 -0.30680335 -0.044363342 -0.084599994 0.33383 0.30787903 0.091539994 -0.09953967 0.0953455 0.058372002 -0.07963 0.20792334 -0.056401007 -0.23141667 -0.20762669 0.044689994 0.254627 0.07677267 -0.23897335 -0.40516335 0.25119 0.33814 -0.23248169 -0.04653 0.38809466 0.020873334 -0.118293345 -0.029349338 0.085754 0.023008337 -0.026247334 0.008320004 0.09005667 -0.31304002 0.022004332 -0.51098 -0.25020134 -0.08194464 -0.025153335 0.48492667 -0.28805268 0.15075934 -0.15083002 0.118068 0.2063967 0.017048 0.15896332 -0.008114001 -0.10559177 -0.3141467 -0.017422667 -0.04096134 0.86138666 0.015106658 0.10809534 -0.32187337 -0.22614089 0.0018133372 0.26830763 -0.20169334 -0.15966101 0.018624 0.3167 0.34786433 -0.08404001 0.06292108 0.31188133 0.14499666 -0.28543 -0.10964 -0.01512 0.28871667 0.007127668 -0.28558668 -0.55144 0.51470333 0.022376668 0.06435033 -0.46955132 0.052666675 -0.18231335 0.47335002 0.5054567 0.3348 0.34371302 0.19153002 0.068152994 -0.11994167 -0.5374467 0.29020867 0.0025971334 -0.05945667 0.071030006 0.3151167 -0.0947092 0.03147743 0.21021834 -0.21147868 0.042044334 0.11904667 -0.02268367 0.26986668 0.72444403 -0.032360666 0.03967333 -0.032931667 -0.18287668 -0.10744333 -0.043911334 0.3025067 0.09212332 -0.062206667 0.34503 0.049592998 0.327367 0.34392866 -0.026250001 0.055237673 0.05482 0.23521332 -0.2735486 0.12692767 0.052789997 -0.12749134 0.016063333 0.091047004 -0.09294599 -0.08297234 -0.33543333 0.105374336 -0.19803801 0.19614333 0.15948601 0.16739766 0.36988336 -0.113620006 -0.033773344 -0.11023986 0.14671433 0.20604667 -0.14905 0.152914 0.10880002 -0.03595197 -0.062333338 -0.09829666 -0.28458336 0.13333666 0.21488033 -0.077980004 0.20749602 -0.5015857 0.07094033 0.14525668 -0.098749995 0.01031601 0.18884334 -0.07582334 -0.18586533 -0.0031309985 0.09712666 0.03026633 -0.26800334 -0.09009001 0.07467334 0.012165671 -0.11944333 -0.061974667 0.04230666 -0.13003333 -0.076735005 0.21923333 -0.06470067 0.19836602 0.109118335 -0.15041468 -0.03186333 -0.055352002 -0.55109334 -0.25044668 0.20750332 0.25575703 -0.30161336 0.41818902 -0.15958667 -0.41991335 -0.2592857 0.25378668 0.313666 0.29455334 0.15723434 -0.16923666 0.023511468 -0.16070667 -0.40912336 -0.14818999 0.083736345 0.25093567 0.25129503 0.06553667 0.04762298 0.12767667
almaMater 0.0076520056 0.320544 0.290742 0.043873 -0.064927004 -0.2754588 -0.086966 -0.440346 0.22261159 0.44668397 0.113833 0.18964921 0.2845938 -0.336094 0.19684401 0.23931201 -0.19325857 -0.19608282 0.17781961 -0.0342806 -0.068724595 -0.06555256 0.045473594 0.53884 -0.25147998 0.31479797 0.28671202 0.1847036 0.0734286 -0.4121254 0.44811803 -0.42799798 0.1655014 0.2131962 -0.107999995 -0.20540099 -0.22009139 0.044394802 0.2495878 0.060663998 0.34452423 -0.3460086 -0.276766 0.4229578 -0.0499138 -0.0884822 -0.06858881 0.2317292 0.0632616 -0.49580798 0.10056221 0.109376006 0.115049 0.17568427 -0.19646601 -0.1008284 0.1894374 0.16847162 -0.021344123 0.1178906 -0.12560801 0.1425724 0.3585922 0.1694084 0.15393801 -0.0271576 -0.059179116 0.26919803 -0.096905805 0.04435401 -0.0995174 -0.14103459 0.061142802 0.14174281 -0.3535204 0.32950374 0.33666402 0.124318 0.1066998 -0.2276706 -0.006323719 0.10926261 -0.08757201 -0.536814 0.3475132 0.251472 -0.073873006 -0.28522703 -0.08725 -0.30016384 0.0653948 0.28174803 0.3035458 0.0737558 0.1062838 -0.0644854 0.1616736 -0.18280719 0.019615402 0.3328424 -0.349822 0.1888072 -0.0014595985 0.448206 0.027998 -0.1468284 0.3863392 0.024508998 -0.024758598 -0.3802522 -0.317322 -0.153544 0.15357749 -0.10866059 -0.059699465 0.099295 -0.14357468 -0.1716774 -0.017748004 0.46830603 0.05100721 0.39659402 -0.339238 0.2798228 0.14753261 0.0714296 -0.0753968 -0.0786522 0.33969003 0.12568939 -0.222446 -0.2481642 -0.0072839977 -0.527276 -0.11629881 -0.177014 -0.22692572 0.426162 -0.40083 0.180966 0.48755142 0.0778592 0.1097232 -0.2183775 0.5423918 -0.2698586 -0.16933142 -0.46037003 0.070426 0.10641499 0.55645645 -0.38284203 0.14858301 0.376224 0.015498007 0.095706604 0.23992264 -0.107566796 0.060667004 0.2626596 0.056162994 -0.0049289945 -9.664014E-4 -0.3436726 -0.430286 -0.1012476 0.046485603 0.061617006 0.30094 -0.14093238 0.259236 -0.08437999 -0.31801602 0.041098405 -0.006948042 0.308286 -0.33027682 -0.130732 0.37806544 -0.0973876 0.1358258 -0.1638218 -0.027758602 -0.0673174 0.35931203 0.0905978 -0.59147996 -0.089157194 -0.0743172 0.2844456 -0.3313542 0.061105996 -0.0758474 -0.0270782 0.287532 0.123339795 -0.069035396 -0.1645718 0.305266 -0.20208381 0.20712619 0.16866802 0.0127740055 0.26346204 -0.16321 -0.0335634 -0.0011143055 0.093518004 0.33613974 -0.027418394 0.37797603 0.11421402 -0.224628 -0.116012804 -0.25363204 -0.11938894 -0.14445461 -0.018702997 -0.031556 -0.476552 -0.28976402 0.2395372 0.22741202 0.521736 0.039309587 0.14395045 -0.1347325 -0.0778616 -0.0980212 0.3026168 -0.21444798 0.15775341 -0.1591548 -0.2881949 -0.05221439 -0.018382195 0.34855804 -0.2237422 -0.31570002 -0.0637604 0.362752 0.34034798 -0.068150006 -0.086058594 -0.22292574 0.350204 -0.1385244 0.131984 -0.0349568 -0.24128203 0.3225426 -0.090770006 -0.21084201 -0.060951997 -0.119586006 -0.054438002 0.25008997 0.2709926 0.280336 -0.0587628 -0.107609 0.1888334 0.2353063 -0.19311197 0.28026938 -0.03719681 -0.15084061 0.32136822 0.1580024 0.46627805 -0.35588762 0.11344941 -0.1423146 -0.20119317 -0.16436942 -0.438834 0.036574006 -0.2291762 -0.27032262 0.2951224 -0.293732 0.062156 -0.024351997 -0.178008 -0.09555278 0.2524336 -0.0964414 0.40505582 0.2128156 -0.322084 0.062016405 -0.33049402 0.1781106 0.1745866 0.09694599 -0.480371 0.16693102 -0.110942006 -0.134596 0.3283638
bandMember -0.21026202 -0.0362685 -0.15763162 -0.16850999 -0.20265014 -0.32677123 0.158297 -0.0064427974 0.28641975 -0.010267997 -0.1063204 -0.1146328 0.08231913 -0.041465808 0.28325102 -0.21517456 -0.153848 0.014578319 0.251366 0.105119996 0.1858254 0.39978802 -0.261668 0.37384602 0.021342015 -0.19758521 0.18758379 0.058400642 -0.37708002 0.0020025969 -0.005580199 -0.2916722 0.1465676 0.1522798 -0.26565 -0.1550304 0.246442 -0.1564402 0.0854754 0.2475894 0.013583201 -0.15582941 -0.22842641 0.2127964 0.4674862 0.49713 0.06246 -0.143625 0.058389395 -0.25440583 -0.03755 0.0033475966 -0.27338487 0.32819062 -0.20191748 0.11916121 -0.13552801 0.19941999 0.11484201 -0.3156674 0.174332 0.19516139 0.197179 0.0553104 0.219564 -0.08555 0.462162 0.20644002 -0.022184398 0.400928 0.0359778 -0.0145120025 -0.18551742 0.073864594 -0.054106604 -0.019228995 0.0786454 0.1813718 -0.23157461 -0.007864001 -0.19829841 0.3629714 0.073597394 -0.362262 0.1953832 -0.1487188 0.19278142 0.1305478 -0.1456303 -0.4596746 0.238922 0.2927108 0.2546924 -0.2680858 -0.120474 -0.019406402 0.403152 -0.4562397 0.29131198 -0.09904599 -0.2558496 -0.08045202 0.269464 -0.13496234 -0.30353275 0.055284407 0.085083 -0.07343601 -0.180012 -0.042501207 0.12952921 0.1874946 0.157592 0.30467 -0.059038002 -0.119766 -0.130301 -0.274159 0.1469488 -0.235006 -0.282582 0.1886178 -0.338568 -0.14370202 0.1951998 -0.075248405 -0.1241312 0.020001998 0.21344002 -0.009233999 -0.20307496 -0.17274462 0.169125 -0.731876 0.163146 -0.10156061 0.284682 0.255946 -0.09993029 -0.07630919 -0.104930006 -0.06733201 -0.0324064 -0.3479618 0.339898 0.012548703 0.1189876 0.101459004 0.094358206 -0.0035832047 0.26440522 0.090441994 0.0111129945 0.042457998 0.048565995 0.1167712 -0.083934 0.33302942 0.022434602 0.0960174 -0.021738602 -0.12583 0.08225804 0.053298004 -0.22794859 0.0821174 -0.22361961 0.36602998 0.22189398 -0.0190322 0.28851 0.094084 -0.13527 0.1359524 0.2615866 0.13786921 0.21259761 -0.0288714 -0.06382682 0.276278 -0.13249001 0.10234028 -0.08615019 0.2348214 -0.116209984 -0.2561644 -0.2852486 -0.15083541 -0.2438112 -0.0071660043 -0.11263861 -0.026065702 -0.17883539 -0.13606821 -0.144478 0.25103 0.066810004 0.1264202 0.0568808 -0.06715966 0.79223406 0.101084195 0.4449132 0.18392341 -0.1456432 0.10726 0.239372 0.3642482 -0.08450001 -0.1502502 0.13749601 -0.007463515 0.1927482 0.3711054 0.040404 0.22463074 0.2955674 0.033204198 -0.012361403 0.034280192 -0.105248 -0.028136594 -0.39902803 -0.0017309964 0.04730919 0.2298398 -0.37698796 -0.27800745 -8.69E-4 -0.15223 -0.046612807 -0.02122954 -0.1736462 -0.4833704 0.066802 -0.2354608 -0.016464666 0.12152779 -0.29416022 -0.017840827 -0.010897796 0.119593404 0.033088 -0.0943433 -0.10388341 0.3938088 0.121124804 -0.14911841 -0.10032381 0.122905806 0.051098604 -0.1020348 -0.1695938 0.21903181 0.14559816 0.32326123 0.336884 -0.1192286 0.307792 0.051889002 0.06614001 0.104582004 0.0768762 -0.14147478 -0.2796526 0.11911464 -0.322176 0.1693908 -0.09386046 -0.0531026 -0.3221518 -0.039614003 0.1559332 -0.22282241 0.0019272566 -0.00554952 -0.687422 -0.287072 0.1948234 0.055397995 -0.016299998 0.0509856 -0.5598981 0.222874 0.1984742 0.2019118 -0.20842981 0.280372 0.097409 -0.1854474 0.2949644 -0.113892436 -0.3320046 0.030652398 -0.1461234 0.2187378 -0.056679703 0.464988 -0.31476 0.052118193
birthPlace 0.0520296 -0.119017005 -0.23577309 -0.015034002 -0.17289141 -0.071521185 0.008643195 0.085963994 0.00872264 -0.3961496 -0.048322003 0.028322598 -0.042515736 0.09067539 -0.030093981 0.008915799 0.027826408 0.256008 -0.102936946 0.245634 -0.072032236 -0.0010777802 -0.065197594 0.118628 0.108262 -0.1040092 -0.140475 -0.043333624 -0.15420464 0.11914599 0.24797745 0.39506403 -0.38750198 0.15505362 0.127664 0.199302 0.016964 -0.18982168 -0.1911146 -0.16477242 0.15305233 -0.2637284 0.023384 0.052394003 0.19768281 0.143323 0.1527354 0.411084 -0.0672796 0.059628796 0.1207634 -0.126903 0.065933205 0.04336248 -0.021038001 -0.008127001 -0.24450119 0.27457199 2.0599962E-4 0.32907864 -0.28301784 -0.040929403 0.16187298 0.2861754 0.157856 0.174874 0.026316002 0.21711801 0.1367896 0.07959401 -0.0682326 -0.010994399 0.02697972 -0.2060416 -0.24794161 0.1365856 0.027606804 0.030250002 0.036511 -0.1820938 -0.2402288 0.16352281 -0.221246 -7.119984E-4 0.13046001 0.3042968 -0.099244 0.2877294 -0.15062113 0.1611134 -0.072328605 -0.07560461 0.33422205 0.21494178 0.009363999 -0.039807398 0.1993606 0.124028206 0.049648076 -0.028245399 0.22462372 0.25752002 0.1972268 0.43227282 -0.048261993 -0.015111803 0.16804759 0.12537721 -0.19825907 0.2621616 0.1404966 -0.18014781 0.014711598 -0.17902142 0.06083106 -0.19158064 0.20089999 -0.18137792 0.35764837 -0.1788128 -0.0419298 0.026042808 0.033614404 0.039679103 0.018018205 0.360656 -0.1471406 0.19979142 -0.1262072 -0.1374522 0.08708359 0.14133242 0.43798962 -0.31044397 0.055265397 -0.1044176 0.168882 0.178406 -0.104279995 0.08114 0.10340261 -0.12340472 0.134282 -0.18498822 0.257458 -0.55643004 -0.08500159 -0.111618 -0.36046702 0.055457003 -0.28324828 -0.07630002 0.088016 -0.2610514 -0.039461195 0.022927994 0.046854403 0.15741341 0.132988 0.041226804 0.06540018 0.22906558 -0.106347 -0.055410005 -0.1499252 0.20844698 0.1951208 -0.325504 6.4920186E-4 -0.21112378 -0.0715788 -0.120000005 0.06842121 0.09306001 0.1815124 -0.0532758 -0.059147596 -0.197964 -0.20444463 -0.0031339973 -0.014536398 0.12252803 0.5220451 0.1335166 0.290136 0.22144799 0.133128 -0.015357404 0.16201359 -0.068256 0.088104405 0.13069241 0.007958001 0.079215005 -0.079889596 -0.155179 -0.073626004 -0.1846286 -0.024302 0.46645856 0.48289806 -0.017603997 0.07903501 -0.277182 0.192486 -0.17227802 -0.028576398 -0.11947582 -0.282916 0.22361003 0.041378397 0.1885142 0.06344 0.14616561 -0.26646742 0.070246 0.024318201 0.0245826 -0.27707404 0.27799302 -0.26641378 0.15426388 -0.0196304 -0.2876245 0.038318697 -0.13736962 0.2397284 0.1377174 0.1677602 0.31603655 -0.22931099 0.013295201 -0.10968154 0.1005828 0.039938606 -0.11085699 0.0449262 -0.09267001 0.049523342 -0.021458006 -0.0918082 0.090684704 0.51721597 -0.1190832 -0.2559546 -0.0908728 -0.141537 0.234971 -0.14963087 0.089218594 0.10251 0.16356 0.0034002052 0.042330008 -0.110849395 0.13481198 0.14370142 -0.12603998 -0.015211401 -0.028587801 0.21966897 -0.044089206 0.07281001 0.089940205 -0.061224002 0.046124008 0.0743558 -0.128782 0.21147959 0.1720298 -0.17565802 -0.06294771 0.0718446 0.17746 0.06688201 -0.0202016 -0.8630301 -0.5260422 -0.0020331412 0.09944921 -0.059051406 0.1030338 -0.15938275 0.0490048 -0.011872006 -0.014068796 0.032317996 -5.910039E-4 -0.0818146 0.047118004 0.25422737 0.029094202 0.301664 -0.13892399 -0.0943534 -0.30788597 0.05069626 -0.021775002 -0.12714683 0.19422619
ceo -0.16798422 -0.18577527 0.20630343 -0.24769 0.09048373 -0.4573312 -0.18681899 0.21400003 -0.14850086 -0.7302472 -0.04600658 -0.23756504 -0.055152852 -0.19114658 -0.26095232 0.30659717 0.14169429 -0.004866575 0.02017037 -0.009474507 0.39330146 0.15420885 0.24601573 -0.013813002 -0.29046002 -0.23915887 0.0059247105 0.1854246 0.12227972 -0.20551643 -0.22770287 -0.1692033 0.16895315 0.044187147 -0.5494515 0.08206915 0.26542443 0.018040847 -0.3514329 -0.13782428 0.15981144 0.07654225 -0.13166544 0.27425143 0.049561717 -0.1058553 -0.07357315 -0.0013585773 0.112022996 -0.058280014 -0.27510402 -0.15826029 0.2258703 0.57562435 -0.013622572 0.25586244 -0.13990086 0.108108565 0.057187535 -0.17901416 0.12469372 -0.31946343 0.18667 0.09020029 -0.06902603 -0.19553415 -0.21385488 -0.110073425 -0.14416471 -0.24910931 -0.16319244 0.021223102 -0.05913714 -0.020291945 -0.013294289 0.054873716 -0.079323865 0.06599472 -0.06804946 0.15342943 -0.095463715 0.2479923 0.10113145 0.20488173 0.3036991 -0.07831172 -0.10298465 0.0052821385 -0.116776 -0.05979429 -0.47154573 0.13689713 -0.28188288 -0.07966172 0.04909571 -0.05730329 -0.25742245 0.023554284 0.22291858 -0.048658296 -0.17719573 0.16956832 -0.06596943 -0.18114115 0.2113253 -0.111755684 0.24426158 -0.09902057 -0.03063223 0.15803316 0.0050819996 0.10561399 0.06923815 0.1736993 0.053338088 0.07122315 -0.015943661 -0.47668004 -0.18614458 -0.10705428 -0.06685715 0.13579558 0.21088845 -0.07306987 0.22235717 -0.25503144 0.10466457 -0.20478144 0.10649157 -0.03568942 0.084178716 0.1487565 -0.12686987 -0.07569115 -0.094460204 0.08149715 0.17501001 -0.21641429 0.114500865 0.14429459 -0.18530701 0.058479294 0.36626402 0.2135133 -0.35500854 0.34593257 0.24876702 0.16518515 -0.08600657 -0.08787687 0.6668015 0.3242186 0.65525526 0.029774288 0.088476576 0.105938576 -0.11966553 -0.08462716 0.07592058 0.19252715 0.050555233 0.39192742 -0.0045261346 0.13973573 -0.048562 -0.21346742 -0.005406001 -0.0047842907 0.019729994 0.253381 0.038957573 -0.029635856 -0.5720443 -0.27937114 -0.054224588 0.35872775 0.1280132 -0.049156714 -0.07522221 0.22818501 -0.14619145 0.3691459 -0.13824056 0.31670257 0.11883 -0.31214473 -0.44510007 -0.02941929 -0.20591743 -0.071861714 0.2871358 -0.097052716 -0.16049929 -0.021067284 -0.112175286 0.00818557 -0.031486146 0.021710288 0.19923829 0.010914999 0.42231575 0.11923072 -0.26189074 -0.09513701 0.06361489 -0.08407844 0.18735757 0.09926201 0.11754787 -0.41537002 0.12466714 -0.28288716 0.25940114 -0.31339857 0.22503044 -0.1255593 -0.10594844 0.24735373 -0.10025763 -0.11951557 -0.46329716 -0.124707006 0.051871285 0.052421574 0.159115 -0.15447327 -0.012126432 0.012115396 -0.1946 0.10816886 -0.04075633 0.33606717 0.17359714 0.076269 -0.12408515 -0.035511576 0.36514503 -0.32899728 -0.26718932 0.17691466 -0.041194722 -0.18444987 0.16062286 -0.07293172 0.085842445 0.33953574 0.30619857 -0.51241004 0.12761371 0.17835714 0.22691359 0.054173402 -0.20400985 -0.1806657 0.41624385 -0.11100918 -0.21922123 0.20112744 -0.028630003 -0.28575188 -0.24256831 0.23482658 0.011824957 -0.039188582 -0.14635715 -0.052345295 0.20035844 0.1878733 -0.21198615 0.33212572 0.08041261 0.30239502 0.066521004 0.015398571 0.16046058 0.17802285 -0.47358572 0.2518229 0.24273714 -0.32456702 -0.0874245 0.04879286 -0.09500143 0.009312853 0.02684057 0.188359 0.37542856 0.20494501 0.043574285 -0.29158473 -0.2148977 -0.16144215 -0.120962866 -0.23385128 -0.13341957 0.24653761 -0.29814273 0.17637016 -0.39790732 0.28990385
child -0.0792317 0.06569771 -0.0873245 0.026912605 -0.1324081 0.20994206 -0.1261554 -0.2875162 -0.054112494 -0.30959198 0.046693098 -0.033583496 0.0832653 -0.003976503 -0.029464303 -0.0075701894 -0.084862195 -0.3579091 0.09765761 0.0617944 -0.009990803 0.44007 -0.34552583 0.029534442 -0.03630599 0.035872307 -0.016322602 0.009668899 0.2218217 -0.15008336 -0.42045432 0.13824461 -0.065571 0.1063 -0.35556123 0.3019093 -0.076425776 -0.0021678999 0.032471 0.025364405 0.173313 -0.07399129 0.18946071 -0.1339382 -0.3390676 0.12656721 0.1638608 0.15785599 0.020359902 -0.07427757 -0.048628647 -0.2693691 0.097234 0.20513682 -0.16929202 -0.09808561 0.2721087 0.23820011 0.0936154 -0.3134524 -0.029937804 0.154306 0.1807122 0.21765101 0.18441801 -0.004096108 -0.1402667 -0.15569101 -0.48967043 0.2820313 -0.1399859 -0.18142442 -0.2975057 0.062355943 0.071912 -0.14560442 -0.091195814 -0.3057873 0.093691245 0.15235491 -0.05968987 -0.006762399 0.25113982 0.16159318 -0.16888571 -0.078181356 -0.061992295 0.1540752 -0.043610096 0.032838594 -0.0754961 0.07169309 -0.21468754 0.090706006 -0.21961856 -0.032874603 0.138445 -0.083431505 0.07015509 -0.070077896 0.1791048 -0.23691778 0.17812864 -0.040319946 0.0022372967 -0.075723015 0.047802005 0.06084601 0.06522123 0.020913359 0.072466195 0.2643581 -0.16496961 0.06590801 0.44074604 0.1227017 0.11161931 0.1504958 0.17425548 -0.051060703 -0.16356508 0.1846234 -0.16581063 -0.118555605 -0.020656997 -0.176773 0.095449604 -0.07599099 0.3439922 -0.022092205 0.27470297 -0.098758005 -0.188278 0.24547358 -0.0071494984 0.048135396 0.20372422 -0.1472923 -0.0963422 0.049819496 0.228289 -0.035590302 0.13410829 -0.1819051 0.09237721 -0.0509797 0.1114545 0.09575758 0.13417499 0.16585821 -0.42961484 0.15883346 -0.0383089 0.18998018 -0.1343578 -0.09606409 0.033316612 -0.13280551 -0.028648201 0.12354292 0.24869643 -0.1398984 0.12528111 0.040146 -0.22545801 -0.08087069 -0.095934406 0.126999 0.12108836 -0.035050515 0.044659432 0.153078 -0.420778 0.027332503 -0.0210871 -0.249256 0.21687625 -0.119674504 -0.029736502 0.1899707 0.06487539 0.0636942 -0.15294151 0.202919 0.016880399 0.0121 -0.018677047 0.055238795 0.340062 0.14778821 -0.054039497 -0.11722761 -0.14966178 0.20032799 -0.23338859 0.13754319 -0.018861571 -0.2071594 0.12672429 -0.06541401 0.8340049 0.20316349 0.43233052 -0.064807 0.054980565 -0.109362505 0.002965799 0.1711937 -0.17557189 -0.0544814 -0.06238371 -0.085862 -0.0429819 -0.06725781 0.122947805 -0.093717694 0.063171 -0.156477 0.022354394 -0.2114727 -0.046916004 0.12455539 -0.0832552 -2.9098988E-5 -0.03550501 0.16955523 0.3085196 -0.1373084 -0.100983694 0.09921261 0.0597002 0.08382139 -0.2774938 -0.19601749 -0.15017329 0.19509211 -0.10871271 0.28664252 -0.0744933 -0.20810454 0.1118418 -0.2982402 -0.096810006 0.15238899 -0.263278 0.0086011095 0.032108366 -0.04708421 -0.21945272 0.0732652 0.021796906 0.15168901 -0.10476329 0.16091521 0.440375 0.40658304 0.18240951 0.046930898 0.130028 -0.06446801 0.014277798 -0.21379726 -0.2907059 -0.06363021 -0.007993695 0.2740203 0.25839183 -0.08378885 -0.10024019 0.109345905 -0.37145922 -0.2644945 0.1092335 -0.3560025 0.23756082 -0.1229527 -0.75353 -0.2104183 -0.33220074 0.1371523 -0.0628611 0.4245192 -0.06596419 -0.068029396 -0.29957023 0.21607399 0.34267062 0.2155443 -0.1785251 0.013251299 0.105393305 0.25588748 0.35310858 -0.213835 -0.24533652 -0.15952952 0.32497928 0.003097996 0.04517711 0.11887603
club 0.28286335 0.37843335 0.32880366 0.034700334 0.24089734 0.19199368 -0.151627 0.22461334 -0.3982466 -0.97964 0.39141667 0.19954666 0.17006665 -0.01093333 -0.24971566 0.12393734 -0.07189467 0.28620502 0.13013333 -0.5258567 -0.30906034 0.38810635 0.042201005 0.48462003 0.030211668 -0.32223666 0.045936666 0.19236168 0.2935567 -0.062668 0.13988666 -0.36725998 -0.24180633 -0.055146992 -1.0369 0.14628467 0.23753333 0.14196569 -0.2689587 0.14386 -0.014128665 -0.31480893 -0.17011002 -0.011739994 0.38393998 0.257106 0.38763866 0.25532666 0.07614333 0.24921 -0.44744667 -0.05578667 -0.064929664 -0.16435334 -0.141211 0.6008934 -0.112606004 0.061210003 0.068083 -0.25924242 0.26367334 0.16358 -0.163818 -0.37659 -0.31384334 -0.20386335 -0.48109335 0.12947701 -0.28654402 -0.42850733 0.05417333 0.18157333 -0.34189337 -0.08955001 -0.58736336 -0.16041034 0.10609033 -0.096401 0.091050014 0.40425667 0.10068667 0.39540833 0.172984 -0.37607002 -0.17949268 -0.06610668 -0.104631335 -0.24980901 -0.10783334 0.25037402 -0.0422 0.117751 0.08091167 -0.24668334 0.86217 0.092254534 0.284487 -0.33879668 0.14456001 -0.22497034 -0.06861967 -0.0044646664 -0.138033 0.11992833 0.04968567 0.40672335 0.3892367 -0.40784666 -0.11998767 0.18806568 0.123210005 0.11806302 0.24812734 -0.53903335 0.051965665 -0.012423001 0.15316 -0.18514334 -0.13128302 -0.04423601 0.002001668 0.56818 0.42451668 0.326307 0.10153699 -0.03233567 -0.08733734 0.398306 0.087035 0.024443667 -0.0081066545 -0.105909996 -0.05387333 -0.08554634 0.021683663 0.14732033 -0.020409672 0.34749335 -0.5323967 0.27348 0.03189334 -0.19952911 0.31848067 -0.0016783327 0.10232999 -0.24025732 0.079323635 -0.134112 -0.30647337 0.43192333 0.28543967 0.005463337 -0.10017 -0.16300666 0.233366 -0.4736048 -0.15087634 0.08983867 0.039910235 0.23616134 0.20624332 -0.25763 -0.5402567 -0.09852334 0.030480001 -0.62956 -0.3162267 0.27296665 0.45837337 -0.46977 -0.109066665 0.18217728 -0.89583004 0.16039 0.28231335 -0.03548733 0.15939334 -0.24826 -0.043711003 0.77469003 0.23796001 0.1275 0.10699527 0.111505 0.62357 -0.27658004 -0.2900812 0.029164 -0.15684667 0.061060667 -0.243101 0.01225999 -0.025751334 -0.13034233 0.19287327 -0.134903 9.236634E-4 0.11920333 0.1913539 -0.021856677 1.3965667 -0.12757134 -0.05841867 -0.124092326 -0.30094 -0.093826674 0.24878335 0.19163135 -0.12752134 0.10811567 0.18999635 -0.08536501 -0.6240067 0.10145297 -0.19428802 0.059133336 0.07305367 -0.12580335 -0.2534327 -0.28161 -0.012739668 -0.28266 0.14645666 -0.50269336 0.29982334 -0.22796333 -0.51661 0.08983667 -0.17757508 0.18744242 0.25560337 -0.18644002 0.28886002 -0.41629 0.17014334 0.034827664 0.1652794 0.4107667 0.11796 0.18123268 0.58813 -0.09540667 0.21431634 -0.10147833 -0.32991 0.31977 -0.37102336 0.059783325 -0.23133335 0.139981 0.05194433 0.087357335 -0.07954566 -0.29787 0.26065233 -0.19893321 0.026152601 -0.34086 0.09003334 -0.34962332 -0.18945533 -0.33963335 0.25701666 -0.015660334 0.14623667 0.02798301 -0.16334167 0.37361667 0.01020433 -0.19757667 -0.024452668 -0.085530005 -0.16551235 -0.18572466 0.64004934 -0.050119333 -1.3276234 -0.20042734 0.13120666 0.49503002 -0.106844336 -0.15657534 -0.054463334 0.4164557 -0.19351867 -0.28681403 -0.33308667 -0.08481668 -0.12446334 -0.14512667 0.0075099915 0.19984701 -0.45291337 -0.21578269 0.10703634 -0.22628634 0.17218333 -0.090459004 0.134432 -0.24306333
deathPlace 0.21438323 -0.033092666 0.03541667 -0.10660667 -0.09342448 0.1193106 -0.009867777 0.1652878 0.008132953 -0.68825334 -0.088927336 -0.14349088 -0.21225765 -0.42750648 -0.03547275 -0.15491588 0.37358087 -0.03828033 0.0024242203 0.038092785 0.11149054 0.054514106 0.27006382 0.16917577 0.05619422 0.056603584 0.08641222 0.131831 -0.037260447 -0.11804121 0.16074826 0.13676111 0.056620743 -0.25550264 -0.17018244 -0.30701447 0.1789548 0.035227556 0.026076224 0.0012998879 0.31277612 -0.15091363 -0.3327289 -0.08351423 0.050006226 -0.107955664 0.07222978 -0.009240669 -0.055815116 0.099823 0.015646005 -0.07640889 -0.10474345 0.10561955 0.17745467 0.11096263 -0.042996444 0.27060425 0.09284356 0.07789455 -0.015585673 -0.19590755 0.1545287 -0.18493223 9.1766485E-4 -0.27589002 0.35862377 -0.009483219 0.014003111 0.2732778 0.17886555 -0.11570222 0.0112167485 0.13315314 0.17089546 -0.15937577 0.0030802223 -0.22409913 -0.37390867 0.07897189 0.05662556 7.783373E-4 0.160285 0.18645255 -0.15609522 0.1590969 -0.3493261 0.20933066 -0.16196579 0.23887044 -0.12003022 -0.3373213 -0.09047555 -0.13827524 -0.12151311 0.20043476 -0.25185746 0.017823355 0.08255 -0.4505855 -0.010579223 0.18233019 0.26740554 0.09386667 -0.002962553 -0.21539123 0.30325535 0.008641665 0.12848744 -0.011924888 -0.08804333 0.27448878 -0.2853161 -0.26195303 0.14513466 0.157326 0.15811999 0.034170892 0.10602833 -0.24455945 -0.1905321 -0.4696013 -0.12344866 0.529827 0.020143654 -0.120785 0.012888885 0.19999713 0.09931933 -0.075848 0.127923 0.33247 0.090296894 -0.019574437 -0.1466556 -0.05765122 -0.07062605 -0.14097533 0.21563733 0.019252667 0.14590754 0.1233669 -0.14987133 0.16450723 -0.2575311 0.0029162236 -0.09137532 0.108256005 -0.02995755 0.18537688 -0.33874214 0.09137836 -0.22124073 0.04305956 0.288709 -0.01811356 0.15858288 0.15514477 0.094083674 -0.3045627 0.021955993 0.025949998 -0.03929144 0.12970667 -0.023869123 0.38245 0.31064242 -0.03295739 -0.3018489 -0.13815178 0.11748889 0.47496074 0.10722556 -0.18916689 0.06729511 0.007182777 0.2000887 0.03482034 0.18049788 0.20530578 0.27168003 -0.072726764 0.16166657 -0.12338977 0.25541577 0.09264659 -0.32848388 -0.23189054 0.011301775 -0.11916178 -0.06512812 -0.18723756 0.12644231 0.073065 -0.10154271 -0.10614923 -0.09046777 -0.08867679 0.28307146 0.02661022 0.5102656 0.17048556 -0.007809446 0.13524866 -0.2514399 0.20710546 -0.07386456 0.110557 -0.15008847 -0.17457232 -0.20746355 -0.2638339 0.013818113 0.07887001 0.06695865 0.08722964 0.16699845 0.012485225 0.090918474 -0.107215226 -0.029402217 -0.12518 -0.12217666 0.12466589 -0.19952042 -0.095154785 -0.046855234 -0.06615956 0.3154751 0.029754443 0.33616468 -0.058324113 -0.13182934 -0.20700778 -0.09521478 -0.055457115 -0.02780711 -0.0156131955 0.124450445 -0.18504024 -0.21896245 -0.26817623 0.23539098 -0.15595989 -0.289261 0.22990333 0.21926668 0.028891739 0.22199777 -0.12655145 -0.20383345 0.10026544 0.006079673 0.25656214 0.62266713 0.33858755 0.3167433 0.12680955 0.35087693 -0.021273557 -0.025128104 -0.1729178 -0.19668232 -0.09832934 0.031717442 -0.014007115 -0.170042 -0.14466757 0.20137222 -0.10829288 0.20120934 0.023372883 0.33549303 -0.013982889 0.01620778 -0.18992555 -1.2259789 -0.055128224 0.13983734 0.16419555 -0.093225 -0.09959245 -0.19290622 -0.027587997 -0.024141867 0.14243789 0.131129 0.07455778 -0.3512622 0.094711 -0.106129326 -0.06686077 0.19354166 -0.24775572 0.05058633 0.2272438 -0.021366114 -0.26441613 -0.07616577 0.07704634
debutTeam 0.020229671 0.4815187 0.002385497 -0.25026068 -0.07665317 0.2061675 -0.14991501 0.15245168 0.078037664 -0.8518984 0.16451417 0.050855674 0.04547915 -0.17977636 -0.15423973 -0.02057167 -0.15785517 -0.1830756 0.017817196 -0.22740984 -0.06816717 0.07813066 -0.08744417 0.30064517 0.057532832 -0.06642383 0.06491628 0.11684167 -0.09941116 0.027654838 -0.050004832 -0.13353118 0.038429838 0.20778333 -1.1047451 0.27188867 0.12931333 0.232409 0.0050483323 -0.040223837 0.025342172 -0.13127434 -0.0239005 0.19467235 -0.052319836 0.107002996 0.003540799 0.1531555 -0.14878666 0.15682517 0.0065373345 -0.022227835 -0.25683832 0.2662835 -0.06824616 0.27670518 0.07982622 -0.117685005 0.158169 -0.045697495 -0.35674495 0.18619065 -0.22112173 -0.23068666 -0.015955165 0.021334669 0.25281736 -0.16336684 0.12656567 -0.22072837 0.049810015 0.28290135 -0.019949328 0.0661245 -0.28418985 0.15227568 0.19208318 -0.14480905 0.016166521 0.10426317 0.004259336 0.18145785 0.10161167 -0.08996451 -0.051382005 -0.05708317 -0.06651167 -0.048219837 0.27962217 0.056553505 0.021438008 0.12339185 0.1612417 -0.40657598 0.083292335 -0.0546395 -0.21045344 -0.27679038 -0.10010067 -0.50304335 -0.107264005 0.114311665 -0.029775104 0.11784083 -0.045300167 -0.3044055 0.3210467 0.1653295 -0.064673334 0.18025768 0.22706753 0.11230817 -0.112311006 -0.14370999 0.14588217 0.12187334 -0.21956408 -0.008099837 -0.06620517 -0.39237 -0.21533868 0.07010084 0.15627801 -0.053742833 -0.22622782 0.009640168 -0.128367 0.027116671 0.15823434 0.15493934 0.13399565 0.15710501 0.06454034 -0.15114968 0.16194934 0.16502783 0.280235 -0.11823433 -0.26266852 0.044515334 0.0061836643 -0.114446335 0.037193336 -0.06548217 -0.031255167 -0.17419666 0.15311183 0.0601875 -0.26508668 0.15111668 0.4333435 -0.271138 -0.12966433 -0.14715783 0.5860351 -0.2812042 -0.42386 0.08257567 -0.16809517 -0.05042567 -0.1391005 -0.03611402 -0.049125668 0.22597651 -0.038208507 0.018367331 -0.17273657 0.2789417 0.19679433 -0.0934394 0.18422765 0.21936566 -0.34508166 0.022681167 -0.160604 0.20766334 0.077574834 -0.031052083 -0.028732333 0.50687385 0.19262418 0.16762051 0.05510299 0.014903034 0.0732225 -0.093553 -0.6230817 0.181617 -0.22978 -0.09280666 0.038121838 0.123827145 0.094041005 -0.086204045 0.015875 -0.09683683 0.124767005 0.24154902 -0.026242165 0.06737454 1.2493684 0.12646167 -0.1662963 -0.082915336 0.09510167 -0.21045785 0.055501845 0.32972336 -0.24294633 -0.02362833 0.061748337 -0.13617384 -0.16913268 0.24012583 -0.0537845 -0.2483912 -0.011732331 0.1297761 0.036255665 -0.082308665 0.1759225 -0.015808836 -0.33947667 -0.13629 0.24055201 -0.19175202 -0.0031579833 0.005602996 -0.26049432 0.057234168 0.03466466 0.039647035 -0.06330117 -0.19646016 0.10425051 0.123936236 -0.046641506 0.023707833 0.22839376 0.34311497 0.15340619 -0.001807337 0.11615516 0.066836 -0.10358634 0.100723 0.121388316 -0.06908267 -0.15603617 0.044091336 0.2309025 -7.4248516E-4 -0.096745 0.29357135 0.09851601 -0.06279584 0.34487385 0.02256333 0.28920168 0.38443002 -0.23223166 -0.14163516 0.10485351 0.115092844 0.00558969 0.113243334 -0.31076264 -0.39209998 -0.20603834 0.04443217 -0.0084936675 -0.134495 0.051249497 -0.021830827 0.28886834 0.11638117 -1.5200951 -0.017724946 0.26893002 0.22437501 -0.18664233 -0.16861266 0.01963365 0.47196993 0.045103665 0.048158508 -0.30007166 -0.006828164 0.01597767 -0.09896275 -0.14393917 -0.032125674 -0.3083717 -0.042689003 0.21075836 0.4201517 0.11092415 -0.25630248 0.04045651 0.010740001
department 0.034132503 -0.09911 -0.17151225 -0.32696 -0.3377235 -0.023053005 0.24274501 0.26242 -0.077105 -1.6619 -0.16242501 0.0962215 -0.05439285 0.29731 0.052310005 0.330935 -0.281887 0.32024 -0.020469993 0.20159999 0.2126239 0.028622499 0.423201 0.109625004 -0.124074996 0.10063499 -0.070586994 -0.19416206 -0.1203635 -0.074454 0.2503586 0.026254997 -0.005289998 0.310085 -0.82969 -0.005010009 0.44342 -0.215125 -0.2006645 -0.39047602 -0.0316967 -0.125355 0.0146485 0.5096785 -0.21616401 -0.2253725 0.04804501 0.10883999 0.0685955 0.2187145 -0.27317652 -0.033350002 0.043017 0.102505 0.004545003 0.0311415 -0.41472 -0.26568002 -0.033495 -0.3614185 -0.263545 0.028069995 0.16736999 0.41916 -0.218605 -0.65783 0.298676 -0.120516 -0.061865002 -0.26855 -0.0474115 -0.059767 0.14251 -0.096329 -0.539455 0.27803499 0.103988 0.2617835 0.0846475 -0.248161 -0.062001996 -0.0117725 -0.31399 0.1169385 0.08393 -0.037327997 -0.364765 0.082779996 0.0011090003 0.13597849 -0.33001 -0.0502095 0.150495 -0.040825002 0.125926 0.0435735 -0.49139 0.264635 -0.23929 -0.32885 0.280845 -0.20396851 -0.0961345 -0.152123 -0.047342498 -0.17626749 -0.018621998 0.25819498 0.025775008 0.211004 -0.144515 -0.377285 -0.22556701 -0.22983 -0.038345 0.1389734 0.0770675 -0.18515301 0.25585 0.0979 0.109455496 0.0032779998 0.22371149 -0.17325225 -0.279329 0.051937997 -0.21219999 -0.1545915 0.103365004 0.20609501 0.48662502 0.13816 0.57291996 -0.279125 -0.17833151 -0.032730505 -0.016279995 0.276945 -0.267285 0.481955 -0.158185 -0.015069999 0.1496105 -0.022830501 -0.31252998 -0.19832401 0.254155 0.105645 0.033710003 -0.013387 0.6551388 0.06875549 0.54921 -0.0356105 0.1396525 -0.384485 -0.450775 -0.23834701 -0.25879 0.139045 0.54407203 -0.0354995 -0.18255 -0.41114002 0.094001494 -0.07711901 0.083175 -0.345835 0.065895 0.273735 0.0496015 -0.22117901 -0.5112 -0.0053000003 0.298825 0.1532465 -0.096485496 -0.16260499 -0.400785 0.03441999 0.07738501 0.340225 0.15918 -0.032748 0.46574998 0.100999996 -0.107225 0.1125165 0.0757185 0.123015 0.042784996 0.022559151 -0.073625 -0.1163352 -0.084054 0.150665 -0.046085503 0.0802685 -0.028914995 0.039405353 0.593805 -0.1849265 -0.02636865 -0.1712345 0.011285 0.033760004 -0.187985 0.017875 0.012129992 -0.17332369 0.0060772505 0.27138498 0.0738265 -0.0128155 0.1446565 0.103605 0.038550004 0.2761945 0.22844002 -0.0388485 0.121135004 -0.33125 -0.5651 0.02621825 0.23694 -0.318545 0.338915 0.0142899975 0.2156725 0.16215715 0.13607 -0.053195007 0.188175 -0.29669 0.06678501 0.0944935 0.006221175 0.0034923002 0.23484999 0.36165 -0.1649405 -0.202045 0.674515 0.1231435 -0.44187 -0.15787 0.260815 -0.3028 1.4549866E-4 -0.13673 0.26574498 -0.0041749924 0.33302 0.10580501 0.3601785 0.248515 0.104635015 0.029210001 -0.096039996 0.32147 -0.20919749 0.092696995 0.086853 -0.013854835 0.18332 -0.108743496 -0.1580275 0.15684 0.28798497 0.1479945 0.08567 -0.014975004 -0.21467 0.44430998 0.15676999 0.008605003 -1.8633001 0.143805 0.60045004 0.2075765 -0.19066 -0.066745505 0.34765413 -0.20822749 -0.013869501 0.120873496 -0.0352395 0.286687 -0.016794998 0.0690195 0.0451185 -0.0979585 -0.099004 0.033659995 0.315135 0.38226002 0.20976865 -0.18896301 -0.405945 0.28889
district -0.030270495 -0.061432526 -0.15030749 0.10983625 0.25096673 -0.107565 0.037532493 0.49988 0.0059724897 -1.1374326 -0.14006424 -0.13602774 -0.1337125 0.15355474 0.4103075 0.020756517 -0.25767002 0.20248526 0.13472715 0.255455 -0.10254249 0.19080001 0.28062278 -0.1903575 -0.06970425 -0.5276225 -0.0033299997 -0.209714 -0.22176825 -0.07323425 0.49869248 -0.11440701 0.14913225 -0.0769075 -0.13673525 0.116318 -0.04815925 0.1526777 -0.27879003 -0.07256575 -0.055425003 0.108613 -0.165764 0.18649372 0.394025 0.21013355 -0.0026325062 -0.052846007 0.059975 0.298195 -0.0744905 -0.17914675 0.21604349 0.035368986 0.28689498 -0.37274748 0.1500905 -0.09003751 0.30097726 -0.2455025 -0.148605 -0.25118083 -0.2973735 -0.25274524 0.12720251 -0.023955002 -0.286618 0.115096495 -0.025523994 0.009809922 -0.09183 -0.38553214 -0.172225 -0.0036939941 -0.35693 -0.075469986 0.211205 0.10467251 0.11173025 -0.110423066 0.21246849 -0.32423425 -0.072494745 -0.094485 0.1601735 -0.119944245 -0.264195 -0.13649176 0.2915575 0.22789 -0.26699072 -0.11811124 0.12037725 -0.0634775 -0.3057675 0.10677025 -0.097792745 0.21204475 -0.15569976 0.043892015 -0.1146587 0.07719617 -0.13666674 -0.1228435 -0.18409626 -0.0053300112 0.077183254 -0.051437497 0.5583325 0.26932725 0.11792577 -0.4718225 0.060299248 0.03502025 0.111688 0.28587803 -0.16266225 0.08510374 0.10041499 0.16285875 0.29949299 -0.02095875 -0.11942475 0.123357 -0.031710245 0.1002075 0.221485 0.120014995 0.0959825 0.14376874 -0.15961951 0.18152076 0.09656001 -0.10160951 0.18545726 0.035046246 0.23616001 0.015072502 -0.12506999 -0.048519254 -0.261874 -0.13323724 0.009999751 -0.2714225 -0.5426025 0.025172502 0.12787 -0.1845775 -0.47715676 0.022209752 0.45611998 0.027007103 0.110190004 -0.0585175 0.72892 0.1627185 -0.33125225 0.080865264 0.561445 0.0060199946 -0.108408 -0.10232999 0.34478998 -0.278025 -0.19848499 -0.3406525 0.02138472 0.0920925 -0.334475 0.042515773 -0.09625875 -0.141469 -0.22903751 0.1026825 0.18074149 0.411245 -0.13596025 0.331248 -0.1328505 0.21829002 -0.031416755 0.09953002 -0.4129175 -0.24308902 0.3700625 0.11437938 0.0770185 -0.18422249 -0.45105773 0.10547175 0.4497125 0.12870575 -0.1055805 0.08126748 0.340255 0.036015008 0.32761 0.055817503 0.1272975 0.32260102 0.8427075 -0.021110006 -0.4134 -0.036740005 -0.22411 -0.2650675 -0.12172 -0.16309398 0.1497075 0.3297275 -0.1639165 0.2156625 -0.098492496 -0.052527502 0.009565551 -0.2570378 -0.097316 0.3227925 0.017835254 0.07124451 0.22496599 -0.384543 0.16942024 -0.086865 0.176 0.09860878 0.2311625 -0.015817001 -0.36863923 -0.274345 0.049769998 0.20830001 -0.20030749 0.2825545 0.096497245 -0.06461808 -0.150042 0.116953 0.42048252 0.10708249 -0.096464 0.019643247 0.8629425 0.15625075 -0.34443498 0.28634024 0.09108425 0.039095506 -0.060383752 -0.13030192 0.0106925 0.13219824 0.091352 -0.034627497 -0.14524226 -0.0023850054 -0.031712748 -0.06387851 -0.18993601 0.29003352 0.2130315 -0.12598251 0.1779275 0.087202996 -0.087364994 -0.23145503 -0.0276105 -0.21653324 0.27437502 -0.11497325 -0.06608876 0.074360006 -0.103949 0.093412496 0.004755251 0.10736175 -1.579855 0.4080925 0.1635525 0.05558225 -0.195027 0.145985 -0.2784062 -0.103492506 -0.28689 -0.13262752 0.14388154 0.2430625 -0.028958246 0.0678835 0.1326975 -0.040002998 0.031846493 -0.038969755 0.052198246 0.7516258 -0.06299725 -0.5168825 0.052034 0.0027888268
doctoralAdvisor 0.064853445 -0.06857339 0.12538387 0.07128346 0.07988615 -0.20281741 -0.14676557 -0.24635988 0.17576744 -0.5560414 0.14614901 0.11781071 0.23566644 -0.21721901 0.1593543 0.17019501 0.08396001 -0.063259006 0.18121873 -0.014548292 -0.111872286 -0.04881615 0.11133158 0.19991787 -0.60859144 0.19679007 0.100711435 0.22470087 0.008029291 -0.3714569 0.2139993 -0.030504288 0.16001016 -0.027499562 -0.39626142 -0.013691031 0.12023529 0.15035287 -0.17065959 -0.17789002 0.5879427 -0.14377272 -0.2951383 -0.20255242 -0.331547 -0.02586143 -0.020805616 0.27384144 -0.26234144 -0.05794815 0.1482837 -0.16862574 0.025398131 -0.021729568 0.002222138 0.11489543 0.19970615 0.05920429 0.04729229 0.16309159 0.047222856 0.11719857 0.24896288 0.55880004 0.09341429 -0.28723285 -0.024409996 -0.16423163 -0.26740175 0.03625243 0.120221436 0.013661858 -0.058538575 0.1529413 -0.15245573 0.22730473 -0.13384083 0.4496472 -0.07572338 -0.30173102 0.12731229 0.034665 -0.27110574 -0.05422328 0.24014787 0.30416146 0.22192271 0.115649566 -0.08841201 -0.21720374 -0.3389686 0.05484714 -0.11964015 -0.15926057 0.14525056 0.13374045 0.08220687 -0.023493858 -0.052537426 0.06733357 -0.042694006 -0.08965286 -7.6714373E-4 0.13334557 -0.073686875 -0.186655 -0.019498572 0.112220064 0.06706699 -0.010351429 0.050162148 -0.13515972 -0.11385916 -0.19287986 0.1306323 0.07296714 -0.19850756 -0.2737543 0.041307285 0.34193832 -0.15047085 0.6547843 -0.21004286 -0.2479957 -0.06294 -0.0011745691 0.013908289 -0.11089327 0.13750744 0.05900729 0.12535973 -0.6472729 0.082606286 -0.28752464 -0.19846001 -0.0824 -0.4296233 0.12678686 -0.2810433 0.30013287 0.50555146 0.12970945 -0.0066418583 -0.078081004 0.16216956 -0.06244955 -0.035917006 -0.25024056 -0.16912717 0.056532003 0.37960002 0.039079428 0.21340631 0.36848444 -0.074637145 0.16167413 -0.06716629 -0.31588143 0.20564944 -0.03786385 -0.007980428 0.13632858 0.08278715 -0.11615944 -0.33444574 -0.094520286 -0.07718309 0.14174229 0.30152145 0.08344071 0.08296158 -0.3631623 -0.41284412 -0.07557129 0.14051959 -0.06159001 -0.056708712 -0.22093287 -0.29196113 -0.16200788 -0.09548714 -0.026100863 -0.081252724 0.14868815 0.032207143 0.20539102 -0.75466716 0.28504714 0.012600003 -0.416184 -0.23056103 -0.27221859 -0.09693286 -0.010498565 -0.18257144 -0.08468301 0.13972287 0.20581488 0.22517343 -0.27517915 0.0024699995 0.2711487 0.01785528 0.25279498 -0.20497073 0.080960855 -0.24721572 0.19276859 0.105621435 -0.1635695 0.2966743 -0.36774725 0.49642718 -0.031739287 -0.184967 -0.1268543 -0.27360559 0.058728147 0.038851004 -0.14805014 -0.2754486 -0.10799728 -0.3312496 0.12271401 0.224701 -0.1797836 -0.27702332 0.38511798 -0.19584544 0.10218857 0.082253434 0.3596986 0.1172716 0.17006473 -0.19555801 0.16077614 -0.19093288 -0.06571343 -0.11660272 -0.3619329 0.06254128 0.261514 0.22595999 -0.12737158 -0.097873285 0.38691142 -0.46100432 -0.39849988 0.08545286 0.20802686 -0.1268653 -0.031191716 -0.03197086 0.1970342 0.3970299 0.19976172 0.0021228536 0.23926957 0.10360243 0.24561004 -0.08314654 -0.24794245 -0.043811645 -0.096825145 0.06202343 -0.098307714 -0.09156614 -0.11062314 -0.2052383 0.09356228 -0.37489173 -0.079900004 0.26692575 -0.108626574 -0.19718915 -0.021520438 -0.5491356 -0.12484144 0.54402274 -0.28757945 0.14089672 -0.2540987 0.15850373 -0.2856139 0.19474871 0.14775202 0.30247563 0.40790573 -0.06412374 0.012760146 -0.06709012 -0.27281287 -0.16497575 -0.36646673 0.15927558 -0.27365175 0.17142287 0.026297655 -0.24996431 0.29240626
doctoralStudent -0.21747726 0.030483298 0.062512 0.18886101 0.053154577 0.2375375 -0.286665 -0.62129307 -0.07409325 -0.69924504 -0.028769992 0.2623445 0.185155 0.015419997 0.0815125 0.02829675 0.12610617 0.07105675 -0.037208248 -0.1217785 -0.21877 0.17661801 -0.3171395 0.39899874 -0.37562776 0.13390423 0.23951724 0.3219875 0.21577325 -0.3175095 0.52231 -0.048919506 0.022409998 -0.0060497522 -0.2206685 0.08522551 0.27025852 0.10546875 -0.031913996 -0.177928 0.61875 -0.4726825 -0.25364524 -0.20361274 -0.14877726 0.0688975 -0.047991827 0.37420002 -0.07475176 -0.4814175 0.35075474 -0.273985 0.1317775 -0.1523315 0.22862425 -0.13617276 0.19494075 0.095622495 -0.08783275 0.319875 -0.23498 0.030244999 0.487485 0.3145575 -0.0341175 -0.025632503 0.071660005 -0.3284101 -0.50374997 0.031763256 0.1427945 -0.060326874 0.14745225 -0.018895492 0.026687503 0.06862449 -0.036291674 0.39489302 -0.018346652 0.006203994 -0.14219251 -0.2579135 -0.015307508 -0.3056625 -0.060185008 0.41553748 0.22843975 -0.08836075 -0.28504 0.077489994 0.07516802 -0.106248744 0.033072498 0.016032502 0.33957 -0.16321474 0.18336275 -0.07855074 -0.25998375 0.079633 -0.054893002 -0.075497 0.11525676 -0.11699 0.09871051 -0.09445425 -0.04758499 0.25081247 -0.05972499 -0.14265874 0.140945 -0.409859 -0.050157517 -0.13723001 -0.23563072 0.0969775 0.0058375 0.12446749 -0.034355998 0.4425025 -0.260465 0.737055 -0.013369255 0.25783247 0.0861825 -0.15750474 -0.011137754 -0.303715 0.131447 -0.21575874 0.029331744 -0.489485 0.12230025 -0.1329275 -0.19075249 -0.24118125 -0.42119002 0.15288001 -0.27826074 0.2130695 0.4818125 0.030253246 0.0046345005 -0.24153624 0.40715978 -0.20757496 0.29041252 -0.052299753 0.47699246 0.254725 0.40071 0.2321955 0.483635 0.3515925 -0.0766811 0.18633974 -0.36744252 -0.055206493 -0.010379247 -0.464385 -0.065957 -0.13136274 0.18827 -0.22699025 0.020494908 -0.26044676 -0.19668001 -0.085325 0.40236527 0.21656248 0.29655498 -0.24656 -0.399785 0.14724 0.18634376 -0.10737825 -0.17601252 -0.23519424 -0.32571 -0.08867699 -0.135418 0.02720175 -0.50040275 0.14103426 0.16978 0.06384675 -0.45848 0.15316176 0.10061674 0.07172199 -0.214205 0.019228874 0.1575275 0.190863 -0.06743651 -0.0051392484 0.07874 0.061065003 0.24274625 -0.407205 -0.03673674 0.3005025 -0.174685 0.10151 -0.24787875 -0.0265375 -0.514705 0.113886505 0.010223748 0.078169 0.510165 -0.35628748 0.170223 -0.15897426 -0.07392825 -0.16560175 0.059367493 0.098086506 0.22491348 -0.28243273 -0.265435 0.2857625 -0.62367 0.4108715 0.044257246 -0.076179996 -0.259641 -0.10104275 -0.34087074 0.044502497 0.0052362233 0.26562 -0.03615145 -0.058952242 -0.43918252 -0.132527 0.005886751 0.15156 -0.19268501 -0.13418105 0.1603715 0.11768851 0.27416325 -0.06794013 -0.7855525 0.22828999 -0.04935 -0.135916 -0.07538 0.167583 -0.113097325 0.06515975 0.18103674 0.10407525 0.2548375 0.2041175 0.09547325 0.29470825 0.15004526 0.2083075 0.040164 0.045312494 0.1765925 -0.19935626 0.272676 -0.060908496 -0.10210348 -0.08395769 -0.129115 0.288953 -0.2371305 -0.05721175 0.3672525 0.12297801 -0.38629 -0.3224425 -1.1384925 -0.08659533 0.39583972 0.005012747 -0.050487 -0.10281001 0.05932475 -0.1040525 0.17634675 0.16212 -0.126838 0.37390774 -0.21477929 -0.0014226248 -0.3418839 -0.31968802 -0.12589574 -0.15619999 0.35753998 -0.247946 0.23325177 0.12079501 -0.0648465 -0.132045
employer -0.33815667 0.68093 0.19888934 -0.019110005 -0.11374 -0.18298 0.2864067 0.37703067 -0.135602 -1.1548867 0.044583343 0.183373 0.031178001 0.12539333 0.5028797 -0.26074 -0.07857168 0.02648567 -0.14493367 0.114434674 0.17172334 0.10030466 0.44839 0.14964467 -0.08866601 0.15862304 -0.24120668 0.28487802 -0.13410333 0.29174668 0.09659332 0.20172 0.17477635 -0.21387336 -0.46229333 0.103688 0.28302735 -0.11402334 0.38325667 -0.58117 -0.008439332 0.19882 -0.03914334 -0.122892275 -0.4736867 -0.32155 -0.12866402 0.143386 0.17946666 -0.23772667 0.25446 -0.22044 0.5466167 0.17837399 -0.06814367 -0.08758001 0.23795335 0.296743 -0.06871334 0.33539003 -0.20407668 -0.32567 0.19358668 0.17173335 0.24886915 -0.23466335 0.131596 0.019543335 0.16104667 0.12716334 -0.13820666 -0.21172667 0.124683335 0.14616 -0.033272 0.06550634 -0.22616002 0.39202332 0.36634 -0.17719 -0.21365468 -0.29150337 -0.22375034 -0.59024 -0.12875667 0.41629001 0.07546334 -0.16577 -0.12518734 0.25509 -0.27016002 0.28697336 0.11684333 -0.09489667 0.14450666 -0.42916334 -0.45919 -0.23728333 0.35088333 -0.35787004 -0.07521734 0.0266364 -0.4214167 -0.42293334 -0.018175997 -0.11434354 0.060957335 -0.061448332 -0.103796005 0.27455336 0.09286334 -0.29673535 -0.121688336 -0.012296667 -0.25198168 0.41651 0.08741667 0.10500668 -0.19463134 0.20067668 0.42185998 0.10521334 -0.077610664 0.24245334 0.06940134 0.14304 0.24118899 0.28086668 0.108934574 -0.075158 0.2099 0.152264 0.085549995 0.20285933 -0.42964667 0.004470001 -0.44438335 -0.24447334 0.173488 -0.03011333 -0.055813327 -0.21781668 -0.19353667 -0.26570335 -0.172156 0.31421334 0.058457002 -0.25968 0.16958335 0.12178999 -0.013096671 -0.21224335 -7.400016E-4 -0.019905014 0.10479033 -0.04096467 -0.585652 0.067723334 0.19280468 -0.42508435 0.19997667 0.19059335 0.077508 0.21791333 -0.169574 -0.23854002 -0.28992334 0.13675334 0.127718 0.29741532 0.039192 0.22348666 -0.48279 0.004829983 0.072691336 -0.14359333 -0.42719668 -0.077583335 -0.15770666 0.15387401 0.34824666 -0.29425934 -0.047403328 0.19327335 -0.15545334 -0.19582002 -0.048925005 0.209765 0.27928334 -0.38569337 -0.31436336 0.014752664 0.27399933 0.16688001 0.3817 -0.150352 -0.5332167 0.061691668 0.19359666 -0.3885567 0.13821666 0.33707333 -0.07012467 0.15551335 0.051093668 0.08573367 0.06486567 -0.023267996 0.32527336 -0.4221 0.16994 -0.20902334 0.30459335 -0.062191337 -0.101925 -0.055030003 -0.24333894 0.39623666 -0.20495334 -0.23136733 -0.16163668 0.26037836 -0.23180734 0.35575336 0.05708734 -0.2905967 0.21403667 -0.11774667 -0.027003339 0.018190667 0.12540933 -0.16662 0.25953 0.13948333 -0.21717 0.42313737 0.12603 0.061512 -0.37131798 0.115934275 0.41541 0.06786333 0.35852334 -0.25500667 0.023896664 -0.10417867 0.17237467 -0.31691268 0.06439667 0.049539335 -0.11018666 0.08427434 0.25059667 0.31197333 0.38353667 -0.113640666 -0.30763334 0.5079334 0.03742667 0.03538067 0.20558667 -0.10740566 0.0019803345 0.19984667 0.004532668 -0.009736667 -0.104866676 0.13747 0.21683668 -0.19806334 -0.010643333 0.30007333 0.21405336 0.18835668 0.21286267 -0.21082668 -1.3477001 0.29913002 0.07795691 0.08828807 -0.164464 0.031051334 0.103920005 0.4678467 0.33475667 0.06269267 0.16008934 0.014490004 -0.21811669 -0.08154333 -0.12423201 -0.15462467 -0.063873336 -0.072786674 0.17699668 -0.05819 -0.24473667 -0.03572134 -0.02024 0.19173667
formerBandMember 0.0023715429 -0.094036125 -0.081376776 -0.042262387 0.05595856 -0.2326177 -0.073656775 -0.102544695 0.19734283 -0.36971462 -0.18454324 -0.12663423 0.0076922793 -0.10144016 0.1730437 -0.055229373 0.028867003 -0.040877495 0.11641547 0.07692038 0.12733449 0.10273508 0.08268304 0.28119463 -0.06992968 -0.23667815 0.07472939 0.043272708 -0.066462465 -0.025332846 -0.0057608304 -0.16020854 0.027957536 0.18164253 -0.42464772 -0.15332802 0.055051778 0.07125069 0.062562004 0.18126024 0.2686928 -0.047879186 -0.27476355 0.062391464 0.28528625 0.217114 0.0052074515 0.07708307 -0.009057158 -0.27909815 0.13050847 -0.2078488 -0.1340698 0.28076908 -0.05603288 -0.024002621 0.020928536 0.073370695 0.09622 -0.25232363 0.12409923 0.04719174 0.14753093 -0.079205 0.13775595 -0.1461797 0.22365448 0.112239234 2.6416034E-4 0.16059777 -0.06625978 0.03664885 -0.16144378 0.013007614 -0.14101754 0.17941032 -0.0406477 -0.07780247 -0.11939184 0.026384003 -0.11271154 0.3377597 -0.020968616 -0.03709877 0.1764274 -0.01620546 -0.031583734 0.0314717 -0.0046776496 -0.2535302 0.17195676 0.097951315 0.17557149 -0.17965454 -0.081913546 0.04258746 0.28715846 -0.34466296 0.29565263 -0.12568454 -0.12678693 0.068065464 0.29235202 0.019726029 -0.07886406 0.11446777 -0.060727082 -0.037194077 -0.011031076 -0.015026296 0.049890466 0.08323132 -0.047004618 0.07748208 0.20105241 0.03843823 -0.10934816 -0.15103732 0.101275474 -0.14938876 -0.011558458 0.14076877 -0.2804744 -0.13561416 0.02338677 0.094746016 -0.1322602 0.10139186 0.20315434 0.015252462 -0.22649568 0.015577234 0.072413504 -0.4448887 0.09994747 -0.07857275 0.30033693 0.08843359 0.067816496 0.044602927 -0.099598385 -0.16412592 0.009200573 0.06752515 0.12230073 0.01280781 0.07499885 0.06514269 0.03491285 -0.119747475 0.416902 0.034375384 0.038372617 0.21342272 0.066764995 0.10003007 -0.15588401 0.19090825 0.2329564 0.15214024 0.047522236 0.05865061 -0.036916755 0.009655852 -0.18168409 0.122252084 -0.111097164 0.24191085 0.2814614 -0.025857577 0.05462577 0.042823076 -0.3062323 0.14243916 0.0038347796 0.11711416 0.17122562 -0.036815006 5.999529E-4 0.2721684 0.045738846 0.26204318 -0.01306692 0.23836333 0.06951032 -0.025290309 -0.2858464 -0.018381001 -9.4977254E-4 -0.06592231 -0.061492693 -0.11200551 -0.16168077 -0.05089393 -0.13389501 0.08623538 -0.014340855 -0.037462234 0.109333314 -0.016328713 0.8122908 -0.09270447 0.3536534 0.06641869 -0.12029233 -0.05782516 -0.03703384 0.17100187 -0.024047235 0.055613454 0.10651339 -0.051425193 0.20090623 -0.013825926 -0.019406458 0.1162726 0.0762607 -0.0671407 -0.043443616 -0.030197155 0.11073539 -0.16288947 -0.26940992 -0.007258154 -0.006092459 0.1898967 -0.1582004 -0.13714747 -0.14737254 -0.02464754 0.047450002 -0.03265029 -0.09430721 -0.22295572 0.112893455 -0.14120285 0.11980944 0.06826985 -0.14246377 -0.046880934 -0.10106493 0.021349693 0.17225307 -0.07525212 -0.14194177 0.23384394 0.20007831 -0.09286946 -0.019971386 0.038448226 0.026772385 -0.050860535 -0.1596617 0.052055616 0.33526435 0.16061595 0.27512163 0.007053616 0.039607313 0.059533153 -0.08829999 0.32248 0.0037549988 0.012765083 -0.18802992 0.13762641 -0.1875657 0.13689032 0.055664673 0.029870309 -0.18919209 -0.013024695 0.085730806 -0.24486332 -0.023821827 -0.039481197 -0.9283474 -0.10423985 0.17495564 0.052259237 0.03419907 0.1994569 -0.2118378 0.04627794 0.2672647 0.123510934 0.0048978603 0.09858794 -0.04318577 -0.1715391 0.052622154 -0.053530708 -0.075962305 0.015309311 0.051548928 0.2360753 -0.13012764 0.089829996 -0.34856644 0.2770416
formerTeam 0.12716967 0.15785192 -0.013592921 -0.059514165 0.14463484 -0.071089 -0.17149442 0.06172609 0.066054836 -0.7670125 -0.07697487 -0.068797916 0.044312567 -0.10016569 0.03126192 0.10433759 0.08335601 0.030301623 0.0138075035 -0.13137458 0.061767023 0.036159586 0.2351898 0.17623934 -0.13108942 -0.26730534 0.00982599 0.122805834 0.0315015 0.008609004 0.04438035 -0.13843636 -0.041601166 0.14038935 -0.6674358 -0.002839332 0.19467859 0.2473456 -0.01890825 0.089179 0.32522917 -0.048020676 -0.19486001 -0.063290246 0.12608233 0.017822994 0.026910594 0.13682485 0.006143585 -0.13680628 0.098097496 -0.25904602 -0.1536336 0.23097043 -0.05168017 0.09433834 0.0137449205 0.027404418 0.07370867 -0.17112061 -0.023418417 0.08639797 -0.025652584 -0.20277059 -0.025550574 -0.07306884 0.014879335 0.023379162 -0.09486 -0.1385316 -0.16074434 0.17877874 -0.15594117 -0.008548918 -0.31670958 0.22640407 0.008017831 -0.2186161 -0.029219579 0.17343184 -0.07037517 0.32074994 -0.049322836 0.06595801 0.07139584 0.022748083 -0.12266414 -0.010386318 0.055005994 -0.022163829 0.091504 0.15826216 0.22654283 -0.26240668 0.048561253 0.03771717 0.11344834 -0.25952643 0.19761536 -0.29528254 -0.059291422 0.14514342 0.23792052 0.09743466 0.09530725 0.11318658 0.036977753 -0.032082997 0.06961051 0.11755469 0.09905584 -0.04189242 -0.10409117 -0.17016858 0.3033291 0.17208984 -0.13803259 -0.10356 0.027613502 -0.113148496 0.06881734 0.07571076 -0.006233911 -0.012673499 -0.10744508 0.1483 -0.15349221 0.16973786 0.17273185 0.08050492 -0.14043376 -0.024652742 -0.035968464 -0.29551435 0.055867165 0.054620683 0.29313093 -0.032114357 0.01053299 0.068391174 -0.107852414 -0.13995096 0.14043662 0.20006952 -0.008024704 0.019279001 0.07259707 0.055970833 -0.0463545 -0.06452616 0.4702018 -0.09269416 0.05117975 0.16495192 0.219244 -0.09503376 -0.19568501 0.12114551 0.120815895 0.15206668 0.0059743375 0.048158746 -0.1256565 0.033805422 -0.08069959 -0.0067722476 -0.051632285 0.20825593 0.2502798 -0.15406871 -0.036363672 0.051468503 -0.4855667 0.1801031 -0.1671409 0.08145733 0.13710791 -0.019096833 0.08288854 0.45633826 0.18472669 0.32925418 0.059225585 0.168991 0.14993285 0.017299086 -0.427577 0.06349045 0.020978216 -0.103030846 0.007369002 -0.1648086 -0.15489142 0.02732656 -0.08285958 -0.058154415 0.041492414 0.025325999 0.1690372 0.0219886 0.9775259 -0.16143858 0.14071707 0.026222333 -0.10850869 -0.11734976 -0.138805 0.08280592 -0.025335163 0.08322884 0.08481201 0.01448459 0.008146664 -0.059430838 -0.044337 -6.44166E-4 -0.0101815 -0.07848325 -0.079474166 -0.10367283 0.20111643 -0.20449583 -0.20144908 -0.086146 0.066486835 0.031198164 -0.018131904 -0.019251645 -0.32892612 0.062549084 0.063257836 -0.09721367 0.02620561 -0.10902934 0.21214125 -0.061596718 0.11830133 0.06817117 -0.025508171 0.07205249 0.033759583 -0.013462082 0.26204458 -0.0226499 -0.120397255 0.058229666 0.2685495 -0.12171559 -0.06757042 0.084277 0.07096067 -0.0048624924 -0.123381674 -0.004839666 0.42098278 -0.023047416 0.24180649 -0.030170253 -0.071750954 0.09503468 -0.15829334 0.199355 0.012856834 0.15855634 -0.07516926 0.1820525 -0.21382535 0.044923257 -0.059262246 0.104298085 -0.12767783 -0.06704342 0.018744862 -0.1453355 0.10287999 0.08129942 -1.2595088 -0.024542337 0.2595347 0.19039583 -0.010685752 0.16573048 -0.01971833 0.089553595 0.32592452 0.08306442 0.018028429 0.021975331 -0.0011158288 -0.1807801 -0.0554385 -0.06772883 -0.14490476 0.034649 0.1417585 0.29364842 -0.07853331 -0.13845801 -0.31268328 0.15982
foundationPlace -0.23347165 0.092479005 -0.26369137 -0.08792263 0.02347347 -0.07665916 0.054424938 0.14046909 0.15306616 -1.2215399 -0.03624085 0.149388 -0.05496526 0.049106922 0.043303538 0.09769946 -0.13059779 -0.025562383 -0.11213868 -0.141328 -0.13205388 0.02060254 0.0693387 -0.030869992 -0.1990557 0.0016531509 0.0018106912 -0.1046137 -0.06016394 0.075561926 0.0034564 0.10344077 0.04070439 0.043841515 -0.23868525 0.22861625 0.07111561 0.16633308 0.020688463 0.053610537 0.05404491 -0.05944732 9.390827E-4 -0.04330392 0.011006384 0.06878284 0.044470303 0.1881464 -0.03353208 -0.010865693 0.07105316 -0.17805526 -0.020337686 0.06630793 0.046571 -0.02553362 -0.012746773 0.15765908 -0.10462331 0.13735738 -0.019084463 -0.0020613018 0.24629009 0.02076847 0.019135898 -0.0022096955 0.16447346 0.113463774 -0.15758991 0.25175816 -0.1714077 0.044193387 -0.10777039 -0.05948893 -0.08388062 0.22636226 -0.022000998 0.12395277 0.14517191 0.033831093 -0.072121 0.068942465 -0.09261686 -0.009702537 0.041091233 0.25227803 -0.010970078 0.004551845 -0.047716618 0.06408323 -0.11353523 0.015678996 -0.09272361 -7.7199825E-4 0.10686608 -0.13938724 -0.08757978 0.08821869 0.013970997 -0.11342469 -0.04656978 -0.005589928 -0.033309855 0.08375193 0.102296166 -0.034490306 0.054900378 0.13384093 0.023251586 -0.015497005 0.030531151 -0.23860325 0.0059686136 -0.18578282 -0.0771696 -0.07021994 -0.064107075 -0.056232087 -0.003700464 0.047653332 0.17628698 -0.030135922 0.17901711 0.09232351 -0.089956544 -0.07028339 -0.050907698 0.13496192 0.025907613 -0.071804315 0.041298006 0.04317185 0.15159576 -0.16190055 -0.07250822 -0.0343947 -0.025851306 0.033581924 -0.02036754 0.047534324 -0.1707033 -0.10973035 -0.07669703 -0.14596362 -0.13786077 -0.11072061 0.052228745 0.03426069 -0.18081501 -0.06308939 0.066942275 -0.006841455 0.12443643 -0.16947617 -0.02495908 0.019881373 -0.060694467 -0.048296306 -0.015101834 0.07983631 -0.038916703 0.068326235 -0.086009234 0.03936892 0.08220615 -0.13159831 0.09263538 0.048013855 0.08069292 0.21789938 0.22881563 -0.063169464 -0.07087398 -0.0046961904 0.16411555 0.16514464 -0.14789172 0.02823423 -0.11578638 -0.086605534 0.23233905 -0.078157 0.18864658 -0.06859369 -0.0111569995 0.026281852 -0.107782 0.14469461 -0.012570152 -0.04921585 0.08813846 0.18668498 0.33216885 -0.1820877 0.1057157 -0.013447462 0.117921226 -0.05310008 -0.14325792 0.09950044 0.34842253 -0.032338772 -0.10544977 -0.008533724 -0.029420229 0.024288544 0.051509775 -0.042626236 -0.11810616 0.22425853 0.09413662 0.024382768 0.2006107 0.06162798 -0.10615714 0.123230726 -0.0862046 0.124052234 -0.03872909 0.106877394 -0.063031316 0.04642562 -0.19793156 -0.014659268 -0.12094205 0.031840153 -0.011575851 0.18171076 0.08448311 0.022998381 -0.058738235 0.03875108 0.070716806 0.11132862 -0.078045 0.116253346 -0.041849613 -0.07504214 -0.04453308 0.1843287 0.012348465 -0.071291685 0.37611347 -0.13741015 -0.61741775 -0.009036768 0.30785903 0.13405624 0.046409227 -0.09765309 0.045727 0.04674808 0.008814229 0.029268926 0.048754234 0.0031816938 -0.029655691 -0.1353503 0.09171686 0.20882447 0.15278848 0.13779509 0.05416657 -0.019326078 -0.052404787 -0.054630384 0.018074233 0.14314307 0.22387332 0.016958231 -0.050975002 0.038105756 0.10422885 0.23145607 0.093575194 -0.03500108 -1.1319624 -0.016046692 0.52230996 0.07018416 -0.077080645 -0.17034258 -0.032951057 0.027174689 -0.050024156 -0.043105006 -0.10008893 0.25273263 0.02611916 -0.05207816 -0.07988753 -0.19306183 -0.09298507 0.073430695 0.16223179 0.114568464 0.08781333 -0.1470981 -0.11316077 0.07713642
headquarter -0.25475 -0.2374 -0.27081 -0.12163 -0.046901 -0.35564 0.28336 0.4838 -0.10432 0.10422 -0.30082 0.20046 0.36438 0.37267 0.10508 0.19724 -0.38303 -0.16991 -0.15781 -0.17208 0.54471 -0.25523 -0.0085043 -0.07069 0.036209 0.11109 -0.40334 0.12379 -0.0061726 0.50844 -0.12817 -0.51238 0.089138 0.19279 0.92632 -0.070416 0.014041 0.11861 -0.21779 -0.61156 -0.11192 0.31014 -0.26984 0.13142 0.29747 0.34983 0.1318 0.19791 0.11142 -0.2187 -0.13196 -0.40638 0.23075 0.20486 0.49208 -0.33534 0.28066 0.82794 -0.16094 0.14898 -0.12453 -0.13256 -0.29045 -0.043835 0.12291 0.40968 -0.39441 0.25583 -0.22844 0.070013 -0.0074558 -0.32197 0.25326 -0.12953 -0.16276 0.15395 0.14449 -0.16765 0.020729 0.011348 -0.36468 0.21021 -0.29268 -0.15078 0.011688 0.002458 -0.28469 -0.20355 0.39163 0.31685 0.15733 -0.056976 0.60992 -0.12159 -0.21854 -0.40515 -0.19325 0.31187 0.078278 0.3081 0.10588 -0.055 0.028452 -0.025883 0.28778 -0.71999 -0.13122 0.26108 0.22722 0.4402 -0.2678 -0.18783 -0.76316 -0.12436 0.016122 0.07123 -0.51523 -0.027729 -0.20039 0.30917 0.2349 0.094258 0.62354 0.033045 -0.12467 -0.082959 -0.15622 -0.40053 0.18065 0.054912 0.37939 0.12065 -0.07789 -0.72583 0.075803 0.43774 0.4611 0.057557 0.18143 -0.13553 -0.76951 0.18635 -0.18371 0.18058 0.24931 -0.4376 0.068023 0.31847 -0.25044 0.18817 0.48409 -0.086663 0.62528 0.17818 0.027829 0.0044034 0.12872 0.263 0.25401 0.18732 -0.35231 0.58339 -0.18149 -0.28155 0.36348 -0.021506 -0.48603 0.21873 0.2324 0.20609 -0.45803 0.29834 0.39687 -0.33898 -0.15982 0.41746 0.082636 -0.32026 0.080698 -0.29479 -0.28855 -0.037186 -0.18212 0.090289 0.42494 0.32825 0.17128 -0.38258 0.088933 -0.010569 0.65715 -0.0345 -0.58481 -0.032457 0.10038 0.50099 -0.2383 -0.036934 0.18127 0.46867 -0.41593 -0.36413 -0.04133 0.31735 -0.064854 -0.10519 0.2766 -0.53437 0.14804 -0.10892 -0.067541 0.36654 -0.45189 -0.2414 0.31852 0.093344 -0.097116 0.15502 0.090837 0.28228 -0.66483 -0.37552 0.16111 0.6269 0.22631 -0.44514 -0.41605 0.051455 -0.92615 -0.50948 0.22934 -0.067561 0.27497 -0.085005 0.4143 -0.0084039 0.48849 -0.056682 0.61869 0.53593 0.3431 -0.23801 -0.033509 -0.12054 0.014816 0.33328 0.34523 0.52037 -0.083344 -0.047075 0.2897 0.021144 0.37816 -0.12219 -0.44328 0.027742 -0.20951 -0.058309 -0.74472 -0.078328 0.071492 -0.11395 0.22699 -0.020396 0.41759 0.0043567 0.013152 0.052243 0.409 -0.22499 -0.26404 -0.42976 -0.1428 0.36797 0.073297 0.050294 0.49796 0.13473 0.052493 -0.14024 -0.10038 0.079472 -0.29493 0.10745 0.19955 0.14948 0.30586 0.45652 0.085404 0.49242 -0.1058 0.16307 -0.13739 -0.42513 -0.2699 0.43358 -0.10344 0.033421 -0.006085 0.0051209
hometown -0.13478571 -0.044789996 -0.27562714 -0.0069824234 0.088830866 -0.10906725 0.061722 0.06375483 0.09228544 -0.11543001 -0.128652 -0.14380515 0.0015988845 -0.029918276 0.01629743 0.18632671 -0.04544914 -0.023968283 0.14412814 0.088726185 -0.12829515 0.26440015 0.049138572 0.14293416 -0.22156301 -0.12746717 0.07340966 0.090294704 -0.013644142 0.179399 0.116525844 0.14088759 -0.220078 0.039574303 -0.0036845657 -0.14864531 -0.15726314 -0.122927345 -0.18806286 -0.32529774 0.2513143 -0.056176 -0.0074817203 0.018209424 0.03691815 0.042006 0.11437915 0.38995802 0.035745848 0.26093087 0.110865146 -0.09800986 0.08724244 0.067492425 0.2638186 0.057915717 0.0904292 0.09017328 0.20865823 0.18838857 -0.064566575 -0.022752848 0.12997171 0.05424872 0.36128148 -0.15731159 0.13818072 0.07364073 0.034329157 -0.07635043 0.07322387 -0.21740755 -0.13358836 -0.09724956 -0.08281486 0.31051916 -0.027488858 -0.047927864 0.026366137 -0.15554571 -0.115377575 0.2880889 -0.25377572 0.056465723 -0.17856985 0.2257171 -0.13554853 -0.35080722 0.12587714 0.12886201 -0.060911436 -0.26518115 0.46367702 -0.13394713 -0.010558428 0.010537432 0.08935986 -0.0035835821 -0.006873282 -0.09952971 0.094286166 0.029259149 -0.014273712 0.44485572 -0.17288287 0.055949282 0.42307904 0.07905871 -0.07820443 0.07135353 -0.02061686 -0.11914514 -0.25465474 -0.24903715 0.046958286 -0.04022494 0.15371245 -0.06443714 0.07008009 0.069705 0.064927176 0.0225486 0.00743929 0.38326588 0.14788407 0.16870914 -0.038401283 -0.05620814 0.054176573 0.052773576 0.15424 0.09426429 0.240308 -0.062434714 0.16796416 0.016676027 0.0568 -0.16392457 -0.13049 -0.15516716 -0.04538385 -0.16361575 0.06629429 0.17072742 0.018778287 -0.34865317 0.007699912 0.11442487 -0.5319607 -0.17205516 -0.1771706 -0.2673926 -0.116775356 0.19286653 0.004322844 -0.11068686 -0.08848342 0.05164933 0.34669873 -0.021728711 0.117766865 0.02195143 -0.06785157 -0.15787694 0.29058 0.08761243 0.14642727 -0.18088345 -0.09359287 -0.12855315 -0.17653646 0.03488714 -0.034005426 0.12915243 -0.093866035 0.22066571 -0.15515915 -0.062986866 0.14694545 0.14246714 0.0036040035 0.08540299 0.35117847 0.22188143 0.331299 0.10419857 0.2548286 0.04072457 0.33337757 0.11788458 0.09896286 -0.2528886 0.017650884 -0.08911772 0.11155939 0.051718004 -0.07156615 -0.070673 -0.08208144 0.079547286 0.4285143 -0.12978886 -0.12632568 0.17777343 0.10122986 -0.13003616 0.09697644 -0.049020573 -0.1817377 0.185429 -0.36604574 -0.0013787204 -0.0028111425 -0.15479286 0.010732149 0.18741445 -0.10409736 0.17429762 0.025787424 0.20471571 0.0023649847 -0.024395572 0.09539135 -0.095597975 -0.030156141 -0.18449792 0.23769215 0.09505687 0.10298529 0.0140921455 -0.031239536 0.050977375 -0.10334215 -0.2295343 0.17264287 -0.02149929 -0.20810573 0.07895986 0.067176685 0.38659617 0.061828572 0.10232143 0.3366203 -0.0051029995 -0.24471402 0.09240844 0.05199844 0.37718308 0.085478865 0.12867142 0.05279086 0.17099144 0.24777345 0.061659295 -0.030788576 0.40232858 0.07551787 -0.20940445 -0.2003029 -0.12555543 0.027484436 -0.041357853 0.12221871 0.008490428 -0.20799915 0.1079923 0.23144858 0.032741144 0.4843286 -0.01429143 -0.33422002 -0.17835328 0.064896286 -0.22290656 -0.01348028 -0.07349715 -0.9038135 0.05396856 0.19495715 0.25921974 -0.22503287 0.19574715 -0.3841806 0.23910686 -0.4835039 0.19800144 0.25114572 0.18592472 -0.029433286 0.23063585 -0.023416359 0.2505567 0.24065728 -0.41371143 -0.11470087 -0.013501334 0.02066686 0.15344714 -0.1714583 0.46901432
leaderName -0.08118167 0.08350335 -0.17562251 -0.028023338 -0.17147899 -0.013152003 -0.20738468 0.32186335 0.45876333 -1.1279167 0.12294234 0.023063665 -0.28625858 -0.038983673 0.04884001 0.14040737 -0.344795 0.23936334 -0.01130266 0.110303335 -0.23094074 -0.059745006 0.24823067 -0.21223769 -0.06187333 -0.25454336 0.10197 0.060811963 -0.18769333 -0.17519169 -0.16024794 -0.062275004 0.20074335 0.18705001 -0.956459 -0.002848002 0.26445636 0.07598 -0.12585 0.0102826655 -0.11234548 -0.210087 0.14287934 -0.259901 -0.15439267 -0.15825167 0.16630335 0.124227 -0.060876332 0.17594334 -0.06696133 0.010643001 0.168161 -0.084396675 0.38951 -0.0495823 0.11017667 -0.17280734 -0.050773345 0.28016433 0.047841996 0.06920001 -0.04434667 0.22003001 0.27925667 -0.19302002 0.26542735 0.17067933 0.012736669 -0.03843665 0.005425 0.15799668 0.032881 0.080370665 0.011853328 0.03784334 -0.49904132 0.19940567 -0.054205 -0.35491535 -0.04220567 0.23123501 -0.069919996 0.29176435 -0.18991333 0.18252802 -0.26312 0.31325668 0.057696335 0.08028334 -0.37765002 0.09518033 0.10308667 -0.19957 -0.298956 -0.15514034 -0.14963335 0.20047668 -0.28566337 -0.12787333 0.16283333 0.08837134 0.012627006 -0.120087 0.079003334 0.24089909 -0.014378667 0.158583 -0.094073325 -0.116861336 0.25816068 -0.32537 -0.19880234 -0.2596067 -0.049256667 0.22168496 0.21237335 -0.155249 0.2322928 -0.014216563 -0.11294633 0.122958004 0.4178233 0.14358851 -0.025842667 -0.058214664 -0.13383101 0.256728 -0.15387835 -0.08956121 0.2950912 0.020470005 0.123243675 -0.028980002 0.2751757 0.35963666 -0.22556001 -0.42186666 -0.07638 0.22169667 -0.16907667 0.06407333 0.057277 0.154753 -0.21252666 -0.179372 0.15430935 -0.12226999 0.03429 -0.068626 -0.0065908334 0.12294366 0.13654934 -0.18089335 0.35424668 0.11367333 -0.21486533 0.31256866 -0.03474466 0.05878067 -0.109846994 -0.035576336 0.11924 -0.099371 -0.17738168 -0.0024659983 0.16414168 -0.14121564 -0.351477 0.15575334 0.12501167 0.076146334 -0.10226667 0.059125673 0.18200867 -0.038295664 -0.20482373 0.14525205 -0.3453467 0.4608 0.28953367 0.40031335 0.45602 -0.055089336 0.057520002 0.12204733 -0.3556467 0.0021610013 -0.07269333 0.106746666 0.23814332 0.13056101 0.111562334 -0.26938635 0.20611069 -0.06615999 0.08907966 0.13539861 -0.04048 0.049917232 0.7784733 0.17502335 -0.0368782 -0.25061768 -0.13927533 0.011203329 0.42166635 -0.04741333 -0.42751002 0.17922422 0.069772005 0.074153334 0.29788667 0.162342 -0.05947567 0.119986676 0.28500593 0.03434667 -0.18403333 -0.043335002 -0.039110996 -0.20859668 -0.342656 0.06418837 -0.26525003 0.012133333 0.14111 0.19938669 -0.05164001 0.116223335 -0.112056665 0.17243366 0.3680733 -0.08581933 -0.052149992 0.04665234 -0.0084333345 0.16837333 0.17225 0.28678334 -0.063479 -0.07709667 0.5365767 0.15636735 -0.72631335 -0.123010665 0.10563 0.35768336 0.013979333 -0.12832001 0.11353 -0.19816852 -0.045066666 -0.056903332 0.13069232 0.12577501 0.3017257 -0.30165002 0.13559 0.19758335 0.13181368 -0.323402 -0.09979235 0.0087669995 -0.16464528 0.0016233351 0.15647835 -0.25644 0.27473664 -0.467887 -0.011103338 0.16691667 0.050043337 0.45671332 0.264274 -0.034967996 -1.4735334 -0.18281333 0.47697335 0.16218017 0.124250345 -0.041619014 -0.03721757 0.26271167 -0.01120467 -0.031672336 -0.23409002 0.38648468 -0.10367333 0.021443328 -0.243554 -0.04122767 -0.23147666 -0.061536662 0.26505667 0.33075368 -0.15476757 -0.4893353 -0.305914 0.10646667
locatedInArea -0.072417565 0.218193 -0.25926095 -0.357266 0.18955411 0.0044390345 -0.2842818 0.19713385 0.078559 -0.95433027 -0.027869781 0.063227 0.08885271 0.03593667 0.13687856 0.25490287 -0.46615887 0.27709442 0.057430334 0.15607211 -0.1589407 0.04369717 0.115076885 -0.07011512 -0.10124222 -0.089079656 -0.2513821 0.05714755 -0.062245775 0.12515767 0.39240858 -0.07229243 -0.2564241 0.13147867 -0.13599165 0.16724178 0.25377285 -0.055750113 -0.13740689 0.013581998 0.01806774 -0.07599345 -0.2892569 0.22429477 0.17085044 0.083124235 0.26179805 0.29151666 0.014059886 0.27385092 -0.017033445 0.0046908855 0.1473589 -0.22518434 0.086670615 -0.24912336 0.06389267 0.18321894 0.24911547 -0.032815557 -0.013859782 -0.12964821 0.20297223 -0.013647441 0.12242501 0.009615215 0.04715989 0.14899777 0.0012257844 -0.097640336 0.052461445 0.0053939954 0.20240189 -0.10713732 -0.35666502 -0.16615677 0.11349177 -0.14733754 0.074473746 -0.12774934 0.045114778 -0.24756932 -0.37639335 -0.054688897 0.038849328 0.031509776 0.06926599 -0.11097108 0.016652895 -0.012745887 0.058893006 0.17446366 0.35820225 0.06836667 -0.20835276 -0.047726665 -0.21754654 0.14841457 0.016338104 -0.0486062 0.036351997 0.057379 -0.22382699 0.048503 -0.22265132 0.09229173 0.21294613 0.16013987 -0.023400225 0.3646508 0.08157112 -0.45954746 0.04671479 0.078621104 -0.18960167 -0.039484907 0.12544756 -0.080575444 0.2414111 0.14486666 0.18946217 0.03811266 0.32895532 0.08635025 -0.03142511 0.16551667 0.053631008 -0.047693662 -0.13934804 -0.27231553 0.240237 0.07278355 0.15588889 -0.05925156 -0.004807255 -0.09347288 0.07958364 -0.099261776 -0.2613751 0.020402377 -0.22205523 0.040578887 0.04568365 -0.109928116 0.0025357737 -0.2508188 0.23577042 -0.026107872 -0.177435 -0.021008441 0.26022905 0.010966112 0.10490779 -0.23276067 0.29024 0.087221116 -0.047043566 0.18411857 0.21925223 -0.038742106 -0.02031144 -0.24331957 0.10890236 -0.23754624 0.17936596 -0.2468638 0.21069166 0.10597245 0.04900559 0.10925511 0.167877 -0.16840899 0.015834779 -0.094934925 0.0873941 0.06341111 -0.015488111 0.04658489 -0.095164835 -0.14250033 -0.1543592 0.3375837 0.12282644 -0.07098561 0.12459556 -0.12947866 0.08662722 0.01385156 -0.18564388 0.09400644 0.37497088 0.14637677 0.100092486 -0.010778924 -0.04308312 0.13260844 -0.017882662 -0.03281216 0.08672745 0.07951143 0.6901035 -0.17303978 -0.21472867 -0.07811322 0.15170456 -0.08316056 -0.068129994 -0.06005 0.14098112 0.17606504 -0.05108689 0.178143 0.016538896 -0.07305711 -0.098178096 0.04795112 -0.1479661 0.11074378 -0.17525911 -0.030635681 0.008422223 -0.11496554 0.044435337 -0.15993783 0.11963189 -0.22825104 0.03569444 0.03121628 -0.23606634 -0.013283888 0.20587678 0.19112556 -0.014991105 -0.011232552 0.0049545574 0.008494034 -0.012836222 0.06448422 -0.135513 0.33354512 -0.06637767 0.08091322 0.48791224 -0.016760886 -0.42806345 -0.027230604 -0.026773341 0.2934936 0.01921289 -0.0024355485 0.077658 0.2647111 -0.023674442 -0.23711856 -0.10970478 0.10191666 0.10345379 -0.114664674 0.20367044 0.17262122 0.09000267 -0.115287 0.3716151 -0.02268433 -0.16239189 -0.37965402 -0.04336067 0.18903577 0.5485511 -0.12737481 -0.009263445 0.10773112 0.14628656 -0.05549601 0.015540103 -0.011671971 -1.3940978 0.1731921 0.39442712 0.30155778 -0.26095638 -0.033848118 -0.24816407 -0.10985678 -0.13346145 -0.09002422 0.007183274 0.16944611 0.406624 0.18885411 0.07031856 0.011313002 -0.11511222 -0.024094671 0.14290912 0.3733989 0.18836966 -0.11574333 -0.14189255 0.0126520675
nationality 0.08553214 -0.319267 0.114868 0.26634002 -0.28186 0.120795004 -0.1273219 0.422525 0.16303316 -1.5194049 -0.14671001 -0.067516506 -0.23362799 0.06905 -0.010810003 -0.2516245 0.2279035 0.032447997 0.009185001 0.083924994 0.053434998 0.53629 -0.007095009 0.27889 -0.55141497 -0.060062002 -0.167154 0.52299 -0.266865 0.268645 -0.543115 0.26725802 -0.17692201 -0.023065008 -0.2293745 -0.30559048 0.04045499 -0.1900229 -0.12516664 0.14585501 0.1092 -0.858065 0.33328098 -0.08680001 0.0919166 -0.072084 -0.266175 0.260405 -0.39892 -0.047863502 -0.1277385 -0.166925 0.47959 0.0175005 -0.046780005 0.23875 0.16780001 0.0053800046 0.21727301 -0.102385 -0.126742 0.59433 -0.28097498 0.345855 -0.04919 -0.24917269 0.318465 0.42973 -0.0570885 0.019110002 0.06261001 -0.0034350008 -0.25263 0.080258496 0.25946018 0.21356873 0.26555902 -0.039049998 -0.41320503 0.008231001 -0.18512765 -0.13371927 -0.19865501 0.3496 0.130635 -0.2697125 -0.456305 -0.582175 0.028411001 0.55907047 -0.60030496 -0.2898118 0.21240999 -2.3499876E-4 0.16632801 0.14610499 0.088640004 0.20528 0.24489501 0.112210006 0.0668815 -0.24729651 0.092365496 0.06520999 -0.42290002 0.3335 0.28176498 0.0037830006 -0.276255 0.32001 0.374595 -0.069500014 -0.18505 -0.26602 0.15521601 0.120185 0.02391 -0.11625535 0.49896002 -0.061625503 0.369655 0.1236315 0.220375 0.0453922 0.120962 0.1909945 -0.25881 0.27018 -0.1685515 0.2836635 -0.094450004 -0.0907475 0.48716 -0.008196 0.270076 0.057150006 -0.136091 -0.113555014 -0.079849005 -0.035280004 0.073769994 0.035111 0.119651005 -0.28289 -0.049765006 -0.34464002 0.195915 -0.22078 -0.13096648 0.53481 0.303365 -0.037681397 0.279736 -0.119100004 0.29216498 -0.009640008 -0.48203 0.101359 0.31044 0.0299275 0.58546 -0.099072 0.0457565 0.1717 -0.18603 -0.106975004 -0.09740749 -0.06171 0.17489201 -0.24626051 0.285105 0.207236 -0.17687 -0.24077001 0.33842 -0.29149094 -0.07980001 -0.024350002 -0.15244776 0.748655 -0.11711 -0.06365775 -0.113895 0.3256285 0.0564145 0.28822 -0.110981494 -0.056565 -0.15292 0.31293 -0.262515 -0.5255989 0.27536452 0.06369001 0.58024 0.094000004 0.1355443 -0.18555501 -0.10690498 0.257215 0.88330495 0.059072502 -0.32822502 -0.27834898 0.3905115 0.06626 0.2404705 0.64053 -0.0117645 0.564225 -0.217616 -0.414935 0.043392997 0.25466 0.039455004 0.2512455 -0.020193499 0.302121 0.26511002 0.900265 -0.201355 0.175635 0.4116686 -0.30752498 0.06575795 -0.24825999 0.07263366 0.01086 0.026238505 0.36886 0.2262855 -0.14414999 0.027065001 0.0210861 0.056904994 0.080001 0.0011829995 0.1373825 0.290395 0.23748 0.20792001 0.259355 0.824075 0.078053 0.15307999 0.19988999 0.02008 0.337735 0.3213172 0.0207665 -0.099175 -0.045719 0.13193 -0.414895 0.358771 0.100414 0.0265975 0.15125 0.022030499 -0.15130314 0.1300015 -0.2619125 -0.0050215013 0.13303499 -0.0788345 -0.04807 0.2301 0.202945 -0.14183502 -0.45063 -0.34407002 -0.25011998 0.241357 0.28229 0.1536475 -0.29235 -1.59147 -0.17119801 0.621655 0.20021999 0.288715 -0.396865 -0.425525 0.068601504 0.16090351 -0.050788 -0.05551 0.27042 -0.2304 -0.039555 0.4913 -0.2709 0.307295 -0.20961499 -0.21348454 0.72889 -0.062489994 -0.2115655 -0.28490952 0.175005
parent -0.15450066 -0.065824635 -0.03240934 0.00156567 0.063010335 -0.23697233 -0.20622334 -0.07704333 -0.15094967 -1.0841668 -0.0022259976 -0.009414668 -0.06303667 -0.17313832 0.09306833 0.10704534 -0.031473335 -0.7102933 0.007911002 -0.097160004 0.08204334 0.32566333 -0.22377267 0.190517 -0.08359067 -0.04217 -0.058789335 0.10606533 -0.19892767 -0.144514 -0.33777332 0.68965006 0.120526336 0.014480005 -0.65124005 0.17987132 -0.0044326633 -0.089084 0.001854334 0.14334 0.14020067 -0.15965667 0.34515333 -0.11076933 -0.03516367 0.014867663 0.3573 0.44134665 0.119716 -0.181117 0.22226135 -0.158061 0.25669667 0.12234666 -0.42697668 0.017779341 0.5963267 0.35917565 0.25103998 -0.47016 0.19012034 0.28835332 0.5720534 0.42692766 0.0345333 -0.51660335 -0.28357333 -0.096436664 -0.30819035 0.137822 -0.3022067 -0.43918568 -0.57102334 0.13971636 -0.16350234 -0.050693005 -0.067766674 -0.27405334 -0.34368333 0.19675002 -0.16104865 0.18462032 0.25295 -0.14594033 -0.30404335 0.22268467 0.115302 0.16914001 -0.10854001 0.3679267 -0.24548635 -0.06489 -0.49360332 0.32017335 -0.07112333 -0.11663934 -0.036849335 -0.05961334 0.23861668 -0.32293668 0.44247 -0.20774524 0.25214332 -0.07437297 0.31459665 -0.043304667 0.50780666 0.09972967 0.15871333 0.34695834 -0.04624067 0.34489667 -0.056366667 0.103621334 0.053316668 0.079020336 0.16486667 -0.065125674 0.231445 -0.03053334 0.11014911 0.41370332 -0.15555 -0.3317427 -0.076522 -0.12172967 0.15214801 -0.2093061 0.183098 -0.0476952 0.54282665 -0.035445668 -0.002173332 0.071184665 0.11171534 0.19861667 0.062260002 -0.12659934 -0.27201998 0.007302334 0.47797737 -0.074370004 0.10464999 0.063140675 -0.14851665 0.017672334 0.11893666 0.16015866 0.18718366 0.05896334 0.067886665 0.027004002 -0.036401667 0.17939699 0.033658996 0.19458136 0.14768767 -0.17731868 0.15677 0.22644566 0.70853007 0.12821467 0.42638636 0.19207668 -0.052806 0.22073334 -0.262142 0.043902665 0.058310002 0.22888234 -0.016117003 0.16773334 -0.69128 0.14974521 -0.09522333 -0.040902004 0.024243336 -0.40291733 0.028640669 0.5827 0.09389834 0.122543335 -0.24430168 0.34041 -0.095939666 0.088315666 -0.72784996 -0.035240002 0.33036333 -0.12359734 -0.13117334 -0.49334 -0.234202 -0.010145001 -0.58852667 -0.066676006 0.09103434 -0.42403334 0.05467 -0.39789003 1.3041867 -0.003924 0.27178702 -0.024430674 0.32740667 0.033426683 0.08495834 0.20310001 -0.07777034 0.030727327 -0.43741667 -0.066107675 -0.07355434 -0.32620335 0.22237667 0.187756 -0.008726401 -0.27538002 0.19470835 0.2173003 0.09831833 0.030053 -0.021167329 -0.14255667 -0.43772334 0.2917567 0.27061 -0.13090366 -0.0028699986 0.021462334 0.11287999 0.07288 -0.20611833 -0.13274333 -0.10645667 0.18292001 0.16934064 0.20831868 -0.38211668 0.12887162 0.25005138 -0.29816332 0.096621335 -0.024083328 -0.347033 -0.028332334 0.09644033 -0.25872335 -0.021909337 -0.060813334 0.058392666 0.41562003 -0.18270734 0.25975 0.92151135 0.35237667 0.067096666 0.0014553238 0.18469632 -0.19451168 -0.014857665 -0.106248006 -0.11767334 -0.026250234 -0.075099364 0.51569 0.283836 0.048266664 -0.0929 0.087533 -0.40857333 -0.36467 0.29607135 -0.53026336 0.11146034 -0.17026928 -1.30341 -0.20843235 0.056681003 0.19329032 -0.08955334 0.3295627 -0.13771701 -0.33389336 -0.5569633 0.44088668 0.48846337 0.56131 0.074741535 0.004159992 0.31092668 0.14776665 0.3100841 -0.4703467 -0.12730667 -0.009252667 0.26392 -0.07211967 -0.19145334 0.42118335
president 0.081035 -0.5934454 0.16889182 -0.024900002 0.0017265044 -0.634435 0.0517205 -0.027570624 -0.059091248 -0.57632 -0.040190503 -0.46595 -0.30222127 -0.550045 0.010475004 0.1347475 0.23692998 0.220315 -0.14828573 0.14211068 -0.22010249 0.17793 -0.071584255 -0.30187848 -0.04482925 0.3549175 0.13498975 0.05747001 -0.065262005 -0.21954876 0.33533475 -0.20328 0.68593496 0.3188125 -0.7158662 0.2687575 0.5924535 -0.23196474 -0.13028 -0.32832927 0.49898 0.16947326 -0.16314432 0.3460105 0.16775474 -0.33049574 -0.3352905 -0.061715 -0.0057667494 0.012975 -0.27120227 0.15210749 -0.039945 -0.05719824 0.106814995 0.78436 -0.21627301 0.19501749 0.23612925 0.0641575 0.161535 -0.0015150011 0.44664 0.12145675 0.30494 -0.42086002 -0.06764125 0.165825 -0.4224185 0.0088150045 0.057043575 -0.13375649 0.0575025 -0.3423725 0.199435 0.052615 -0.2438475 0.4232025 -0.205519 -0.202815 -0.471295 0.17224249 0.07847725 0.04033825 0.3383934 -0.043167748 -0.3449925 0.7809925 3.539957E-4 0.14581001 -0.6478 -0.118884996 -0.459244 -0.101876765 -0.142776 -0.16929474 -0.01811 0.25604475 0.07399 0.24510251 0.24586026 0.0518795 0.16069424 -0.269465 -0.045090504 0.18555588 -0.00496775 -0.42548123 -0.12995 -0.012395002 0.24212274 0.066766255 -0.376476 0.0951188 0.050656497 0.32724276 0.38673002 -0.21641299 0.0546096 0.24678124 -0.2688225 0.5682875 -0.18245499 -0.14140001 0.2576475 -0.40367252 0.07510025 0.010571748 -0.098722495 0.16774751 -0.30189848 -0.2730375 0.04436124 -0.06333275 -0.391098 -0.03067125 -0.19763301 0.4251585 0.040166803 0.3438875 0.10859749 0.28961498 0.00222525 0.001930248 0.22468051 0.51496726 -4.6024332E-4 -0.072711505 -0.21790174 -0.103128746 0.77177477 -0.18398231 0.3233227 0.2248865 -0.23071575 0.4620975 -0.13285899 -0.080248 -0.22579601 0.1551325 -0.23354499 0.68468004 -0.20403975 0.020712499 -0.33491728 0.030039499 -0.036596 -0.3508175 -0.1743325 0.56000745 -0.010449998 0.66182256 -0.306548 -0.4032275 -0.28155974 0.239667 -0.15903974 -0.113305 0.023005255 0.29598302 0.0048032477 0.44449 -0.11041251 0.049701497 0.0014954954 0.114144996 -0.8373425 0.18719025 -0.2496575 -0.030860752 0.31947 -0.48942754 -0.34550253 -0.075519994 0.03280249 0.60823256 0.34890378 0.34981498 -0.269948 -0.109506994 0.09358251 0.37562424 0.03884249 -0.08999 -0.016016006 -0.12988749 0.34729 -0.109097004 0.4308275 -0.045396745 0.62461746 0.009374002 0.21566999 -0.11679751 -0.367347 -0.15192801 -0.5252875 -0.42059502 0.030845001 -0.319135 -0.104987994 -0.11974999 -0.31197476 -0.2109325 -0.3584475 -0.180955 -0.04156825 0.09769 -0.45084 -0.16317001 0.07809 0.03402351 -0.23159154 0.0879765 0.36885 -0.23556 -0.1223925 -0.081426755 0.3140725 -0.0634535 0.014749002 -0.117692225 -0.1792309 -0.18098475 0.2908225 0.467315 0.3563475 -0.87925756 -0.092519306 0.33576402 0.22924 -0.0957735 0.043539755 -0.155342 -0.2956845 -0.1402125 -0.36449748 -0.4840125 0.13770351 -0.21717024 -0.1224925 0.06466775 0.33408627 0.10542501 -0.06138935 -0.34714 0.170243 0.50187504 0.13259305 0.63698256 -0.45892376 0.017505998 -0.14528501 0.0892825 0.121467374 0.0705875 0.30010247 0.30739748 0.3555825 0.12344999 -0.18746 -0.21087 -0.24890524 0.058981754 -0.35973376 0.20401947 0.427051 0.3443225 0.15453126 -0.26934126 0.28543752 0.017030247 0.043493252 -0.4575175 -0.663265 0.2894325 -0.019156754 -0.051249996 -0.38966 0.54907
relative -0.27493668 0.3332 0.06154067 -0.27407333 0.12363334 0.20459267 -0.09593001 -0.010314336 0.09529233 -1.0313567 -0.15689167 0.0060427003 -0.07638733 0.07757534 -0.36912668 -0.26457435 0.17561667 -0.3568167 -0.18808924 -0.18351667 -0.20213002 0.48407668 -0.13042401 -0.280488 0.076340675 -0.07664934 -0.152986 0.12504001 -0.17876002 -0.19528666 -0.54649335 0.64698005 -0.10471001 0.2857556 -0.12925667 0.054297335 0.23652002 0.066123664 -0.18105833 0.09792235 0.41797036 -0.03595067 0.31019133 -0.22058836 0.102862 0.05794367 0.28131336 0.25989002 0.27745336 -0.12410267 0.25213367 -0.26704633 -0.054284003 -0.097216666 0.06513833 -0.15469334 0.15335566 0.14514333 0.09931767 -0.2787 0.21963201 0.018298004 0.61211 0.28048268 0.13023667 -0.5399333 -0.13140234 0.027169993 0.102345005 0.42663002 -0.20014668 -0.17698 -0.16652633 0.08793001 -0.049133673 0.08129966 -0.13401866 -0.34570333 -0.022390667 0.39315236 0.086621344 0.27592668 -0.12885335 0.040414333 0.049023997 0.15437867 0.4620633 -0.032666665 -0.17464666 -0.05279217 0.024066668 0.03243334 -0.14001 0.1450522 0.039910007 -0.079737335 -0.0069110096 -0.14928667 0.41990203 -0.09122668 0.17329133 -0.05898367 0.24415669 0.16149467 -0.29626468 0.13083768 0.18189934 -0.187087 0.08510333 0.21931669 -0.030768003 0.3052867 0.20696667 0.051334 0.37653336 0.07360233 0.18516134 -0.24788468 0.10711001 -0.030564666 -0.013725996 0.07479967 -0.062205665 -0.29252067 0.070457004 0.34383547 0.49421334 -0.01783666 0.46326002 0.32205665 0.051362332 0.05875867 -0.11331333 0.09095933 0.34854668 0.11375501 0.17570966 -0.41849336 -0.2988 0.06735634 0.08793333 0.25050667 -0.015876334 0.191253 0.07633661 -0.410794 -0.20606267 0.08206667 -0.26814467 0.15677667 -0.06242334 0.052472007 -0.29604667 0.17744176 -0.0076543293 -0.0032543342 0.23137002 0.15429334 0.37338668 -0.11130633 0.31944668 -0.18326335 0.13551867 0.12908676 -0.011136336 0.04913534 -0.21264336 -0.030369002 0.254161 0.13881834 -0.29435667 -0.10268335 -0.7489333 0.335373 -0.21967702 -0.016066661 0.07486977 -0.20957634 0.17124867 0.41324335 0.10355001 -0.0010800015 -0.16267334 0.52538 -0.15690467 0.0014700021 -0.4876067 0.18078634 -0.07233487 0.31253 0.15683267 -0.45248002 -0.18965667 0.17186534 -0.77661 0.060257 0.15394233 -0.13166001 0.057412338 -0.40090334 0.8304 -0.116515 0.14359301 0.035820868 0.47613335 -0.005030662 0.12042934 -0.213667 0.084805 0.06567967 -0.33022335 0.11796 0.2940782 -0.29412 0.38352668 0.030611 0.23448932 -0.29512534 0.35841668 -0.20813332 -0.07949334 -0.047345333 0.038184337 0.069869004 -0.15621267 0.47465333 0.30335668 0.0017326649 -0.10909667 0.09439998 -0.4936 0.15347001 0.0066146655 0.05832333 0.11989667 -0.09323974 0.08345467 0.24407333 -0.086324334 0.31914002 0.09663634 0.045407336 0.44070667 0.47550005 -0.33704668 -0.120160006 0.22874999 -0.097436994 -0.18009609 -0.20288667 -0.031486332 0.31557 -0.040273003 0.12305667 0.75045335 0.44226667 0.075712 0.16591996 0.096208006 0.11138668 -0.054076668 0.066863336 0.048843335 0.016284665 -0.27447003 0.14654334 0.2566867 0.035356674 0.23135 0.20065467 -0.5006157 -0.18105334 0.12966667 -0.42154333 -0.15255001 -0.3918333 -1.4684534 -0.18758301 0.19604 0.0073946714 -0.34959 0.38077337 -0.051286004 -0.337184 -0.16364 0.257441 0.29662335 0.16797334 0.46920666 0.26512668 0.34500766 0.054334667 0.26046667 -0.47583997 -0.275684 -0.17176335 0.26964334 0.062807 -0.26160365 0.6231367
spouse -0.2324765 0.07380463 -0.07646397 0.05932612 0.026693001 -0.08991274 -0.108822 -0.2132356 0.033622876 -0.58104473 -0.016218502 -0.009134999 0.007674123 -0.32457352 -0.19567889 -0.090305135 0.12694526 -0.45599574 0.11893532 0.09319812 -0.120014384 0.33747125 0.05412388 -0.031005375 -0.20539962 -0.026200622 -0.0058386214 -0.1488035 0.214122 -0.285806 -0.4512925 0.38617748 0.46742797 -0.23909825 -0.72065 0.07823463 -0.146563 -0.106443286 -0.03297113 0.14644513 0.31300774 0.075044125 0.08789851 -0.23593536 0.24637136 -0.270198 0.16703999 0.30424565 0.010413121 -0.035587996 0.11224845 -0.18609813 0.3364927 -0.12185525 -0.082592875 -0.26491538 0.24787275 0.119668886 -0.050001875 -0.12646413 0.25232664 -0.008920886 0.3072085 0.408065 0.17616001 -0.3594125 0.24810499 -0.3676194 -0.25818875 -0.084569 -0.1892425 -0.4021175 -0.09836513 0.260055 0.028600499 0.23325175 -0.036580496 -0.19057614 -0.12172875 0.18657202 0.0035975892 0.34766826 0.30896002 -0.028853249 -0.026212923 -0.135755 0.009931259 -0.3292131 -0.20490487 -0.13610025 -0.24755837 0.19309062 -0.23961873 0.0769995 -0.15584038 0.048737504 -0.008901501 -0.11565209 0.17882213 -0.21744138 0.028652564 -0.1120175 0.066824816 0.10518837 0.110648125 0.25476187 0.26644588 -0.058483504 0.007586751 -0.3353425 0.17106625 0.4697455 -0.078536496 0.09325367 0.23006862 0.33416748 0.229655 0.040693745 0.033808246 -0.027639374 0.04942113 0.4769675 -0.26756874 -0.21125488 0.05007775 0.14672463 0.2854775 0.034222253 0.07852488 -0.11186212 0.25457588 -0.17841417 -0.079418436 -0.022896996 -0.019346252 -0.052352376 -0.14760512 -0.23596525 -0.26975888 -0.1753735 -0.015931375 0.08864563 -0.037697747 0.34955126 0.07141313 -0.15608525 -0.07860063 0.004810998 0.056766022 0.12133124 0.1678024 -0.023142437 0.039536998 0.2910514 -0.19304252 -0.097098745 -0.049781095 0.13429224 0.44256675 0.21138725 0.4101675 0.18290526 0.26062536 0.33537626 -0.09852825 0.13160586 -0.22992924 -0.05773176 0.105133325 0.36597374 -0.15359013 0.2332545 -0.51479363 0.0042613745 -0.25843176 0.0049866214 0.075794 -0.23356315 -0.12847613 0.26695675 0.3390174 0.28103286 0.031777665 0.33802378 -0.123253 0.020782724 -0.316325 0.24929975 -0.044664502 -0.05226675 0.083553754 -0.49986124 -0.32684577 -0.21955 -0.39687252 -0.03652425 0.060125876 -0.24746324 0.02614363 -0.27066284 0.61516374 -0.18687013 0.23925537 0.08058875 0.34644276 0.06842251 0.5325068 0.12104869 -0.1081485 -0.021350872 -0.32282948 -0.10969566 0.33419448 -0.10740425 -0.028613 -0.0772325 0.053408492 -0.07407762 0.016950872 0.43678376 -0.10240351 0.14168487 0.24984251 -0.033726253 -0.45608497 0.06355375 0.22535351 0.031043 -0.0652685 0.31541887 -0.06871325 -0.11080125 0.31183922 -0.0556325 0.04902063 0.08908999 -0.35167763 0.3575225 -0.25811607 0.112547636 0.10562937 -0.10988354 0.5375419 0.030838497 -0.23814037 0.44413438 0.07645725 0.026975747 0.3234399 -0.06990139 -0.12567125 0.2150535 0.10495 -0.06660726 0.5296862 0.08558491 0.22241575 0.07221861 0.56487125 0.17813788 0.12047137 -0.25994012 0.073416084 -0.041011736 -0.148165 0.22135699 0.028086882 -0.092231125 -0.04944238 -0.00784825 -0.067043245 -0.3097972 0.0194155 -0.38771337 -0.18867302 -0.22275263 -0.635445 -0.45598724 0.24802412 0.09922262 0.030748753 0.14168274 -0.061272874 -0.01678127 -0.3638925 0.19959714 0.21655874 0.39442614 0.11359025 0.117030755 -0.0791 0.09502613 0.26988 -0.36019486 -0.08715262 -0.38366002 0.21948376 0.12545912 0.025822874 0.4183337
subsidiary 0.012942333 0.19285667 -0.26422733 -0.18953668 -0.14479834 -0.48452997 -0.026066378 0.57567334 -0.22794968 -1.3287534 -0.20441368 -0.05690334 0.03306433 -0.18336701 0.16597334 0.1335908 0.0028633352 -0.19475101 0.17752665 -0.22506002 0.24821667 0.24441668 0.31579334 0.28713667 -0.15657 -0.014760233 -0.21479468 0.14958933 -0.16433668 0.42961 -0.25438333 0.014866337 0.31143 -0.13025735 -0.18765333 -0.19807333 0.0065389974 -0.016946668 0.26119 -0.027803332 -0.32357 -0.0024276674 -0.19559601 0.70671266 0.20907998 -0.2725767 -0.07287334 -0.016876668 0.409628 0.014315332 0.014464001 0.07707 0.22263066 0.46174335 -0.022340003 0.041597664 0.51617 0.70681 0.07552001 -0.22002332 0.22121501 0.08429001 0.19825333 -0.29968667 0.14656001 0.19755235 -0.46125335 0.18924567 -0.3850667 0.32031333 -0.002933666 0.25446 0.0012633305 0.11321333 -0.19328001 0.09336367 -0.22809999 -0.10071801 0.14925335 -0.0336835 -0.26222667 0.07543637 -0.3364174 -0.24433568 0.4121537 0.23266332 0.0029746674 0.14709 -0.17505667 0.41652668 -0.17438799 0.22036669 0.24430934 0.44294667 0.077996664 -0.12799 -0.28066334 0.13971302 0.015328666 -0.33302003 0.07433534 -0.20622 -0.15258534 -0.16272 0.20648766 0.027772 -0.25596002 -0.009593001 -0.09165901 0.40141666 0.11945766 -0.21964334 -0.30244336 0.21414402 -0.05522467 0.14419201 -0.24386218 -0.047489002 0.030073326 0.40745002 -0.0074580014 0.16150099 0.56075335 -0.45415002 -0.4492613 -0.18969 -0.13626665 0.26247835 -0.30128402 -0.005492664 0.21470335 0.109476656 -0.14136599 -0.08767267 -0.19971594 0.32483435 0.13488868 -0.12280533 0.069501966 -0.20652 -0.09791833 -0.34185335 0.41588336 -0.040673334 0.08076834 0.13249335 0.035981666 0.177044 0.11909334 -0.13935667 0.53627 -0.08524334 0.32686433 -0.46460304 0.103368 0.11628681 0.007823664 -0.13600668 -0.15074334 -0.17621002 -0.03241393 0.114676654 -0.23387867 0.15582702 -0.20070134 0.13698 0.14954667 0.27518833 -0.18643668 0.82392997 0.040691335 0.041334935 -0.7113034 0.50060666 0.001176333 0.291399 0.18882333 -0.31005 -0.12792635 0.41132438 0.20994465 0.11236667 -0.17635934 0.09523134 0.07810341 -0.39336666 -0.3987367 0.10273533 0.08725001 -0.38564667 0.2646262 -0.07513767 -0.26369 -0.21286866 0.12221478 -0.072472036 -0.11383334 -0.06790033 -0.15397334 -0.055886656 0.30136734 -0.07235333 -0.48258334 -0.43842003 0.067256674 0.22639033 -0.106 -0.09941 0.09569667 -0.3787267 -0.17255834 0.15711668 0.056981325 -0.29631966 0.20897767 0.044290002 0.35940334 0.28395998 0.009501666 0.41430336 -0.16048999 0.122871004 -0.02101333 0.31985065 -0.19505969 -0.112816334 -0.27163002 -0.01784134 -0.27250335 0.025454333 0.030898001 -0.009135336 -0.05712333 0.29082668 0.30334032 0.052923664 0.18741667 0.04372 -0.27506667 0.20958667 -0.009382002 -0.36398566 0.32592 -0.51698667 -0.30638933 -0.11751334 0.26479334 -0.30844998 0.0948106 -0.08129534 0.06970534 0.41112334 -0.06115 0.105247006 0.35614002 -0.29277235 -0.71181667 0.20206702 0.45069334 -0.24192002 0.06478867 -0.13323234 -0.06067533 -0.18146667 0.08669333 0.20837668 0.19900899 -0.08027667 0.12556867 0.29767668 0.25964502 -0.19525334 0.032262668 0.15763368 0.10723001 0.096696004 -0.48047233 -0.4022767 -2.0866594E-4 -0.08467334 -0.20966999 0.021276653 -0.234077 -0.13030167 -0.17335336 0.18035966 0.46898335 0.2546667 0.18240333 -0.088005334 0.04732001 0.156378 -0.046285998 -0.40981 0.163472 0.64742064 0.09995267 -0.07373466 -0.15774567 -0.24282901
tenant -0.32243863 -0.243999 -0.1786536 -0.062943004 0.17711887 -0.132396 0.3416674 -0.13608001 -0.29142603 0.10032481 -0.115020595 -0.4227844 0.36950198 -0.1983526 -0.046521403 0.51892805 -0.002913201 0.031460196 0.0665962 -0.029731805 -0.20959719 0.15290312 0.1401968 0.2831706 0.0861232 -0.10648086 -0.111157 -0.047395397 -0.54971117 0.22197 0.08128541 0.036054004 -0.1054132 0.087346 0.071149796 -0.147789 0.111951604 -0.63556194 0.12057352 0.22699058 -0.092066005 0.44548398 -0.2995068 0.54567975 0.0729988 -0.2534376 -0.023716802 0.278378 -0.07854801 -0.11013939 0.15976201 -0.3588171 -0.020156002 0.015559602 0.22967 -0.055377603 0.052636202 0.396476 -0.36451802 -0.167598 -0.049185384 -0.08625781 0.17542179 -0.054725077 0.0631886 -0.2901052 0.0553088 -0.269746 0.273944 -0.22291279 0.1958704 0.079004005 -0.0786292 0.3589496 -0.3096656 -0.080373205 -0.475566 -0.24467361 0.1627988 -0.25110623 0.1097916 0.357832 -0.0430772 -0.18791202 0.1555074 -0.08845919 -0.0339972 -0.3439176 -0.22903939 -0.0465214 0.2136966 -0.19293721 0.24812602 -0.070524 -0.031261604 -0.07202001 0.24768281 0.033220407 0.27068603 0.1791286 0.098650396 -0.20520602 -0.1560754 -0.092597 -0.1749184 0.153502 0.038961798 -0.1362746 0.23748942 -0.1661006 -0.042574 -0.369304 -0.0868408 0.35109264 -0.20355801 0.023993999 0.214644 0.046785995 0.026223792 0.179894 0.39282602 -0.018434608 0.11447761 0.14233719 0.24161799 0.1778224 -0.093224406 -0.041216597 0.12579261 -0.13759801 0.2664095 0.11355467 -0.114863805 -0.165502 0.23766199 0.1101308 -0.013193804 0.22175078 -0.38459358 -0.3771982 -0.052807 0.25683197 0.3697198 0.363141 -0.277428 0.008558125 -0.09936199 0.299176 -2.8328E-4 -0.010629998 -0.18095723 -0.011348188 -0.27625802 -0.33808002 -0.42785197 0.11663383 0.0126877995 0.13165942 -0.08814181 0.1020568 0.322307 0.13576427 0.20910878 0.2018234 0.06480221 -0.20707022 -0.083722204 -0.0459764 0.34698123 0.370216 -0.2823732 -0.017554795 -0.040077403 -0.038064003 -0.168424 -0.010146201 -0.047959406 0.1811766 0.1015087 -0.014100397 0.222306 0.031226207 -0.24814999 -0.072005205 0.0798598 0.030132998 0.19805999 0.09863881 -0.17542061 0.24456199 0.21981402 0.12908842 -0.07801001 -0.408192 0.13809441 0.027833581 -0.50390446 0.45602798 -0.057816803 -0.25679204 0.055399 -0.23615001 -0.0485786 -0.32712764 0.35774398 0.188834 0.050282598 0.040802 -0.11501598 0.12521301 -0.1512738 -0.1324718 -0.1023616 -0.44078 -0.596094 0.034794778 -0.31606624 0.31894597 -0.37398094 0.048927005 -0.20410375 -0.2506298 0.160988 0.20819719 -0.253984 0.081002004 -0.29963097 0.14175221 -0.022023601 -0.06227529 0.25766602 0.014986003 0.063736 0.0015743911 0.491434 0.062136758 -0.183494 0.110270016 -0.2569318 0.018374 0.06459229 0.24861641 0.2565754 -0.2866716 -0.48969918 0.1690964 0.11345363 0.048943188 0.12029701 -0.1730196 -0.1258572 0.2829144 0.052254606 0.092286006 0.0511118 0.1989692 -0.41750082 0.09444999 0.33449197 -0.31541902 -0.339048 -0.21625982 0.02216208 -0.21950953 -0.39240962 -0.010814193 0.18491398 0.1584744 0.034472592 0.103124574 0.48282796 0.31885 0.067304604 -0.300742 0.011270404 -0.116613604 -0.9568001 0.22192378 0.49684602 0.18585072 -0.16559081 0.10140641 0.0428066 0.200053 -0.205392 0.33618203 0.3096442 -0.2226702 -0.34872258 -0.17483 -0.0819334 0.0645512 -0.24388002 -0.5393056 0.047763597 -0.072372 0.1916524 0.22096781 0.26984283 0.41656405
trainer 0.251041 0.4220775 0.282115 0.203355 -0.14215001 -0.27011502 0.07167 0.023655005 -0.07416001 -0.71415997 -0.358583 0.1222429 -0.373415 -0.17919405 0.252655 0.56517 0.053974297 0.16629 -0.103613004 -0.037480004 0.3177485 -0.160586 -0.1268605 0.43419498 -0.28553 0.305485 -0.24667999 0.3625435 0.304335 -0.0190605 0.298282 0.296415 -0.059210002 -0.085669495 -1.0878899 0.47044003 0.0844 -0.14383999 0.017474994 -0.36235 0.179275 -0.34275 -0.47281 -0.42199498 -0.120330006 0.14761001 0.246495 0.48765 -0.0687465 -0.453225 0.1609065 -0.12484 -0.68656003 0.055235002 -0.1023535 0.65608 0.25387 0.1278 -0.272224 -0.03837 -0.52504003 0.039545 0.265345 -0.247285 -0.18270001 -0.08905001 -0.322465 -0.405065 -0.1721175 -0.3211695 -0.17703499 0.426045 -0.12527369 -0.17162201 -0.15498501 -0.34171999 0.199833 0.358325 -0.2624585 -0.2726095 -0.0265585 -9.600073E-4 0.105523005 -0.21402301 -0.045995004 0.50826997 0.210295 -0.3258 -0.147115 0.54306 0.43539 0.877105 0.36342502 -0.66569 0.325795 -0.1912255 -0.0790025 -0.416655 0.31683 0.0695495 -0.577725 -0.16686499 0.125062 -0.175908 0.451795 -0.1536405 0.547315 0.017854996 0.093523 0.592585 -0.0939055 -0.109418005 0.266505 -0.016704999 0.057075 0.15714401 -0.036025003 0.23273998 0.1927555 -0.038305007 0.21150401 -0.373975 0.189915 -0.435045 -0.28096 -0.05962505 -0.29977652 0.429195 -0.145449 0.180625 0.26057 0.0011699982 0.18332149 0.102657 0.18563399 -0.102051005 -0.065435 0.042430006 -0.17300001 0.209905 0.24412149 -0.49884856 -0.09812501 0.038417 -0.35784 0.018814996 0.17386499 -0.186875 -0.35363 -0.1711515 0.43774003 -0.23421499 0.3816455 0.08593675 0.906095 0.08012 0.25981998 -0.11474 -0.093564495 0.21108001 0.415545 -0.26681 0.291342 -0.22287151 0.22124001 0.1247 -0.0736235 -0.0730035 -0.06676955 -0.31371498 0.17672 0.11312701 -0.21327001 -0.364285 -0.146181 0.41543052 0.2800185 -0.028265 -0.17444 0.077654496 0.36243 -0.024958499 -0.307303 0.143351 -2.0499527E-4 -0.038519993 -0.91996 0.26034498 -0.17315 -0.596505 0.18616201 -0.041509993 0.194665 -0.034382503 -0.155857 -0.65608 -0.10383999 -0.181665 0.618915 -0.122448 1.4521 -0.027324997 0.021980003 -0.2706 0.20170501 -0.51353997 0.058330003 0.52513003 0.21568 -0.27568 -0.067398995 -0.40622002 0.017494999 0.39234 0.187588 -0.650795 0.059130006 -0.14573 -0.44044 -0.640096 0.81247497 0.220576 -0.04477001 -0.40546 0.75364 -0.408365 0.3019181 -0.024760008 -0.0556155 0.3995 0.0055000037 -0.41973 0.3650055 -0.570075 0.261925 0.06728 0.024129987 0.738945 -0.298885 0.035180002 0.03918 -0.062275007 0.014445003 -0.0873 0.454084 -0.29137 0.1085935 -0.075977504 -0.033272497 0.16512801 0.009309977 0.0069155023 0.32602 0.47083 0.549155 -0.4001 0.306995 0.36148 0.379525 -0.1991455 -0.572175 -0.3568305 0.41918 0.42654002 0.108723 -0.024705004 -0.067035004 0.024739996 -0.604663 -0.1555255 -0.41889 -0.582525 0.2151865 0.18032251 0.474119 -0.21527499 -1.566005 -0.089345 -0.13205001 0.533745 -0.509125 0.051129997 0.146311 0.113142505 0.30259252 0.0050899982 -0.08200999 0.228745 -0.27335998 -0.49382 0.223515 -0.25218 -0.387355 -0.021982 -0.0738773 0.131985 -0.62587 -0.156894 0.2650865 0.0700445
